digraph Tree {
node [shape=box, style="filled", color="black", fontname="helvetica"] ;
edge [fontname="helvetica"] ;
0 [label="X[0] <= -0.5\nentropy = 1.218\nsamples = 54045\nvalue = [13308, 5159, 35578]", fillcolor="#ba93f1"] ;
1 [label="X[6] <= 0.5\nentropy = 1.007\nsamples = 16400\nvalue = [2231, 1568, 12601]", fillcolor="#a36eec"] ;
0 -> 1 [labeldistance=2.5, labelangle=45, headlabel="True"] ;
2 [label="X[12] <= 0.5\nentropy = 0.789\nsamples = 9129\nvalue = [808, 643, 7678]", fillcolor="#975cea"] ;
1 -> 2 ;
3 [label="X[20] <= -0.5\nentropy = 0.375\nsamples = 2784\nvalue = [83, 77, 2624]", fillcolor="#8845e7"] ;
2 -> 3 ;
4 [label="X[21] <= -0.5\nentropy = 1.069\nsamples = 316\nvalue = [49, 32, 235]", fillcolor="#a775ed"] ;
3 -> 4 ;
5 [label="X[24] <= 0.5\nentropy = 0.992\nsamples = 56\nvalue = [31, 0, 25]", fillcolor="#fae7d9"] ;
4 -> 5 ;
6 [label="X[30] <= 0.5\nentropy = 0.91\nsamples = 43\nvalue = [29, 0, 14]", fillcolor="#f2be99"] ;
5 -> 6 ;
7 [label="X[38] <= -0.5\nentropy = 0.469\nsamples = 30\nvalue = [27, 0, 3]", fillcolor="#e88f4f"] ;
6 -> 7 ;
8 [label="entropy = 0.0\nsamples = 1\nvalue = [0, 0, 1]", fillcolor="#8139e5"] ;
7 -> 8 ;
9 [label="X[38] <= 0.5\nentropy = 0.362\nsamples = 29\nvalue = [27, 0, 2]", fillcolor="#e78a48"] ;
7 -> 9 ;
10 [label="X[2] <= -0.5\nentropy = 0.222\nsamples = 28\nvalue = [27, 0, 1]", fillcolor="#e68640"] ;
9 -> 10 ;
11 [label="X[36] <= 0.5\nentropy = 0.918\nsamples = 3\nvalue = [2, 0, 1]", fillcolor="#f2c09c"] ;
10 -> 11 ;
12 [label="entropy = 0.0\nsamples = 2\nvalue = [2, 0, 0]", fillcolor="#e58139"] ;
11 -> 12 ;
13 [label="entropy = 0.0\nsamples = 1\nvalue = [0, 0, 1]", fillcolor="#8139e5"] ;
11 -> 13 ;
14 [label="entropy = 0.0\nsamples = 25\nvalue = [25, 0, 0]", fillcolor="#e58139"] ;
10 -> 14 ;
15 [label="entropy = 0.0\nsamples = 1\nvalue = [0, 0, 1]", fillcolor="#8139e5"] ;
9 -> 15 ;
16 [label="X[12] <= -0.5\nentropy = 0.619\nsamples = 13\nvalue = [2, 0, 11]", fillcolor="#985dea"] ;
6 -> 16 ;
17 [label="X[31] <= 0.5\nentropy = 0.918\nsamples = 3\nvalue = [2, 0, 1]", fillcolor="#f2c09c"] ;
16 -> 17 ;
18 [label="entropy = 0.0\nsamples = 2\nvalue = [2, 0, 0]", fillcolor="#e58139"] ;
17 -> 18 ;
19 [label="entropy = 0.0\nsamples = 1\nvalue = [0, 0, 1]", fillcolor="#8139e5"] ;
17 -> 19 ;
20 [label="entropy = 0.0\nsamples = 10\nvalue = [0, 0, 10]", fillcolor="#8139e5"] ;
16 -> 20 ;
21 [label="X[12] <= -0.5\nentropy = 0.619\nsamples = 13\nvalue = [2, 0, 11]", fillcolor="#985dea"] ;
5 -> 21 ;
22 [label="X[25] <= 0.5\nentropy = 0.918\nsamples = 3\nvalue = [2, 0, 1]", fillcolor="#f2c09c"] ;
21 -> 22 ;
23 [label="entropy = 0.0\nsamples = 2\nvalue = [2, 0, 0]", fillcolor="#e58139"] ;
22 -> 23 ;
24 [label="entropy = 0.0\nsamples = 1\nvalue = [0, 0, 1]", fillcolor="#8139e5"] ;
22 -> 24 ;
25 [label="entropy = 0.0\nsamples = 10\nvalue = [0, 0, 10]", fillcolor="#8139e5"] ;
21 -> 25 ;
26 [label="X[19] <= 0.0\nentropy = 0.888\nsamples = 260\nvalue = [18, 32, 210]", fillcolor="#9d64eb"] ;
4 -> 26 ;
27 [label="X[12] <= -0.5\nentropy = 0.989\nsamples = 16\nvalue = [9, 0, 7]", fillcolor="#f9e3d3"] ;
26 -> 27 ;
28 [label="entropy = 0.0\nsamples = 3\nvalue = [0, 0, 3]", fillcolor="#8139e5"] ;
27 -> 28 ;
29 [label="X[1] <= 0.5\nentropy = 0.89\nsamples = 13\nvalue = [9, 0, 4]", fillcolor="#f1b991"] ;
27 -> 29 ;
30 [label="X[36] <= 0.5\nentropy = 0.811\nsamples = 4\nvalue = [1, 0, 3]", fillcolor="#ab7bee"] ;
29 -> 30 ;
31 [label="entropy = 0.0\nsamples = 3\nvalue = [0, 0, 3]", fillcolor="#8139e5"] ;
30 -> 31 ;
32 [label="entropy = 0.0\nsamples = 1\nvalue = [1, 0, 0]", fillcolor="#e58139"] ;
30 -> 32 ;
33 [label="X[22] <= -0.5\nentropy = 0.503\nsamples = 9\nvalue = [8, 0, 1]", fillcolor="#e89152"] ;
29 -> 33 ;
34 [label="entropy = 0.0\nsamples = 1\nvalue = [0, 0, 1]", fillcolor="#8139e5"] ;
33 -> 34 ;
35 [label="entropy = 0.0\nsamples = 8\nvalue = [8, 0, 0]", fillcolor="#e58139"] ;
33 -> 35 ;
36 [label="X[1] <= -0.5\nentropy = 0.781\nsamples = 244\nvalue = [9, 32, 203]", fillcolor="#995fea"] ;
26 -> 36 ;
37 [label="X[7] <= 0.5\nentropy = 0.131\nsamples = 55\nvalue = [0, 1, 54]", fillcolor="#833de5"] ;
36 -> 37 ;
38 [label="entropy = 0.0\nsamples = 49\nvalue = [0, 0, 49]", fillcolor="#8139e5"] ;
37 -> 38 ;
39 [label="X[2] <= 0.5\nentropy = 0.65\nsamples = 6\nvalue = [0, 1, 5]", fillcolor="#9a61ea"] ;
37 -> 39 ;
40 [label="entropy = 0.0\nsamples = 5\nvalue = [0, 0, 5]", fillcolor="#8139e5"] ;
39 -> 40 ;
41 [label="entropy = 0.0\nsamples = 1\nvalue = [0, 1, 0]", fillcolor="#39e581"] ;
39 -> 41 ;
42 [label="X[30] <= 0.5\nentropy = 0.907\nsamples = 189\nvalue = [9, 31, 149]", fillcolor="#a16bec"] ;
36 -> 42 ;
43 [label="X[13] <= 0.5\nentropy = 1.018\nsamples = 153\nvalue = [9, 30, 114]", fillcolor="#a978ed"] ;
42 -> 43 ;
44 [label="X[23] <= 0.5\nentropy = 0.876\nsamples = 131\nvalue = [5, 22, 104]", fillcolor="#a06aeb"] ;
43 -> 44 ;
45 [label="X[1] <= 0.5\nentropy = 0.835\nsamples = 128\nvalue = [5, 19, 104]", fillcolor="#9d65eb"] ;
44 -> 45 ;
46 [label="X[37] <= 0.5\nentropy = 0.508\nsamples = 74\nvalue = [1, 6, 67]", fillcolor="#8e4de8"] ;
45 -> 46 ;
47 [label="X[9] <= -0.5\nentropy = 0.383\nsamples = 65\nvalue = [1, 3, 61]", fillcolor="#8946e7"] ;
46 -> 47 ;
48 [label="entropy = 0.0\nsamples = 1\nvalue = [0, 1, 0]", fillcolor="#39e581"] ;
47 -> 48 ;
49 [label="X[30] <= -0.5\nentropy = 0.316\nsamples = 64\nvalue = [1, 2, 61]", fillcolor="#8743e6"] ;
47 -> 49 ;
50 [label="X[24] <= 0.5\nentropy = 0.773\nsamples = 13\nvalue = [1, 1, 11]", fillcolor="#965ae9"] ;
49 -> 50 ;
51 [label="entropy = 0.0\nsamples = 9\nvalue = [0, 0, 9]", fillcolor="#8139e5"] ;
50 -> 51 ;
52 [label="X[36] <= 0.5\nentropy = 1.5\nsamples = 4\nvalue = [1, 1, 2]", fillcolor="#d5bdf6"] ;
50 -> 52 ;
53 [label="X[21] <= 0.5\nentropy = 0.918\nsamples = 3\nvalue = [0, 1, 2]", fillcolor="#c09cf2"] ;
52 -> 53 ;
54 [label="entropy = 0.0\nsamples = 2\nvalue = [0, 0, 2]", fillcolor="#8139e5"] ;
53 -> 54 ;
55 [label="entropy = 0.0\nsamples = 1\nvalue = [0, 1, 0]", fillcolor="#39e581"] ;
53 -> 55 ;
56 [label="entropy = 0.0\nsamples = 1\nvalue = [1, 0, 0]", fillcolor="#e58139"] ;
52 -> 56 ;
57 [label="X[22] <= -0.5\nentropy = 0.139\nsamples = 51\nvalue = [0, 1, 50]", fillcolor="#843de6"] ;
49 -> 57 ;
58 [label="X[7] <= 0.5\nentropy = 0.503\nsamples = 9\nvalue = [0, 1, 8]", fillcolor="#9152e8"] ;
57 -> 58 ;
59 [label="entropy = 0.0\nsamples = 8\nvalue = [0, 0, 8]", fillcolor="#8139e5"] ;
58 -> 59 ;
60 [label="entropy = 0.0\nsamples = 1\nvalue = [0, 1, 0]", fillcolor="#39e581"] ;
58 -> 60 ;
61 [label="entropy = 0.0\nsamples = 42\nvalue = [0, 0, 42]", fillcolor="#8139e5"] ;
57 -> 61 ;
62 [label="X[38] <= 0.5\nentropy = 0.918\nsamples = 9\nvalue = [0, 3, 6]", fillcolor="#c09cf2"] ;
46 -> 62 ;
63 [label="X[6] <= -0.5\nentropy = 0.811\nsamples = 8\nvalue = [0, 2, 6]", fillcolor="#ab7bee"] ;
62 -> 63 ;
64 [label="entropy = 0.0\nsamples = 4\nvalue = [0, 0, 4]", fillcolor="#8139e5"] ;
63 -> 64 ;
65 [label="X[24] <= 0.5\nentropy = 1.0\nsamples = 4\nvalue = [0, 2, 2]", fillcolor="#ffffff"] ;
63 -> 65 ;
66 [label="X[13] <= -0.5\nentropy = 0.918\nsamples = 3\nvalue = [0, 1, 2]", fillcolor="#c09cf2"] ;
65 -> 66 ;
67 [label="entropy = 0.0\nsamples = 1\nvalue = [0, 1, 0]", fillcolor="#39e581"] ;
66 -> 67 ;
68 [label="entropy = 0.0\nsamples = 2\nvalue = [0, 0, 2]", fillcolor="#8139e5"] ;
66 -> 68 ;
69 [label="entropy = 0.0\nsamples = 1\nvalue = [0, 1, 0]", fillcolor="#39e581"] ;
65 -> 69 ;
70 [label="entropy = 0.0\nsamples = 1\nvalue = [0, 1, 0]", fillcolor="#39e581"] ;
62 -> 70 ;
71 [label="X[37] <= 0.5\nentropy = 1.146\nsamples = 54\nvalue = [4, 13, 37]", fillcolor="#b58bf0"] ;
45 -> 71 ;
72 [label="X[2] <= -0.5\nentropy = 1.054\nsamples = 51\nvalue = [3, 11, 37]", fillcolor="#ad7eee"] ;
71 -> 72 ;
73 [label="X[7] <= 0.5\nentropy = 0.337\nsamples = 16\nvalue = [0, 1, 15]", fillcolor="#8946e7"] ;
72 -> 73 ;
74 [label="entropy = 0.0\nsamples = 15\nvalue = [0, 0, 15]", fillcolor="#8139e5"] ;
73 -> 74 ;
75 [label="entropy = 0.0\nsamples = 1\nvalue = [0, 1, 0]", fillcolor="#39e581"] ;
73 -> 75 ;
76 [label="X[3] <= -0.5\nentropy = 1.241\nsamples = 35\nvalue = [3, 10, 22]", fillcolor="#c3a0f3"] ;
72 -> 76 ;
77 [label="entropy = 0.0\nsamples = 3\nvalue = [0, 3, 0]", fillcolor="#39e581"] ;
76 -> 77 ;
78 [label="X[22] <= -0.5\nentropy = 1.171\nsamples = 32\nvalue = [3, 7, 22]", fillcolor="#b388ef"] ;
76 -> 78 ;
79 [label="X[23] <= -0.5\nentropy = 0.811\nsamples = 4\nvalue = [0, 3, 1]", fillcolor="#7beeab"] ;
78 -> 79 ;
80 [label="entropy = 0.0\nsamples = 1\nvalue = [0, 0, 1]", fillcolor="#8139e5"] ;
79 -> 80 ;
81 [label="entropy = 0.0\nsamples = 3\nvalue = [0, 3, 0]", fillcolor="#39e581"] ;
79 -> 81 ;
82 [label="X[24] <= 0.5\nentropy = 1.058\nsamples = 28\nvalue = [3, 4, 21]", fillcolor="#a673ed"] ;
78 -> 82 ;
83 [label="X[13] <= -0.5\nentropy = 0.857\nsamples = 21\nvalue = [3, 1, 17]", fillcolor="#9d65eb"] ;
82 -> 83 ;
84 [label="X[2] <= 0.5\nentropy = 1.585\nsamples = 3\nvalue = [1, 1, 1]", fillcolor="#ffffff"] ;
83 -> 84 ;
85 [label="X[36] <= 0.5\nentropy = 1.0\nsamples = 2\nvalue = [0, 1, 1]", fillcolor="#ffffff"] ;
84 -> 85 ;
86 [label="entropy = 0.0\nsamples = 1\nvalue = [0, 0, 1]", fillcolor="#8139e5"] ;
85 -> 86 ;
87 [label="entropy = 0.0\nsamples = 1\nvalue = [0, 1, 0]", fillcolor="#39e581"] ;
85 -> 87 ;
88 [label="entropy = 0.0\nsamples = 1\nvalue = [1, 0, 0]", fillcolor="#e58139"] ;
84 -> 88 ;
89 [label="X[7] <= 0.5\nentropy = 0.503\nsamples = 18\nvalue = [2, 0, 16]", fillcolor="#9152e8"] ;
83 -> 89 ;
90 [label="X[36] <= -0.5\nentropy = 0.323\nsamples = 17\nvalue = [1, 0, 16]", fillcolor="#8945e7"] ;
89 -> 90 ;
91 [label="X[6] <= -0.5\nentropy = 0.811\nsamples = 4\nvalue = [1, 0, 3]", fillcolor="#ab7bee"] ;
90 -> 91 ;
92 [label="entropy = 0.0\nsamples = 1\nvalue = [1, 0, 0]", fillcolor="#e58139"] ;
91 -> 92 ;
93 [label="entropy = 0.0\nsamples = 3\nvalue = [0, 0, 3]", fillcolor="#8139e5"] ;
91 -> 93 ;
94 [label="entropy = 0.0\nsamples = 13\nvalue = [0, 0, 13]", fillcolor="#8139e5"] ;
90 -> 94 ;
95 [label="entropy = 0.0\nsamples = 1\nvalue = [1, 0, 0]", fillcolor="#e58139"] ;
89 -> 95 ;
96 [label="X[6] <= -0.5\nentropy = 0.985\nsamples = 7\nvalue = [0, 3, 4]", fillcolor="#e0cef8"] ;
82 -> 96 ;
97 [label="entropy = 0.0\nsamples = 3\nvalue = [0, 0, 3]", fillcolor="#8139e5"] ;
96 -> 97 ;
98 [label="X[26] <= -0.5\nentropy = 0.811\nsamples = 4\nvalue = [0, 3, 1]", fillcolor="#7beeab"] ;
96 -> 98 ;
99 [label="entropy = 0.0\nsamples = 1\nvalue = [0, 0, 1]", fillcolor="#8139e5"] ;
98 -> 99 ;
100 [label="entropy = 0.0\nsamples = 3\nvalue = [0, 3, 0]", fillcolor="#39e581"] ;
98 -> 100 ;
101 [label="X[12] <= -0.5\nentropy = 0.918\nsamples = 3\nvalue = [1, 2, 0]", fillcolor="#9cf2c0"] ;
71 -> 101 ;
102 [label="entropy = 0.0\nsamples = 1\nvalue = [1, 0, 0]", fillcolor="#e58139"] ;
101 -> 102 ;
103 [label="entropy = 0.0\nsamples = 2\nvalue = [0, 2, 0]", fillcolor="#39e581"] ;
101 -> 103 ;
104 [label="entropy = 0.0\nsamples = 3\nvalue = [0, 3, 0]", fillcolor="#39e581"] ;
44 -> 104 ;
105 [label="X[36] <= -0.5\nentropy = 1.495\nsamples = 22\nvalue = [4, 8, 10]", fillcolor="#ede3fb"] ;
43 -> 105 ;
106 [label="X[14] <= 0.5\nentropy = 0.918\nsamples = 3\nvalue = [2, 0, 1]", fillcolor="#f2c09c"] ;
105 -> 106 ;
107 [label="entropy = 0.0\nsamples = 2\nvalue = [2, 0, 0]", fillcolor="#e58139"] ;
106 -> 107 ;
108 [label="entropy = 0.0\nsamples = 1\nvalue = [0, 0, 1]", fillcolor="#8139e5"] ;
106 -> 108 ;
109 [label="X[30] <= -0.5\nentropy = 1.378\nsamples = 19\nvalue = [2, 8, 9]", fillcolor="#f4edfd"] ;
105 -> 109 ;
110 [label="X[14] <= 0.5\nentropy = 1.522\nsamples = 5\nvalue = [2, 1, 2]", fillcolor="#ffffff"] ;
109 -> 110 ;
111 [label="X[1] <= 0.5\nentropy = 1.0\nsamples = 4\nvalue = [2, 0, 2]", fillcolor="#ffffff"] ;
110 -> 111 ;
112 [label="X[24] <= 0.5\nentropy = 0.918\nsamples = 3\nvalue = [1, 0, 2]", fillcolor="#c09cf2"] ;
111 -> 112 ;
113 [label="entropy = 0.0\nsamples = 2\nvalue = [0, 0, 2]", fillcolor="#8139e5"] ;
112 -> 113 ;
114 [label="entropy = 0.0\nsamples = 1\nvalue = [1, 0, 0]", fillcolor="#e58139"] ;
112 -> 114 ;
115 [label="entropy = 0.0\nsamples = 1\nvalue = [1, 0, 0]", fillcolor="#e58139"] ;
111 -> 115 ;
116 [label="entropy = 0.0\nsamples = 1\nvalue = [0, 1, 0]", fillcolor="#39e581"] ;
110 -> 116 ;
117 [label="X[6] <= -0.5\nentropy = 1.0\nsamples = 14\nvalue = [0, 7, 7]", fillcolor="#ffffff"] ;
109 -> 117 ;
118 [label="entropy = 0.0\nsamples = 3\nvalue = [0, 0, 3]", fillcolor="#8139e5"] ;
117 -> 118 ;
119 [label="X[2] <= -0.5\nentropy = 0.946\nsamples = 11\nvalue = [0, 7, 4]", fillcolor="#aaf4c9"] ;
117 -> 119 ;
120 [label="entropy = 0.0\nsamples = 1\nvalue = [0, 0, 1]", fillcolor="#8139e5"] ;
119 -> 120 ;
121 [label="X[21] <= 0.5\nentropy = 0.881\nsamples = 10\nvalue = [0, 7, 3]", fillcolor="#8ef0b7"] ;
119 -> 121 ;
122 [label="X[36] <= 0.5\nentropy = 0.592\nsamples = 7\nvalue = [0, 6, 1]", fillcolor="#5ae996"] ;
121 -> 122 ;
123 [label="entropy = 0.0\nsamples = 5\nvalue = [0, 5, 0]", fillcolor="#39e581"] ;
122 -> 123 ;
124 [label="X[14] <= -0.5\nentropy = 1.0\nsamples = 2\nvalue = [0, 1, 1]", fillcolor="#ffffff"] ;
122 -> 124 ;
125 [label="entropy = 0.0\nsamples = 1\nvalue = [0, 0, 1]", fillcolor="#8139e5"] ;
124 -> 125 ;
126 [label="entropy = 0.0\nsamples = 1\nvalue = [0, 1, 0]", fillcolor="#39e581"] ;
124 -> 126 ;
127 [label="X[22] <= -0.5\nentropy = 0.918\nsamples = 3\nvalue = [0, 1, 2]", fillcolor="#c09cf2"] ;
121 -> 127 ;
128 [label="entropy = 0.0\nsamples = 1\nvalue = [0, 1, 0]", fillcolor="#39e581"] ;
127 -> 128 ;
129 [label="entropy = 0.0\nsamples = 2\nvalue = [0, 0, 2]", fillcolor="#8139e5"] ;
127 -> 129 ;
130 [label="X[36] <= -0.5\nentropy = 0.183\nsamples = 36\nvalue = [0, 1, 35]", fillcolor="#853fe6"] ;
42 -> 130 ;
131 [label="X[1] <= 0.5\nentropy = 0.544\nsamples = 8\nvalue = [0, 1, 7]", fillcolor="#9355e9"] ;
130 -> 131 ;
132 [label="entropy = 0.0\nsamples = 7\nvalue = [0, 0, 7]", fillcolor="#8139e5"] ;
131 -> 132 ;
133 [label="entropy = 0.0\nsamples = 1\nvalue = [0, 1, 0]", fillcolor="#39e581"] ;
131 -> 133 ;
134 [label="entropy = 0.0\nsamples = 28\nvalue = [0, 0, 28]", fillcolor="#8139e5"] ;
130 -> 134 ;
135 [label="X[19] <= 0.5\nentropy = 0.236\nsamples = 2468\nvalue = [34, 45, 2389]", fillcolor="#853fe6"] ;
3 -> 135 ;
136 [label="X[6] <= -0.5\nentropy = 0.303\nsamples = 1803\nvalue = [34, 45, 1724]", fillcolor="#8742e6"] ;
135 -> 136 ;
137 [label="X[5] <= 0.5\nentropy = 0.09\nsamples = 807\nvalue = [4, 4, 799]", fillcolor="#823be5"] ;
136 -> 137 ;
138 [label="X[37] <= 0.5\nentropy = 0.08\nsamples = 806\nvalue = [4, 3, 799]", fillcolor="#823be5"] ;
137 -> 138 ;
139 [label="X[8] <= -0.5\nentropy = 0.052\nsamples = 685\nvalue = [4, 0, 681]", fillcolor="#823ae5"] ;
138 -> 139 ;
140 [label="X[1] <= 0.5\nentropy = 0.242\nsamples = 75\nvalue = [3, 0, 72]", fillcolor="#8641e6"] ;
139 -> 140 ;
141 [label="entropy = 0.0\nsamples = 49\nvalue = [0, 0, 49]", fillcolor="#8139e5"] ;
140 -> 141 ;
142 [label="X[9] <= -0.5\nentropy = 0.516\nsamples = 26\nvalue = [3, 0, 23]", fillcolor="#9153e8"] ;
140 -> 142 ;
143 [label="X[36] <= 0.5\nentropy = 1.0\nsamples = 4\nvalue = [2, 0, 2]", fillcolor="#ffffff"] ;
142 -> 143 ;
144 [label="X[2] <= 0.5\nentropy = 0.918\nsamples = 3\nvalue = [1, 0, 2]", fillcolor="#c09cf2"] ;
143 -> 144 ;
145 [label="entropy = 0.0\nsamples = 2\nvalue = [0, 0, 2]", fillcolor="#8139e5"] ;
144 -> 145 ;
146 [label="entropy = 0.0\nsamples = 1\nvalue = [1, 0, 0]", fillcolor="#e58139"] ;
144 -> 146 ;
147 [label="entropy = 0.0\nsamples = 1\nvalue = [1, 0, 0]", fillcolor="#e58139"] ;
143 -> 147 ;
148 [label="X[19] <= -0.5\nentropy = 0.267\nsamples = 22\nvalue = [1, 0, 21]", fillcolor="#8742e6"] ;
142 -> 148 ;
149 [label="X[2] <= 0.5\nentropy = 1.0\nsamples = 2\nvalue = [1, 0, 1]", fillcolor="#ffffff"] ;
148 -> 149 ;
150 [label="entropy = 0.0\nsamples = 1\nvalue = [0, 0, 1]", fillcolor="#8139e5"] ;
149 -> 150 ;
151 [label="entropy = 0.0\nsamples = 1\nvalue = [1, 0, 0]", fillcolor="#e58139"] ;
149 -> 151 ;
152 [label="entropy = 0.0\nsamples = 20\nvalue = [0, 0, 20]", fillcolor="#8139e5"] ;
148 -> 152 ;
153 [label="X[4] <= -0.5\nentropy = 0.018\nsamples = 610\nvalue = [1, 0, 609]", fillcolor="#8139e5"] ;
139 -> 153 ;
154 [label="X[24] <= -0.5\nentropy = 0.353\nsamples = 15\nvalue = [1, 0, 14]", fillcolor="#8a47e7"] ;
153 -> 154 ;
155 [label="entropy = 0.0\nsamples = 1\nvalue = [1, 0, 0]", fillcolor="#e58139"] ;
154 -> 155 ;
156 [label="entropy = 0.0\nsamples = 14\nvalue = [0, 0, 14]", fillcolor="#8139e5"] ;
154 -> 156 ;
157 [label="entropy = 0.0\nsamples = 595\nvalue = [0, 0, 595]", fillcolor="#8139e5"] ;
153 -> 157 ;
158 [label="X[25] <= -0.5\nentropy = 0.168\nsamples = 121\nvalue = [0, 3, 118]", fillcolor="#843ee6"] ;
138 -> 158 ;
159 [label="X[1] <= 0.5\nentropy = 0.918\nsamples = 3\nvalue = [0, 1, 2]", fillcolor="#c09cf2"] ;
158 -> 159 ;
160 [label="entropy = 0.0\nsamples = 2\nvalue = [0, 0, 2]", fillcolor="#8139e5"] ;
159 -> 160 ;
161 [label="entropy = 0.0\nsamples = 1\nvalue = [0, 1, 0]", fillcolor="#39e581"] ;
159 -> 161 ;
162 [label="X[39] <= -0.5\nentropy = 0.124\nsamples = 118\nvalue = [0, 2, 116]", fillcolor="#833ce5"] ;
158 -> 162 ;
163 [label="X[7] <= -0.5\nentropy = 0.544\nsamples = 8\nvalue = [0, 1, 7]", fillcolor="#9355e9"] ;
162 -> 163 ;
164 [label="entropy = 0.0\nsamples = 1\nvalue = [0, 1, 0]", fillcolor="#39e581"] ;
163 -> 164 ;
165 [label="entropy = 0.0\nsamples = 7\nvalue = [0, 0, 7]", fillcolor="#8139e5"] ;
163 -> 165 ;
166 [label="X[19] <= -0.5\nentropy = 0.075\nsamples = 110\nvalue = [0, 1, 109]", fillcolor="#823be5"] ;
162 -> 166 ;
167 [label="X[2] <= 0.5\nentropy = 0.469\nsamples = 10\nvalue = [0, 1, 9]", fillcolor="#8f4fe8"] ;
166 -> 167 ;
168 [label="entropy = 0.0\nsamples = 9\nvalue = [0, 0, 9]", fillcolor="#8139e5"] ;
167 -> 168 ;
169 [label="entropy = 0.0\nsamples = 1\nvalue = [0, 1, 0]", fillcolor="#39e581"] ;
167 -> 169 ;
170 [label="entropy = 0.0\nsamples = 100\nvalue = [0, 0, 100]", fillcolor="#8139e5"] ;
166 -> 170 ;
171 [label="entropy = 0.0\nsamples = 1\nvalue = [0, 1, 0]", fillcolor="#39e581"] ;
137 -> 171 ;
172 [label="X[1] <= 0.5\nentropy = 0.441\nsamples = 996\nvalue = [30, 41, 925]", fillcolor="#8a48e7"] ;
136 -> 172 ;
173 [label="X[14] <= 0.5\nentropy = 0.238\nsamples = 580\nvalue = [6, 13, 561]", fillcolor="#8540e6"] ;
172 -> 173 ;
174 [label="X[13] <= -0.5\nentropy = 0.278\nsamples = 476\nvalue = [6, 13, 457]", fillcolor="#8641e6"] ;
173 -> 174 ;
175 [label="X[36] <= 0.5\nentropy = 0.761\nsamples = 33\nvalue = [3, 2, 28]", fillcolor="#965ae9"] ;
174 -> 175 ;
176 [label="X[26] <= -0.5\nentropy = 0.559\nsamples = 23\nvalue = [3, 0, 20]", fillcolor="#9457e9"] ;
175 -> 176 ;
177 [label="entropy = 0.0\nsamples = 1\nvalue = [1, 0, 0]", fillcolor="#e58139"] ;
176 -> 177 ;
178 [label="X[3] <= 0.5\nentropy = 0.439\nsamples = 22\nvalue = [2, 0, 20]", fillcolor="#8e4de8"] ;
176 -> 178 ;
179 [label="X[38] <= 0.5\nentropy = 0.286\nsamples = 20\nvalue = [1, 0, 19]", fillcolor="#8843e6"] ;
178 -> 179 ;
180 [label="entropy = 0.0\nsamples = 18\nvalue = [0, 0, 18]", fillcolor="#8139e5"] ;
179 -> 180 ;
181 [label="X[30] <= 0.5\nentropy = 1.0\nsamples = 2\nvalue = [1, 0, 1]", fillcolor="#ffffff"] ;
179 -> 181 ;
182 [label="entropy = 0.0\nsamples = 1\nvalue = [0, 0, 1]", fillcolor="#8139e5"] ;
181 -> 182 ;
183 [label="entropy = 0.0\nsamples = 1\nvalue = [1, 0, 0]", fillcolor="#e58139"] ;
181 -> 183 ;
184 [label="X[30] <= 0.5\nentropy = 1.0\nsamples = 2\nvalue = [1, 0, 1]", fillcolor="#ffffff"] ;
178 -> 184 ;
185 [label="entropy = 0.0\nsamples = 1\nvalue = [1, 0, 0]", fillcolor="#e58139"] ;
184 -> 185 ;
186 [label="entropy = 0.0\nsamples = 1\nvalue = [0, 0, 1]", fillcolor="#8139e5"] ;
184 -> 186 ;
187 [label="X[3] <= 0.5\nentropy = 0.722\nsamples = 10\nvalue = [0, 2, 8]", fillcolor="#a06aec"] ;
175 -> 187 ;
188 [label="X[24] <= 0.5\nentropy = 0.503\nsamples = 9\nvalue = [0, 1, 8]", fillcolor="#9152e8"] ;
187 -> 188 ;
189 [label="entropy = 0.0\nsamples = 6\nvalue = [0, 0, 6]", fillcolor="#8139e5"] ;
188 -> 189 ;
190 [label="X[37] <= 0.5\nentropy = 0.918\nsamples = 3\nvalue = [0, 1, 2]", fillcolor="#c09cf2"] ;
188 -> 190 ;
191 [label="entropy = 0.0\nsamples = 2\nvalue = [0, 0, 2]", fillcolor="#8139e5"] ;
190 -> 191 ;
192 [label="entropy = 0.0\nsamples = 1\nvalue = [0, 1, 0]", fillcolor="#39e581"] ;
190 -> 192 ;
193 [label="entropy = 0.0\nsamples = 1\nvalue = [0, 1, 0]", fillcolor="#39e581"] ;
187 -> 193 ;
194 [label="X[37] <= 0.5\nentropy = 0.226\nsamples = 443\nvalue = [3, 11, 429]", fillcolor="#853fe6"] ;
174 -> 194 ;
195 [label="X[24] <= 0.5\nentropy = 0.187\nsamples = 372\nvalue = [3, 6, 363]", fillcolor="#843ee6"] ;
194 -> 195 ;
196 [label="X[33] <= -0.5\nentropy = 0.281\nsamples = 223\nvalue = [3, 6, 214]", fillcolor="#8641e6"] ;
195 -> 196 ;
197 [label="X[31] <= 0.0\nentropy = 0.764\nsamples = 9\nvalue = [0, 2, 7]", fillcolor="#a572ec"] ;
196 -> 197 ;
198 [label="X[12] <= -0.5\nentropy = 0.971\nsamples = 5\nvalue = [0, 2, 3]", fillcolor="#d5bdf6"] ;
197 -> 198 ;
199 [label="entropy = 0.0\nsamples = 2\nvalue = [0, 2, 0]", fillcolor="#39e581"] ;
198 -> 199 ;
200 [label="entropy = 0.0\nsamples = 3\nvalue = [0, 0, 3]", fillcolor="#8139e5"] ;
198 -> 200 ;
201 [label="entropy = 0.0\nsamples = 4\nvalue = [0, 0, 4]", fillcolor="#8139e5"] ;
197 -> 201 ;
202 [label="X[23] <= 0.5\nentropy = 0.24\nsamples = 214\nvalue = [3, 4, 207]", fillcolor="#8540e6"] ;
196 -> 202 ;
203 [label="X[20] <= 0.5\nentropy = 0.214\nsamples = 209\nvalue = [2, 4, 203]", fillcolor="#853fe6"] ;
202 -> 203 ;
204 [label="X[12] <= -0.5\nentropy = 0.288\nsamples = 144\nvalue = [2, 4, 138]", fillcolor="#8641e6"] ;
203 -> 204 ;
205 [label="X[14] <= -0.5\nentropy = 0.167\nsamples = 96\nvalue = [1, 1, 94]", fillcolor="#843de6"] ;
204 -> 205 ;
206 [label="X[36] <= -0.5\nentropy = 0.468\nsamples = 26\nvalue = [1, 1, 24]", fillcolor="#8b49e7"] ;
205 -> 206 ;
207 [label="X[31] <= 0.5\nentropy = 0.918\nsamples = 3\nvalue = [0, 1, 2]", fillcolor="#c09cf2"] ;
206 -> 207 ;
208 [label="X[16] <= 0.5\nentropy = 1.0\nsamples = 2\nvalue = [0, 1, 1]", fillcolor="#ffffff"] ;
207 -> 208 ;
209 [label="entropy = 0.0\nsamples = 1\nvalue = [0, 1, 0]", fillcolor="#39e581"] ;
208 -> 209 ;
210 [label="entropy = 0.0\nsamples = 1\nvalue = [0, 0, 1]", fillcolor="#8139e5"] ;
208 -> 210 ;
211 [label="entropy = 0.0\nsamples = 1\nvalue = [0, 0, 1]", fillcolor="#8139e5"] ;
207 -> 211 ;
212 [label="X[30] <= -0.5\nentropy = 0.258\nsamples = 23\nvalue = [1, 0, 22]", fillcolor="#8742e6"] ;
206 -> 212 ;
213 [label="X[15] <= 0.5\nentropy = 0.811\nsamples = 4\nvalue = [1, 0, 3]", fillcolor="#ab7bee"] ;
212 -> 213 ;
214 [label="X[36] <= 0.5\nentropy = 1.0\nsamples = 2\nvalue = [1, 0, 1]", fillcolor="#ffffff"] ;
213 -> 214 ;
215 [label="entropy = 0.0\nsamples = 1\nvalue = [0, 0, 1]", fillcolor="#8139e5"] ;
214 -> 215 ;
216 [label="entropy = 0.0\nsamples = 1\nvalue = [1, 0, 0]", fillcolor="#e58139"] ;
214 -> 216 ;
217 [label="entropy = 0.0\nsamples = 2\nvalue = [0, 0, 2]", fillcolor="#8139e5"] ;
213 -> 217 ;
218 [label="entropy = 0.0\nsamples = 19\nvalue = [0, 0, 19]", fillcolor="#8139e5"] ;
212 -> 218 ;
219 [label="entropy = 0.0\nsamples = 70\nvalue = [0, 0, 70]", fillcolor="#8139e5"] ;
205 -> 219 ;
220 [label="X[25] <= -0.5\nentropy = 0.481\nsamples = 48\nvalue = [1, 3, 44]", fillcolor="#8c4be7"] ;
204 -> 220 ;
221 [label="entropy = 0.0\nsamples = 1\nvalue = [0, 1, 0]", fillcolor="#39e581"] ;
220 -> 221 ;
222 [label="X[30] <= 0.5\nentropy = 0.401\nsamples = 47\nvalue = [1, 2, 44]", fillcolor="#8946e7"] ;
220 -> 222 ;
223 [label="X[37] <= -0.5\nentropy = 0.469\nsamples = 20\nvalue = [0, 2, 18]", fillcolor="#8f4fe8"] ;
222 -> 223 ;
224 [label="entropy = 0.0\nsamples = 12\nvalue = [0, 0, 12]", fillcolor="#8139e5"] ;
223 -> 224 ;
225 [label="X[4] <= -0.5\nentropy = 0.811\nsamples = 8\nvalue = [0, 2, 6]", fillcolor="#ab7bee"] ;
223 -> 225 ;
226 [label="entropy = 0.0\nsamples = 2\nvalue = [0, 0, 2]", fillcolor="#8139e5"] ;
225 -> 226 ;
227 [label="X[5] <= -0.5\nentropy = 0.918\nsamples = 6\nvalue = [0, 2, 4]", fillcolor="#c09cf2"] ;
225 -> 227 ;
228 [label="entropy = 0.0\nsamples = 1\nvalue = [0, 0, 1]", fillcolor="#8139e5"] ;
227 -> 228 ;
229 [label="X[31] <= -0.5\nentropy = 0.971\nsamples = 5\nvalue = [0, 2, 3]", fillcolor="#d5bdf6"] ;
227 -> 229 ;
230 [label="entropy = 0.0\nsamples = 1\nvalue = [0, 0, 1]", fillcolor="#8139e5"] ;
229 -> 230 ;
231 [label="X[3] <= 0.0\nentropy = 1.0\nsamples = 4\nvalue = [0, 2, 2]", fillcolor="#ffffff"] ;
229 -> 231 ;
232 [label="X[24] <= -0.5\nentropy = 1.0\nsamples = 2\nvalue = [0, 1, 1]", fillcolor="#ffffff"] ;
231 -> 232 ;
233 [label="entropy = 0.0\nsamples = 1\nvalue = [0, 1, 0]", fillcolor="#39e581"] ;
232 -> 233 ;
234 [label="entropy = 0.0\nsamples = 1\nvalue = [0, 0, 1]", fillcolor="#8139e5"] ;
232 -> 234 ;
235 [label="X[24] <= -0.5\nentropy = 1.0\nsamples = 2\nvalue = [0, 1, 1]", fillcolor="#ffffff"] ;
231 -> 235 ;
236 [label="entropy = 0.0\nsamples = 1\nvalue = [0, 0, 1]", fillcolor="#8139e5"] ;
235 -> 236 ;
237 [label="entropy = 0.0\nsamples = 1\nvalue = [0, 1, 0]", fillcolor="#39e581"] ;
235 -> 237 ;
238 [label="X[24] <= -0.5\nentropy = 0.229\nsamples = 27\nvalue = [1, 0, 26]", fillcolor="#8641e6"] ;
222 -> 238 ;
239 [label="X[19] <= -0.5\nentropy = 0.65\nsamples = 6\nvalue = [1, 0, 5]", fillcolor="#9a61ea"] ;
238 -> 239 ;
240 [label="entropy = 0.0\nsamples = 1\nvalue = [1, 0, 0]", fillcolor="#e58139"] ;
239 -> 240 ;
241 [label="entropy = 0.0\nsamples = 5\nvalue = [0, 0, 5]", fillcolor="#8139e5"] ;
239 -> 241 ;
242 [label="entropy = 0.0\nsamples = 21\nvalue = [0, 0, 21]", fillcolor="#8139e5"] ;
238 -> 242 ;
243 [label="entropy = 0.0\nsamples = 65\nvalue = [0, 0, 65]", fillcolor="#8139e5"] ;
203 -> 243 ;
244 [label="X[22] <= 0.0\nentropy = 0.722\nsamples = 5\nvalue = [1, 0, 4]", fillcolor="#a06aec"] ;
202 -> 244 ;
245 [label="entropy = 0.0\nsamples = 3\nvalue = [0, 0, 3]", fillcolor="#8139e5"] ;
244 -> 245 ;
246 [label="X[36] <= -0.5\nentropy = 1.0\nsamples = 2\nvalue = [1, 0, 1]", fillcolor="#ffffff"] ;
244 -> 246 ;
247 [label="entropy = 0.0\nsamples = 1\nvalue = [1, 0, 0]", fillcolor="#e58139"] ;
246 -> 247 ;
248 [label="entropy = 0.0\nsamples = 1\nvalue = [0, 0, 1]", fillcolor="#8139e5"] ;
246 -> 248 ;
249 [label="entropy = 0.0\nsamples = 149\nvalue = [0, 0, 149]", fillcolor="#8139e5"] ;
195 -> 249 ;
250 [label="X[26] <= -0.5\nentropy = 0.367\nsamples = 71\nvalue = [0, 5, 66]", fillcolor="#8b48e7"] ;
194 -> 250 ;
251 [label="entropy = 0.0\nsamples = 1\nvalue = [0, 1, 0]", fillcolor="#39e581"] ;
250 -> 251 ;
252 [label="X[30] <= 0.5\nentropy = 0.316\nsamples = 70\nvalue = [0, 4, 66]", fillcolor="#8945e7"] ;
250 -> 252 ;
253 [label="X[15] <= -0.5\nentropy = 0.129\nsamples = 56\nvalue = [0, 1, 55]", fillcolor="#833de5"] ;
252 -> 253 ;
254 [label="entropy = 0.0\nsamples = 1\nvalue = [0, 1, 0]", fillcolor="#39e581"] ;
253 -> 254 ;
255 [label="entropy = 0.0\nsamples = 55\nvalue = [0, 0, 55]", fillcolor="#8139e5"] ;
253 -> 255 ;
256 [label="X[24] <= 0.5\nentropy = 0.75\nsamples = 14\nvalue = [0, 3, 11]", fillcolor="#a36fec"] ;
252 -> 256 ;
257 [label="X[38] <= 0.5\nentropy = 0.439\nsamples = 11\nvalue = [0, 1, 10]", fillcolor="#8e4de8"] ;
256 -> 257 ;
258 [label="entropy = 0.0\nsamples = 9\nvalue = [0, 0, 9]", fillcolor="#8139e5"] ;
257 -> 258 ;
259 [label="X[39] <= -0.5\nentropy = 1.0\nsamples = 2\nvalue = [0, 1, 1]", fillcolor="#ffffff"] ;
257 -> 259 ;
260 [label="entropy = 0.0\nsamples = 1\nvalue = [0, 0, 1]", fillcolor="#8139e5"] ;
259 -> 260 ;
261 [label="entropy = 0.0\nsamples = 1\nvalue = [0, 1, 0]", fillcolor="#39e581"] ;
259 -> 261 ;
262 [label="X[38] <= -0.5\nentropy = 0.918\nsamples = 3\nvalue = [0, 2, 1]", fillcolor="#9cf2c0"] ;
256 -> 262 ;
263 [label="entropy = 0.0\nsamples = 1\nvalue = [0, 0, 1]", fillcolor="#8139e5"] ;
262 -> 263 ;
264 [label="entropy = 0.0\nsamples = 2\nvalue = [0, 2, 0]", fillcolor="#39e581"] ;
262 -> 264 ;
265 [label="entropy = 0.0\nsamples = 104\nvalue = [0, 0, 104]", fillcolor="#8139e5"] ;
173 -> 265 ;
266 [label="X[37] <= -0.5\nentropy = 0.668\nsamples = 416\nvalue = [24, 28, 364]", fillcolor="#9254e8"] ;
172 -> 266 ;
267 [label="entropy = 0.0\nsamples = 46\nvalue = [0, 0, 46]", fillcolor="#8139e5"] ;
266 -> 267 ;
268 [label="X[2] <= -0.5\nentropy = 0.726\nsamples = 370\nvalue = [24, 28, 318]", fillcolor="#9457e9"] ;
266 -> 268 ;
269 [label="X[3] <= 0.5\nentropy = 0.439\nsamples = 125\nvalue = [6, 3, 116]", fillcolor="#8b48e7"] ;
268 -> 269 ;
270 [label="X[26] <= -0.5\nentropy = 0.102\nsamples = 75\nvalue = [1, 0, 74]", fillcolor="#833ce5"] ;
269 -> 270 ;
271 [label="X[3] <= -0.5\nentropy = 1.0\nsamples = 2\nvalue = [1, 0, 1]", fillcolor="#ffffff"] ;
270 -> 271 ;
272 [label="entropy = 0.0\nsamples = 1\nvalue = [0, 0, 1]", fillcolor="#8139e5"] ;
271 -> 272 ;
273 [label="entropy = 0.0\nsamples = 1\nvalue = [1, 0, 0]", fillcolor="#e58139"] ;
271 -> 273 ;
274 [label="entropy = 0.0\nsamples = 73\nvalue = [0, 0, 73]", fillcolor="#8139e5"] ;
270 -> 274 ;
275 [label="X[13] <= -0.5\nentropy = 0.787\nsamples = 50\nvalue = [5, 3, 42]", fillcolor="#975cea"] ;
269 -> 275 ;
276 [label="X[36] <= 0.5\nentropy = 1.5\nsamples = 4\nvalue = [2, 1, 1]", fillcolor="#f6d5bd"] ;
275 -> 276 ;
277 [label="X[30] <= 0.5\nentropy = 0.918\nsamples = 3\nvalue = [2, 0, 1]", fillcolor="#f2c09c"] ;
276 -> 277 ;
278 [label="entropy = 0.0\nsamples = 2\nvalue = [2, 0, 0]", fillcolor="#e58139"] ;
277 -> 278 ;
279 [label="entropy = 0.0\nsamples = 1\nvalue = [0, 0, 1]", fillcolor="#8139e5"] ;
277 -> 279 ;
280 [label="entropy = 0.0\nsamples = 1\nvalue = [0, 1, 0]", fillcolor="#39e581"] ;
276 -> 280 ;
281 [label="X[19] <= -0.5\nentropy = 0.602\nsamples = 46\nvalue = [3, 2, 41]", fillcolor="#9050e8"] ;
275 -> 281 ;
282 [label="X[4] <= 0.5\nentropy = 0.918\nsamples = 9\nvalue = [3, 0, 6]", fillcolor="#c09cf2"] ;
281 -> 282 ;
283 [label="entropy = 0.0\nsamples = 5\nvalue = [0, 0, 5]", fillcolor="#8139e5"] ;
282 -> 283 ;
284 [label="X[5] <= -0.5\nentropy = 0.811\nsamples = 4\nvalue = [3, 0, 1]", fillcolor="#eeab7b"] ;
282 -> 284 ;
285 [label="entropy = 0.0\nsamples = 1\nvalue = [0, 0, 1]", fillcolor="#8139e5"] ;
284 -> 285 ;
286 [label="entropy = 0.0\nsamples = 3\nvalue = [3, 0, 0]", fillcolor="#e58139"] ;
284 -> 286 ;
287 [label="X[24] <= -0.5\nentropy = 0.303\nsamples = 37\nvalue = [0, 2, 35]", fillcolor="#8844e6"] ;
281 -> 287 ;
288 [label="X[4] <= -0.5\nentropy = 0.811\nsamples = 8\nvalue = [0, 2, 6]", fillcolor="#ab7bee"] ;
287 -> 288 ;
289 [label="entropy = 0.0\nsamples = 1\nvalue = [0, 1, 0]", fillcolor="#39e581"] ;
288 -> 289 ;
290 [label="X[25] <= -0.5\nentropy = 0.592\nsamples = 7\nvalue = [0, 1, 6]", fillcolor="#965ae9"] ;
288 -> 290 ;
291 [label="entropy = 0.0\nsamples = 1\nvalue = [0, 1, 0]", fillcolor="#39e581"] ;
290 -> 291 ;
292 [label="entropy = 0.0\nsamples = 6\nvalue = [0, 0, 6]", fillcolor="#8139e5"] ;
290 -> 292 ;
293 [label="entropy = 0.0\nsamples = 29\nvalue = [0, 0, 29]", fillcolor="#8139e5"] ;
287 -> 293 ;
294 [label="X[27] <= -0.5\nentropy = 0.842\nsamples = 245\nvalue = [18, 25, 202]", fillcolor="#9a60ea"] ;
268 -> 294 ;
295 [label="X[25] <= 0.0\nentropy = 0.918\nsamples = 3\nvalue = [2, 0, 1]", fillcolor="#f2c09c"] ;
294 -> 295 ;
296 [label="X[24] <= 0.0\nentropy = 1.0\nsamples = 2\nvalue = [1, 0, 1]", fillcolor="#ffffff"] ;
295 -> 296 ;
297 [label="entropy = 0.0\nsamples = 1\nvalue = [1, 0, 0]", fillcolor="#e58139"] ;
296 -> 297 ;
298 [label="entropy = 0.0\nsamples = 1\nvalue = [0, 0, 1]", fillcolor="#8139e5"] ;
296 -> 298 ;
299 [label="entropy = 0.0\nsamples = 1\nvalue = [1, 0, 0]", fillcolor="#e58139"] ;
295 -> 299 ;
300 [label="X[36] <= 0.5\nentropy = 0.82\nsamples = 242\nvalue = [16, 25, 201]", fillcolor="#995eea"] ;
294 -> 300 ;
301 [label="X[21] <= -0.5\nentropy = 0.738\nsamples = 218\nvalue = [11, 21, 186]", fillcolor="#9559e9"] ;
300 -> 301 ;
302 [label="X[36] <= -0.5\nentropy = 0.946\nsamples = 11\nvalue = [0, 4, 7]", fillcolor="#c9aaf4"] ;
301 -> 302 ;
303 [label="entropy = 0.0\nsamples = 3\nvalue = [0, 3, 0]", fillcolor="#39e581"] ;
302 -> 303 ;
304 [label="X[12] <= -0.5\nentropy = 0.544\nsamples = 8\nvalue = [0, 1, 7]", fillcolor="#9355e9"] ;
302 -> 304 ;
305 [label="X[2] <= 0.5\nentropy = 0.918\nsamples = 3\nvalue = [0, 1, 2]", fillcolor="#c09cf2"] ;
304 -> 305 ;
306 [label="entropy = 0.0\nsamples = 2\nvalue = [0, 0, 2]", fillcolor="#8139e5"] ;
305 -> 306 ;
307 [label="entropy = 0.0\nsamples = 1\nvalue = [0, 1, 0]", fillcolor="#39e581"] ;
305 -> 307 ;
308 [label="entropy = 0.0\nsamples = 5\nvalue = [0, 0, 5]", fillcolor="#8139e5"] ;
304 -> 308 ;
309 [label="X[20] <= 0.5\nentropy = 0.702\nsamples = 207\nvalue = [11, 17, 179]", fillcolor="#9456e9"] ;
301 -> 309 ;
310 [label="X[4] <= 0.5\nentropy = 0.761\nsamples = 177\nvalue = [10, 17, 150]", fillcolor="#965ae9"] ;
309 -> 310 ;
311 [label="X[3] <= 0.5\nentropy = 0.693\nsamples = 163\nvalue = [7, 15, 141]", fillcolor="#9456e9"] ;
310 -> 311 ;
312 [label="X[24] <= 0.5\nentropy = 0.62\nsamples = 154\nvalue = [5, 13, 136]", fillcolor="#9152e8"] ;
311 -> 312 ;
313 [label="X[14] <= -0.5\nentropy = 0.418\nsamples = 109\nvalue = [1, 7, 101]", fillcolor="#8b49e7"] ;
312 -> 313 ;
314 [label="X[30] <= -0.5\nentropy = 1.189\nsamples = 12\nvalue = [1, 3, 8]", fillcolor="#b991f1"] ;
313 -> 314 ;
315 [label="X[15] <= 0.5\nentropy = 1.0\nsamples = 2\nvalue = [1, 1, 0]", fillcolor="#ffffff"] ;
314 -> 315 ;
316 [label="entropy = 0.0\nsamples = 1\nvalue = [1, 0, 0]", fillcolor="#e58139"] ;
315 -> 316 ;
317 [label="entropy = 0.0\nsamples = 1\nvalue = [0, 1, 0]", fillcolor="#39e581"] ;
315 -> 317 ;
318 [label="X[24] <= -0.5\nentropy = 0.722\nsamples = 10\nvalue = [0, 2, 8]", fillcolor="#a06aec"] ;
314 -> 318 ;
319 [label="entropy = 0.0\nsamples = 3\nvalue = [0, 0, 3]", fillcolor="#8139e5"] ;
318 -> 319 ;
320 [label="X[2] <= 0.5\nentropy = 0.863\nsamples = 7\nvalue = [0, 2, 5]", fillcolor="#b388ef"] ;
318 -> 320 ;
321 [label="X[15] <= -0.5\nentropy = 0.971\nsamples = 5\nvalue = [0, 2, 3]", fillcolor="#d5bdf6"] ;
320 -> 321 ;
322 [label="entropy = 0.0\nsamples = 1\nvalue = [0, 1, 0]", fillcolor="#39e581"] ;
321 -> 322 ;
323 [label="X[30] <= 0.5\nentropy = 0.811\nsamples = 4\nvalue = [0, 1, 3]", fillcolor="#ab7bee"] ;
321 -> 323 ;
324 [label="X[36] <= -0.5\nentropy = 1.0\nsamples = 2\nvalue = [0, 1, 1]", fillcolor="#ffffff"] ;
323 -> 324 ;
325 [label="entropy = 0.0\nsamples = 1\nvalue = [0, 1, 0]", fillcolor="#39e581"] ;
324 -> 325 ;
326 [label="entropy = 0.0\nsamples = 1\nvalue = [0, 0, 1]", fillcolor="#8139e5"] ;
324 -> 326 ;
327 [label="entropy = 0.0\nsamples = 2\nvalue = [0, 0, 2]", fillcolor="#8139e5"] ;
323 -> 327 ;
328 [label="entropy = 0.0\nsamples = 2\nvalue = [0, 0, 2]", fillcolor="#8139e5"] ;
320 -> 328 ;
329 [label="X[32] <= 0.5\nentropy = 0.248\nsamples = 97\nvalue = [0, 4, 93]", fillcolor="#8642e6"] ;
313 -> 329 ;
330 [label="X[26] <= 0.5\nentropy = 0.155\nsamples = 89\nvalue = [0, 2, 87]", fillcolor="#843ee6"] ;
329 -> 330 ;
331 [label="X[31] <= -0.5\nentropy = 0.092\nsamples = 85\nvalue = [0, 1, 84]", fillcolor="#823be5"] ;
330 -> 331 ;
332 [label="X[37] <= 0.5\nentropy = 0.31\nsamples = 18\nvalue = [0, 1, 17]", fillcolor="#8845e7"] ;
331 -> 332 ;
333 [label="entropy = 0.0\nsamples = 16\nvalue = [0, 0, 16]", fillcolor="#8139e5"] ;
332 -> 333 ;
334 [label="X[2] <= 0.5\nentropy = 1.0\nsamples = 2\nvalue = [0, 1, 1]", fillcolor="#ffffff"] ;
332 -> 334 ;
335 [label="entropy = 0.0\nsamples = 1\nvalue = [0, 1, 0]", fillcolor="#39e581"] ;
334 -> 335 ;
336 [label="entropy = 0.0\nsamples = 1\nvalue = [0, 0, 1]", fillcolor="#8139e5"] ;
334 -> 336 ;
337 [label="entropy = 0.0\nsamples = 67\nvalue = [0, 0, 67]", fillcolor="#8139e5"] ;
331 -> 337 ;
338 [label="X[3] <= -0.5\nentropy = 0.811\nsamples = 4\nvalue = [0, 1, 3]", fillcolor="#ab7bee"] ;
330 -> 338 ;
339 [label="entropy = 0.0\nsamples = 1\nvalue = [0, 1, 0]", fillcolor="#39e581"] ;
338 -> 339 ;
340 [label="entropy = 0.0\nsamples = 3\nvalue = [0, 0, 3]", fillcolor="#8139e5"] ;
338 -> 340 ;
341 [label="X[19] <= -0.5\nentropy = 0.811\nsamples = 8\nvalue = [0, 2, 6]", fillcolor="#ab7bee"] ;
329 -> 341 ;
342 [label="entropy = 0.0\nsamples = 1\nvalue = [0, 1, 0]", fillcolor="#39e581"] ;
341 -> 342 ;
343 [label="X[12] <= -0.5\nentropy = 0.592\nsamples = 7\nvalue = [0, 1, 6]", fillcolor="#965ae9"] ;
341 -> 343 ;
344 [label="X[33] <= -0.5\nentropy = 0.918\nsamples = 3\nvalue = [0, 1, 2]", fillcolor="#c09cf2"] ;
343 -> 344 ;
345 [label="entropy = 0.0\nsamples = 1\nvalue = [0, 1, 0]", fillcolor="#39e581"] ;
344 -> 345 ;
346 [label="entropy = 0.0\nsamples = 2\nvalue = [0, 0, 2]", fillcolor="#8139e5"] ;
344 -> 346 ;
347 [label="entropy = 0.0\nsamples = 4\nvalue = [0, 0, 4]", fillcolor="#8139e5"] ;
343 -> 347 ;
348 [label="X[30] <= 0.5\nentropy = 0.98\nsamples = 45\nvalue = [4, 6, 35]", fillcolor="#a16cec"] ;
312 -> 348 ;
349 [label="X[15] <= -0.5\nentropy = 0.794\nsamples = 42\nvalue = [2, 5, 35]", fillcolor="#995eea"] ;
348 -> 349 ;
350 [label="entropy = 0.0\nsamples = 2\nvalue = [0, 2, 0]", fillcolor="#39e581"] ;
349 -> 350 ;
351 [label="X[2] <= 0.5\nentropy = 0.665\nsamples = 40\nvalue = [2, 3, 35]", fillcolor="#9254e9"] ;
349 -> 351 ;
352 [label="X[25] <= -0.5\nentropy = 0.491\nsamples = 28\nvalue = [0, 3, 25]", fillcolor="#9051e8"] ;
351 -> 352 ;
353 [label="entropy = 0.0\nsamples = 14\nvalue = [0, 0, 14]", fillcolor="#8139e5"] ;
352 -> 353 ;
354 [label="X[26] <= -0.5\nentropy = 0.75\nsamples = 14\nvalue = [0, 3, 11]", fillcolor="#a36fec"] ;
352 -> 354 ;
355 [label="entropy = 0.0\nsamples = 2\nvalue = [0, 2, 0]", fillcolor="#39e581"] ;
354 -> 355 ;
356 [label="X[31] <= 0.5\nentropy = 0.414\nsamples = 12\nvalue = [0, 1, 11]", fillcolor="#8c4be7"] ;
354 -> 356 ;
357 [label="entropy = 0.0\nsamples = 9\nvalue = [0, 0, 9]", fillcolor="#8139e5"] ;
356 -> 357 ;
358 [label="X[13] <= -0.5\nentropy = 0.918\nsamples = 3\nvalue = [0, 1, 2]", fillcolor="#c09cf2"] ;
356 -> 358 ;
359 [label="entropy = 0.0\nsamples = 1\nvalue = [0, 1, 0]", fillcolor="#39e581"] ;
358 -> 359 ;
360 [label="entropy = 0.0\nsamples = 2\nvalue = [0, 0, 2]", fillcolor="#8139e5"] ;
358 -> 360 ;
361 [label="X[13] <= -0.5\nentropy = 0.65\nsamples = 12\nvalue = [2, 0, 10]", fillcolor="#9a61ea"] ;
351 -> 361 ;
362 [label="X[36] <= -0.5\nentropy = 0.918\nsamples = 3\nvalue = [2, 0, 1]", fillcolor="#f2c09c"] ;
361 -> 362 ;
363 [label="entropy = 0.0\nsamples = 1\nvalue = [0, 0, 1]", fillcolor="#8139e5"] ;
362 -> 363 ;
364 [label="entropy = 0.0\nsamples = 2\nvalue = [2, 0, 0]", fillcolor="#e58139"] ;
362 -> 364 ;
365 [label="entropy = 0.0\nsamples = 9\nvalue = [0, 0, 9]", fillcolor="#8139e5"] ;
361 -> 365 ;
366 [label="X[25] <= -0.5\nentropy = 0.918\nsamples = 3\nvalue = [2, 1, 0]", fillcolor="#f2c09c"] ;
348 -> 366 ;
367 [label="entropy = 0.0\nsamples = 1\nvalue = [0, 1, 0]", fillcolor="#39e581"] ;
366 -> 367 ;
368 [label="entropy = 0.0\nsamples = 2\nvalue = [2, 0, 0]", fillcolor="#e58139"] ;
366 -> 368 ;
369 [label="X[24] <= -0.5\nentropy = 1.436\nsamples = 9\nvalue = [2, 2, 5]", fillcolor="#c9aaf4"] ;
311 -> 369 ;
370 [label="X[30] <= -0.5\nentropy = 1.5\nsamples = 4\nvalue = [2, 1, 1]", fillcolor="#f6d5bd"] ;
369 -> 370 ;
371 [label="entropy = 0.0\nsamples = 1\nvalue = [0, 0, 1]", fillcolor="#8139e5"] ;
370 -> 371 ;
372 [label="X[36] <= -0.5\nentropy = 0.918\nsamples = 3\nvalue = [2, 1, 0]", fillcolor="#f2c09c"] ;
370 -> 372 ;
373 [label="entropy = 0.0\nsamples = 1\nvalue = [0, 1, 0]", fillcolor="#39e581"] ;
372 -> 373 ;
374 [label="entropy = 0.0\nsamples = 2\nvalue = [2, 0, 0]", fillcolor="#e58139"] ;
372 -> 374 ;
375 [label="X[19] <= -0.5\nentropy = 0.722\nsamples = 5\nvalue = [0, 1, 4]", fillcolor="#a06aec"] ;
369 -> 375 ;
376 [label="X[36] <= -0.5\nentropy = 1.0\nsamples = 2\nvalue = [0, 1, 1]", fillcolor="#ffffff"] ;
375 -> 376 ;
377 [label="entropy = 0.0\nsamples = 1\nvalue = [0, 0, 1]", fillcolor="#8139e5"] ;
376 -> 377 ;
378 [label="entropy = 0.0\nsamples = 1\nvalue = [0, 1, 0]", fillcolor="#39e581"] ;
376 -> 378 ;
379 [label="entropy = 0.0\nsamples = 3\nvalue = [0, 0, 3]", fillcolor="#8139e5"] ;
375 -> 379 ;
380 [label="X[12] <= -0.5\nentropy = 1.287\nsamples = 14\nvalue = [3, 2, 9]", fillcolor="#ba93f1"] ;
310 -> 380 ;
381 [label="X[36] <= -0.5\nentropy = 1.0\nsamples = 4\nvalue = [0, 2, 2]", fillcolor="#ffffff"] ;
380 -> 381 ;
382 [label="entropy = 0.0\nsamples = 1\nvalue = [0, 1, 0]", fillcolor="#39e581"] ;
381 -> 382 ;
383 [label="X[19] <= -0.5\nentropy = 0.918\nsamples = 3\nvalue = [0, 1, 2]", fillcolor="#c09cf2"] ;
381 -> 383 ;
384 [label="entropy = 0.0\nsamples = 1\nvalue = [0, 1, 0]", fillcolor="#39e581"] ;
383 -> 384 ;
385 [label="entropy = 0.0\nsamples = 2\nvalue = [0, 0, 2]", fillcolor="#8139e5"] ;
383 -> 385 ;
386 [label="X[5] <= -0.5\nentropy = 0.881\nsamples = 10\nvalue = [3, 0, 7]", fillcolor="#b78ef0"] ;
380 -> 386 ;
387 [label="entropy = 0.0\nsamples = 4\nvalue = [0, 0, 4]", fillcolor="#8139e5"] ;
386 -> 387 ;
388 [label="X[19] <= -0.5\nentropy = 1.0\nsamples = 6\nvalue = [3, 0, 3]", fillcolor="#ffffff"] ;
386 -> 388 ;
389 [label="entropy = 0.0\nsamples = 2\nvalue = [2, 0, 0]", fillcolor="#e58139"] ;
388 -> 389 ;
390 [label="X[25] <= -0.5\nentropy = 0.811\nsamples = 4\nvalue = [1, 0, 3]", fillcolor="#ab7bee"] ;
388 -> 390 ;
391 [label="entropy = 0.0\nsamples = 1\nvalue = [1, 0, 0]", fillcolor="#e58139"] ;
390 -> 391 ;
392 [label="entropy = 0.0\nsamples = 3\nvalue = [0, 0, 3]", fillcolor="#8139e5"] ;
390 -> 392 ;
393 [label="X[25] <= -0.5\nentropy = 0.211\nsamples = 30\nvalue = [1, 0, 29]", fillcolor="#8540e6"] ;
309 -> 393 ;
394 [label="X[24] <= 0.0\nentropy = 0.918\nsamples = 3\nvalue = [1, 0, 2]", fillcolor="#c09cf2"] ;
393 -> 394 ;
395 [label="entropy = 0.0\nsamples = 1\nvalue = [1, 0, 0]", fillcolor="#e58139"] ;
394 -> 395 ;
396 [label="entropy = 0.0\nsamples = 2\nvalue = [0, 0, 2]", fillcolor="#8139e5"] ;
394 -> 396 ;
397 [label="entropy = 0.0\nsamples = 27\nvalue = [0, 0, 27]", fillcolor="#8139e5"] ;
393 -> 397 ;
398 [label="X[24] <= 0.5\nentropy = 1.326\nsamples = 24\nvalue = [5, 4, 15]", fillcolor="#bd97f1"] ;
300 -> 398 ;
399 [label="X[14] <= -0.5\nentropy = 1.125\nsamples = 21\nvalue = [2, 4, 15]", fillcolor="#ad7fee"] ;
398 -> 399 ;
400 [label="X[30] <= -0.5\nentropy = 1.0\nsamples = 2\nvalue = [1, 1, 0]", fillcolor="#ffffff"] ;
399 -> 400 ;
401 [label="entropy = 0.0\nsamples = 1\nvalue = [1, 0, 0]", fillcolor="#e58139"] ;
400 -> 401 ;
402 [label="entropy = 0.0\nsamples = 1\nvalue = [0, 1, 0]", fillcolor="#39e581"] ;
400 -> 402 ;
403 [label="X[30] <= -0.5\nentropy = 0.913\nsamples = 19\nvalue = [1, 3, 15]", fillcolor="#a06aec"] ;
399 -> 403 ;
404 [label="X[13] <= -0.5\nentropy = 1.295\nsamples = 10\nvalue = [1, 3, 6]", fillcolor="#c9aaf4"] ;
403 -> 404 ;
405 [label="X[14] <= 0.5\nentropy = 0.918\nsamples = 3\nvalue = [0, 2, 1]", fillcolor="#9cf2c0"] ;
404 -> 405 ;
406 [label="entropy = 0.0\nsamples = 2\nvalue = [0, 2, 0]", fillcolor="#39e581"] ;
405 -> 406 ;
407 [label="entropy = 0.0\nsamples = 1\nvalue = [0, 0, 1]", fillcolor="#8139e5"] ;
405 -> 407 ;
408 [label="X[13] <= 0.5\nentropy = 1.149\nsamples = 7\nvalue = [1, 1, 5]", fillcolor="#ab7bee"] ;
404 -> 408 ;
409 [label="X[31] <= -0.5\nentropy = 0.65\nsamples = 6\nvalue = [1, 0, 5]", fillcolor="#9a61ea"] ;
408 -> 409 ;
410 [label="X[2] <= 0.5\nentropy = 1.0\nsamples = 2\nvalue = [1, 0, 1]", fillcolor="#ffffff"] ;
409 -> 410 ;
411 [label="entropy = 0.0\nsamples = 1\nvalue = [1, 0, 0]", fillcolor="#e58139"] ;
410 -> 411 ;
412 [label="entropy = 0.0\nsamples = 1\nvalue = [0, 0, 1]", fillcolor="#8139e5"] ;
410 -> 412 ;
413 [label="entropy = 0.0\nsamples = 4\nvalue = [0, 0, 4]", fillcolor="#8139e5"] ;
409 -> 413 ;
414 [label="entropy = 0.0\nsamples = 1\nvalue = [0, 1, 0]", fillcolor="#39e581"] ;
408 -> 414 ;
415 [label="entropy = 0.0\nsamples = 9\nvalue = [0, 0, 9]", fillcolor="#8139e5"] ;
403 -> 415 ;
416 [label="entropy = 0.0\nsamples = 3\nvalue = [3, 0, 0]", fillcolor="#e58139"] ;
398 -> 416 ;
417 [label="entropy = 0.0\nsamples = 665\nvalue = [0, 0, 665]", fillcolor="#8139e5"] ;
135 -> 417 ;
418 [label="X[36] <= 0.5\nentropy = 0.93\nsamples = 6345\nvalue = [725, 566, 5054]", fillcolor="#9e66eb"] ;
2 -> 418 ;
419 [label="X[1] <= 0.5\nentropy = 0.739\nsamples = 4204\nvalue = [291, 315, 3598]", fillcolor="#9558e9"] ;
418 -> 419 ;
420 [label="X[20] <= -0.5\nentropy = 0.48\nsamples = 2613\nvalue = [83, 126, 2404]", fillcolor="#8c4ae7"] ;
419 -> 420 ;
421 [label="X[24] <= 0.5\nentropy = 1.205\nsamples = 148\nvalue = [23, 23, 102]", fillcolor="#af82ef"] ;
420 -> 421 ;
422 [label="X[25] <= 0.5\nentropy = 1.048\nsamples = 130\nvalue = [18, 14, 98]", fillcolor="#a572ec"] ;
421 -> 422 ;
423 [label="X[36] <= -0.5\nentropy = 0.908\nsamples = 122\nvalue = [14, 10, 98]", fillcolor="#9d65eb"] ;
422 -> 423 ;
424 [label="X[18] <= 0.0\nentropy = 0.242\nsamples = 25\nvalue = [1, 0, 24]", fillcolor="#8641e6"] ;
423 -> 424 ;
425 [label="X[37] <= 0.5\nentropy = 0.65\nsamples = 6\nvalue = [1, 0, 5]", fillcolor="#9a61ea"] ;
424 -> 425 ;
426 [label="entropy = 0.0\nsamples = 4\nvalue = [0, 0, 4]", fillcolor="#8139e5"] ;
425 -> 426 ;
427 [label="X[21] <= 0.5\nentropy = 1.0\nsamples = 2\nvalue = [1, 0, 1]", fillcolor="#ffffff"] ;
425 -> 427 ;
428 [label="entropy = 0.0\nsamples = 1\nvalue = [1, 0, 0]", fillcolor="#e58139"] ;
427 -> 428 ;
429 [label="entropy = 0.0\nsamples = 1\nvalue = [0, 0, 1]", fillcolor="#8139e5"] ;
427 -> 429 ;
430 [label="entropy = 0.0\nsamples = 19\nvalue = [0, 0, 19]", fillcolor="#8139e5"] ;
424 -> 430 ;
431 [label="X[1] <= -0.5\nentropy = 1.024\nsamples = 97\nvalue = [13, 10, 74]", fillcolor="#a46fec"] ;
423 -> 431 ;
432 [label="X[7] <= 0.5\nentropy = 0.297\nsamples = 19\nvalue = [0, 1, 18]", fillcolor="#8844e6"] ;
431 -> 432 ;
433 [label="entropy = 0.0\nsamples = 18\nvalue = [0, 0, 18]", fillcolor="#8139e5"] ;
432 -> 433 ;
434 [label="entropy = 0.0\nsamples = 1\nvalue = [0, 1, 0]", fillcolor="#39e581"] ;
432 -> 434 ;
435 [label="X[30] <= 0.5\nentropy = 1.134\nsamples = 78\nvalue = [13, 9, 56]", fillcolor="#ac7cee"] ;
431 -> 435 ;
436 [label="X[21] <= 0.5\nentropy = 0.928\nsamples = 59\nvalue = [7, 5, 47]", fillcolor="#9e67eb"] ;
435 -> 436 ;
437 [label="X[7] <= 0.5\nentropy = 1.131\nsamples = 29\nvalue = [7, 2, 20]", fillcolor="#b58af0"] ;
436 -> 437 ;
438 [label="X[14] <= -0.5\nentropy = 0.773\nsamples = 22\nvalue = [5, 0, 17]", fillcolor="#a673ed"] ;
437 -> 438 ;
439 [label="entropy = 0.0\nsamples = 4\nvalue = [0, 0, 4]", fillcolor="#8139e5"] ;
438 -> 439 ;
440 [label="X[15] <= 0.5\nentropy = 0.852\nsamples = 18\nvalue = [5, 0, 13]", fillcolor="#b185ef"] ;
438 -> 440 ;
441 [label="X[18] <= 0.0\nentropy = 0.896\nsamples = 16\nvalue = [5, 0, 11]", fillcolor="#ba93f1"] ;
440 -> 441 ;
442 [label="X[32] <= 0.5\nentropy = 0.918\nsamples = 3\nvalue = [2, 0, 1]", fillcolor="#f2c09c"] ;
441 -> 442 ;
443 [label="entropy = 0.0\nsamples = 2\nvalue = [2, 0, 0]", fillcolor="#e58139"] ;
442 -> 443 ;
444 [label="entropy = 0.0\nsamples = 1\nvalue = [0, 0, 1]", fillcolor="#8139e5"] ;
442 -> 444 ;
445 [label="X[13] <= 0.5\nentropy = 0.779\nsamples = 13\nvalue = [3, 0, 10]", fillcolor="#a774ed"] ;
441 -> 445 ;
446 [label="X[32] <= 0.5\nentropy = 0.954\nsamples = 8\nvalue = [3, 0, 5]", fillcolor="#cdb0f5"] ;
445 -> 446 ;
447 [label="X[6] <= -0.5\nentropy = 0.863\nsamples = 7\nvalue = [2, 0, 5]", fillcolor="#b388ef"] ;
446 -> 447 ;
448 [label="X[13] <= -0.5\nentropy = 1.0\nsamples = 4\nvalue = [2, 0, 2]", fillcolor="#ffffff"] ;
447 -> 448 ;
449 [label="entropy = 0.0\nsamples = 1\nvalue = [1, 0, 0]", fillcolor="#e58139"] ;
448 -> 449 ;
450 [label="X[22] <= 0.5\nentropy = 0.918\nsamples = 3\nvalue = [1, 0, 2]", fillcolor="#c09cf2"] ;
448 -> 450 ;
451 [label="entropy = 0.0\nsamples = 2\nvalue = [0, 0, 2]", fillcolor="#8139e5"] ;
450 -> 451 ;
452 [label="entropy = 0.0\nsamples = 1\nvalue = [1, 0, 0]", fillcolor="#e58139"] ;
450 -> 452 ;
453 [label="entropy = 0.0\nsamples = 3\nvalue = [0, 0, 3]", fillcolor="#8139e5"] ;
447 -> 453 ;
454 [label="entropy = 0.0\nsamples = 1\nvalue = [1, 0, 0]", fillcolor="#e58139"] ;
446 -> 454 ;
455 [label="entropy = 0.0\nsamples = 5\nvalue = [0, 0, 5]", fillcolor="#8139e5"] ;
445 -> 455 ;
456 [label="entropy = 0.0\nsamples = 2\nvalue = [0, 0, 2]", fillcolor="#8139e5"] ;
440 -> 456 ;
457 [label="X[30] <= -0.5\nentropy = 1.557\nsamples = 7\nvalue = [2, 2, 3]", fillcolor="#e6d7fa"] ;
437 -> 457 ;
458 [label="entropy = 0.0\nsamples = 1\nvalue = [0, 1, 0]", fillcolor="#39e581"] ;
457 -> 458 ;
459 [label="X[13] <= 0.5\nentropy = 1.459\nsamples = 6\nvalue = [2, 1, 3]", fillcolor="#e0cef8"] ;
457 -> 459 ;
460 [label="X[13] <= -0.5\nentropy = 0.971\nsamples = 5\nvalue = [2, 0, 3]", fillcolor="#d5bdf6"] ;
459 -> 460 ;
461 [label="entropy = 0.0\nsamples = 1\nvalue = [1, 0, 0]", fillcolor="#e58139"] ;
460 -> 461 ;
462 [label="X[19] <= 0.0\nentropy = 0.811\nsamples = 4\nvalue = [1, 0, 3]", fillcolor="#ab7bee"] ;
460 -> 462 ;
463 [label="entropy = 0.0\nsamples = 1\nvalue = [1, 0, 0]", fillcolor="#e58139"] ;
462 -> 463 ;
464 [label="entropy = 0.0\nsamples = 3\nvalue = [0, 0, 3]", fillcolor="#8139e5"] ;
462 -> 464 ;
465 [label="entropy = 0.0\nsamples = 1\nvalue = [0, 1, 0]", fillcolor="#39e581"] ;
459 -> 465 ;
466 [label="X[22] <= -0.5\nentropy = 0.469\nsamples = 30\nvalue = [0, 3, 27]", fillcolor="#8f4fe8"] ;
436 -> 466 ;
467 [label="X[18] <= 0.0\nentropy = 0.918\nsamples = 6\nvalue = [0, 2, 4]", fillcolor="#c09cf2"] ;
466 -> 467 ;
468 [label="entropy = 0.0\nsamples = 2\nvalue = [0, 2, 0]", fillcolor="#39e581"] ;
467 -> 468 ;
469 [label="entropy = 0.0\nsamples = 4\nvalue = [0, 0, 4]", fillcolor="#8139e5"] ;
467 -> 469 ;
470 [label="X[13] <= -0.5\nentropy = 0.25\nsamples = 24\nvalue = [0, 1, 23]", fillcolor="#8642e6"] ;
466 -> 470 ;
471 [label="X[6] <= -0.5\nentropy = 0.722\nsamples = 5\nvalue = [0, 1, 4]", fillcolor="#a06aec"] ;
470 -> 471 ;
472 [label="entropy = 0.0\nsamples = 1\nvalue = [0, 1, 0]", fillcolor="#39e581"] ;
471 -> 472 ;
473 [label="entropy = 0.0\nsamples = 4\nvalue = [0, 0, 4]", fillcolor="#8139e5"] ;
471 -> 473 ;
474 [label="entropy = 0.0\nsamples = 19\nvalue = [0, 0, 19]", fillcolor="#8139e5"] ;
470 -> 474 ;
475 [label="X[21] <= -0.5\nentropy = 1.509\nsamples = 19\nvalue = [6, 4, 9]", fillcolor="#e2d1f9"] ;
435 -> 475 ;
476 [label="entropy = 0.0\nsamples = 3\nvalue = [3, 0, 0]", fillcolor="#e58139"] ;
475 -> 476 ;
477 [label="X[19] <= 0.0\nentropy = 1.42\nsamples = 16\nvalue = [3, 4, 9]", fillcolor="#caacf4"] ;
475 -> 477 ;
478 [label="X[24] <= -0.5\nentropy = 0.811\nsamples = 4\nvalue = [3, 1, 0]", fillcolor="#eeab7b"] ;
477 -> 478 ;
479 [label="entropy = 0.0\nsamples = 2\nvalue = [2, 0, 0]", fillcolor="#e58139"] ;
478 -> 479 ;
480 [label="X[31] <= 0.5\nentropy = 1.0\nsamples = 2\nvalue = [1, 1, 0]", fillcolor="#ffffff"] ;
478 -> 480 ;
481 [label="entropy = 0.0\nsamples = 1\nvalue = [1, 0, 0]", fillcolor="#e58139"] ;
480 -> 481 ;
482 [label="entropy = 0.0\nsamples = 1\nvalue = [0, 1, 0]", fillcolor="#39e581"] ;
480 -> 482 ;
483 [label="X[13] <= -0.5\nentropy = 0.811\nsamples = 12\nvalue = [0, 3, 9]", fillcolor="#ab7bee"] ;
477 -> 483 ;
484 [label="entropy = 0.0\nsamples = 2\nvalue = [0, 2, 0]", fillcolor="#39e581"] ;
483 -> 484 ;
485 [label="X[31] <= -0.5\nentropy = 0.469\nsamples = 10\nvalue = [0, 1, 9]", fillcolor="#8f4fe8"] ;
483 -> 485 ;
486 [label="X[13] <= 0.5\nentropy = 0.918\nsamples = 3\nvalue = [0, 1, 2]", fillcolor="#c09cf2"] ;
485 -> 486 ;
487 [label="entropy = 0.0\nsamples = 2\nvalue = [0, 0, 2]", fillcolor="#8139e5"] ;
486 -> 487 ;
488 [label="entropy = 0.0\nsamples = 1\nvalue = [0, 1, 0]", fillcolor="#39e581"] ;
486 -> 488 ;
489 [label="entropy = 0.0\nsamples = 7\nvalue = [0, 0, 7]", fillcolor="#8139e5"] ;
485 -> 489 ;
490 [label="X[19] <= 0.0\nentropy = 1.0\nsamples = 8\nvalue = [4, 4, 0]", fillcolor="#ffffff"] ;
422 -> 490 ;
491 [label="entropy = 0.0\nsamples = 4\nvalue = [4, 0, 0]", fillcolor="#e58139"] ;
490 -> 491 ;
492 [label="entropy = 0.0\nsamples = 4\nvalue = [0, 4, 0]", fillcolor="#39e581"] ;
490 -> 492 ;
493 [label="X[6] <= -0.5\nentropy = 1.496\nsamples = 18\nvalue = [5, 9, 4]", fillcolor="#c2f7d8"] ;
421 -> 493 ;
494 [label="X[30] <= -0.5\nentropy = 0.811\nsamples = 4\nvalue = [1, 0, 3]", fillcolor="#ab7bee"] ;
493 -> 494 ;
495 [label="entropy = 0.0\nsamples = 1\nvalue = [1, 0, 0]", fillcolor="#e58139"] ;
494 -> 495 ;
496 [label="entropy = 0.0\nsamples = 3\nvalue = [0, 0, 3]", fillcolor="#8139e5"] ;
494 -> 496 ;
497 [label="X[21] <= -0.5\nentropy = 1.198\nsamples = 14\nvalue = [4, 9, 1]", fillcolor="#9cf2c0"] ;
493 -> 497 ;
498 [label="entropy = 0.0\nsamples = 2\nvalue = [2, 0, 0]", fillcolor="#e58139"] ;
497 -> 498 ;
499 [label="X[36] <= -0.5\nentropy = 1.041\nsamples = 12\nvalue = [2, 9, 1]", fillcolor="#74eda7"] ;
497 -> 499 ;
500 [label="X[21] <= 0.5\nentropy = 1.0\nsamples = 2\nvalue = [0, 1, 1]", fillcolor="#ffffff"] ;
499 -> 500 ;
501 [label="entropy = 0.0\nsamples = 1\nvalue = [0, 1, 0]", fillcolor="#39e581"] ;
500 -> 501 ;
502 [label="entropy = 0.0\nsamples = 1\nvalue = [0, 0, 1]", fillcolor="#8139e5"] ;
500 -> 502 ;
503 [label="X[25] <= -0.5\nentropy = 0.722\nsamples = 10\nvalue = [2, 8, 0]", fillcolor="#6aeca0"] ;
499 -> 503 ;
504 [label="entropy = 0.0\nsamples = 1\nvalue = [1, 0, 0]", fillcolor="#e58139"] ;
503 -> 504 ;
505 [label="X[14] <= 0.5\nentropy = 0.503\nsamples = 9\nvalue = [1, 8, 0]", fillcolor="#52e891"] ;
503 -> 505 ;
506 [label="entropy = 0.0\nsamples = 8\nvalue = [0, 8, 0]", fillcolor="#39e581"] ;
505 -> 506 ;
507 [label="entropy = 0.0\nsamples = 1\nvalue = [1, 0, 0]", fillcolor="#e58139"] ;
505 -> 507 ;
508 [label="X[6] <= -0.5\nentropy = 0.414\nsamples = 2465\nvalue = [60, 103, 2302]", fillcolor="#8a47e7"] ;
420 -> 508 ;
509 [label="X[14] <= -0.5\nentropy = 0.199\nsamples = 990\nvalue = [8, 18, 964]", fillcolor="#843ee6"] ;
508 -> 509 ;
510 [label="X[7] <= -0.5\nentropy = 0.605\nsamples = 108\nvalue = [2, 11, 95]", fillcolor="#9254e8"] ;
509 -> 510 ;
511 [label="X[8] <= 0.5\nentropy = 1.361\nsamples = 10\nvalue = [1, 5, 4]", fillcolor="#defbea"] ;
510 -> 511 ;
512 [label="X[16] <= 0.5\nentropy = 1.252\nsamples = 6\nvalue = [1, 1, 4]", fillcolor="#b388ef"] ;
511 -> 512 ;
513 [label="X[19] <= 0.5\nentropy = 0.722\nsamples = 5\nvalue = [0, 1, 4]", fillcolor="#a06aec"] ;
512 -> 513 ;
514 [label="entropy = 0.0\nsamples = 4\nvalue = [0, 0, 4]", fillcolor="#8139e5"] ;
513 -> 514 ;
515 [label="entropy = 0.0\nsamples = 1\nvalue = [0, 1, 0]", fillcolor="#39e581"] ;
513 -> 515 ;
516 [label="entropy = 0.0\nsamples = 1\nvalue = [1, 0, 0]", fillcolor="#e58139"] ;
512 -> 516 ;
517 [label="entropy = 0.0\nsamples = 4\nvalue = [0, 4, 0]", fillcolor="#39e581"] ;
511 -> 517 ;
518 [label="X[19] <= -0.5\nentropy = 0.413\nsamples = 98\nvalue = [1, 6, 91]", fillcolor="#8b48e7"] ;
510 -> 518 ;
519 [label="X[7] <= 0.5\nentropy = 0.918\nsamples = 3\nvalue = [1, 0, 2]", fillcolor="#c09cf2"] ;
518 -> 519 ;
520 [label="entropy = 0.0\nsamples = 2\nvalue = [0, 0, 2]", fillcolor="#8139e5"] ;
519 -> 520 ;
521 [label="entropy = 0.0\nsamples = 1\nvalue = [1, 0, 0]", fillcolor="#e58139"] ;
519 -> 521 ;
522 [label="X[17] <= 0.5\nentropy = 0.34\nsamples = 95\nvalue = [0, 6, 89]", fillcolor="#8946e7"] ;
518 -> 522 ;
523 [label="X[15] <= 0.5\nentropy = 0.3\nsamples = 94\nvalue = [0, 5, 89]", fillcolor="#8844e6"] ;
522 -> 523 ;
524 [label="X[18] <= 0.5\nentropy = 0.409\nsamples = 61\nvalue = [0, 5, 56]", fillcolor="#8c4be7"] ;
523 -> 524 ;
525 [label="X[8] <= 0.5\nentropy = 0.246\nsamples = 49\nvalue = [0, 2, 47]", fillcolor="#8641e6"] ;
524 -> 525 ;
526 [label="entropy = 0.0\nsamples = 40\nvalue = [0, 0, 40]", fillcolor="#8139e5"] ;
525 -> 526 ;
527 [label="X[1] <= -0.5\nentropy = 0.764\nsamples = 9\nvalue = [0, 2, 7]", fillcolor="#a572ec"] ;
525 -> 527 ;
528 [label="entropy = 0.0\nsamples = 1\nvalue = [0, 1, 0]", fillcolor="#39e581"] ;
527 -> 528 ;
529 [label="X[24] <= 0.5\nentropy = 0.544\nsamples = 8\nvalue = [0, 1, 7]", fillcolor="#9355e9"] ;
527 -> 529 ;
530 [label="entropy = 0.0\nsamples = 7\nvalue = [0, 0, 7]", fillcolor="#8139e5"] ;
529 -> 530 ;
531 [label="entropy = 0.0\nsamples = 1\nvalue = [0, 1, 0]", fillcolor="#39e581"] ;
529 -> 531 ;
532 [label="X[7] <= 0.5\nentropy = 0.811\nsamples = 12\nvalue = [0, 3, 9]", fillcolor="#ab7bee"] ;
524 -> 532 ;
533 [label="X[19] <= 0.5\nentropy = 0.985\nsamples = 7\nvalue = [0, 3, 4]", fillcolor="#e0cef8"] ;
532 -> 533 ;
534 [label="X[2] <= 0.5\nentropy = 0.811\nsamples = 4\nvalue = [0, 3, 1]", fillcolor="#7beeab"] ;
533 -> 534 ;
535 [label="entropy = 0.0\nsamples = 3\nvalue = [0, 3, 0]", fillcolor="#39e581"] ;
534 -> 535 ;
536 [label="entropy = 0.0\nsamples = 1\nvalue = [0, 0, 1]", fillcolor="#8139e5"] ;
534 -> 536 ;
537 [label="entropy = 0.0\nsamples = 3\nvalue = [0, 0, 3]", fillcolor="#8139e5"] ;
533 -> 537 ;
538 [label="entropy = 0.0\nsamples = 5\nvalue = [0, 0, 5]", fillcolor="#8139e5"] ;
532 -> 538 ;
539 [label="entropy = 0.0\nsamples = 33\nvalue = [0, 0, 33]", fillcolor="#8139e5"] ;
523 -> 539 ;
540 [label="entropy = 0.0\nsamples = 1\nvalue = [0, 1, 0]", fillcolor="#39e581"] ;
522 -> 540 ;
541 [label="X[13] <= -0.5\nentropy = 0.125\nsamples = 882\nvalue = [6, 7, 869]", fillcolor="#833ce5"] ;
509 -> 541 ;
542 [label="X[24] <= 0.5\nentropy = 0.376\nsamples = 173\nvalue = [5, 5, 163]", fillcolor="#8845e7"] ;
541 -> 542 ;
543 [label="X[7] <= -0.5\nentropy = 0.165\nsamples = 123\nvalue = [3, 0, 120]", fillcolor="#843ee6"] ;
542 -> 543 ;
544 [label="X[14] <= 0.5\nentropy = 0.863\nsamples = 7\nvalue = [2, 0, 5]", fillcolor="#b388ef"] ;
543 -> 544 ;
545 [label="X[18] <= 0.5\nentropy = 0.918\nsamples = 3\nvalue = [2, 0, 1]", fillcolor="#f2c09c"] ;
544 -> 545 ;
546 [label="entropy = 0.0\nsamples = 2\nvalue = [2, 0, 0]", fillcolor="#e58139"] ;
545 -> 546 ;
547 [label="entropy = 0.0\nsamples = 1\nvalue = [0, 0, 1]", fillcolor="#8139e5"] ;
545 -> 547 ;
548 [label="entropy = 0.0\nsamples = 4\nvalue = [0, 0, 4]", fillcolor="#8139e5"] ;
544 -> 548 ;
549 [label="X[17] <= 0.5\nentropy = 0.072\nsamples = 116\nvalue = [1, 0, 115]", fillcolor="#823be5"] ;
543 -> 549 ;
550 [label="entropy = 0.0\nsamples = 114\nvalue = [0, 0, 114]", fillcolor="#8139e5"] ;
549 -> 550 ;
551 [label="X[16] <= 0.0\nentropy = 1.0\nsamples = 2\nvalue = [1, 0, 1]", fillcolor="#ffffff"] ;
549 -> 551 ;
552 [label="entropy = 0.0\nsamples = 1\nvalue = [0, 0, 1]", fillcolor="#8139e5"] ;
551 -> 552 ;
553 [label="entropy = 0.0\nsamples = 1\nvalue = [1, 0, 0]", fillcolor="#e58139"] ;
551 -> 553 ;
554 [label="X[14] <= 0.5\nentropy = 0.705\nsamples = 50\nvalue = [2, 5, 43]", fillcolor="#9558e9"] ;
542 -> 554 ;
555 [label="X[7] <= -0.5\nentropy = 0.985\nsamples = 30\nvalue = [2, 5, 23]", fillcolor="#a470ec"] ;
554 -> 555 ;
556 [label="entropy = 0.0\nsamples = 1\nvalue = [1, 0, 0]", fillcolor="#e58139"] ;
555 -> 556 ;
557 [label="X[31] <= 0.5\nentropy = 0.87\nsamples = 29\nvalue = [1, 5, 23]", fillcolor="#a06aec"] ;
555 -> 557 ;
558 [label="X[3] <= 0.5\nentropy = 0.529\nsamples = 25\nvalue = [0, 3, 22]", fillcolor="#9254e9"] ;
557 -> 558 ;
559 [label="X[26] <= -0.5\nentropy = 0.414\nsamples = 24\nvalue = [0, 2, 22]", fillcolor="#8c4be7"] ;
558 -> 559 ;
560 [label="X[27] <= 0.5\nentropy = 1.0\nsamples = 2\nvalue = [0, 1, 1]", fillcolor="#ffffff"] ;
559 -> 560 ;
561 [label="entropy = 0.0\nsamples = 1\nvalue = [0, 1, 0]", fillcolor="#39e581"] ;
560 -> 561 ;
562 [label="entropy = 0.0\nsamples = 1\nvalue = [0, 0, 1]", fillcolor="#8139e5"] ;
560 -> 562 ;
563 [label="X[18] <= 0.5\nentropy = 0.267\nsamples = 22\nvalue = [0, 1, 21]", fillcolor="#8742e6"] ;
559 -> 563 ;
564 [label="entropy = 0.0\nsamples = 19\nvalue = [0, 0, 19]", fillcolor="#8139e5"] ;
563 -> 564 ;
565 [label="X[7] <= 0.5\nentropy = 0.918\nsamples = 3\nvalue = [0, 1, 2]", fillcolor="#c09cf2"] ;
563 -> 565 ;
566 [label="entropy = 0.0\nsamples = 2\nvalue = [0, 0, 2]", fillcolor="#8139e5"] ;
565 -> 566 ;
567 [label="entropy = 0.0\nsamples = 1\nvalue = [0, 1, 0]", fillcolor="#39e581"] ;
565 -> 567 ;
568 [label="entropy = 0.0\nsamples = 1\nvalue = [0, 1, 0]", fillcolor="#39e581"] ;
558 -> 568 ;
569 [label="X[25] <= 0.5\nentropy = 1.5\nsamples = 4\nvalue = [1, 2, 1]", fillcolor="#bdf6d5"] ;
557 -> 569 ;
570 [label="X[30] <= 0.0\nentropy = 0.918\nsamples = 3\nvalue = [1, 2, 0]", fillcolor="#9cf2c0"] ;
569 -> 570 ;
571 [label="entropy = 0.0\nsamples = 2\nvalue = [0, 2, 0]", fillcolor="#39e581"] ;
570 -> 571 ;
572 [label="entropy = 0.0\nsamples = 1\nvalue = [1, 0, 0]", fillcolor="#e58139"] ;
570 -> 572 ;
573 [label="entropy = 0.0\nsamples = 1\nvalue = [0, 0, 1]", fillcolor="#8139e5"] ;
569 -> 573 ;
574 [label="entropy = 0.0\nsamples = 20\nvalue = [0, 0, 20]", fillcolor="#8139e5"] ;
554 -> 574 ;
575 [label="X[40] <= 0.5\nentropy = 0.043\nsamples = 709\nvalue = [1, 2, 706]", fillcolor="#823ae5"] ;
541 -> 575 ;
576 [label="X[3] <= 0.5\nentropy = 0.031\nsamples = 708\nvalue = [1, 1, 706]", fillcolor="#813ae5"] ;
575 -> 576 ;
577 [label="X[19] <= -0.5\nentropy = 0.016\nsamples = 682\nvalue = [1, 0, 681]", fillcolor="#8139e5"] ;
576 -> 577 ;
578 [label="X[8] <= -0.5\nentropy = 0.131\nsamples = 55\nvalue = [1, 0, 54]", fillcolor="#833de5"] ;
577 -> 578 ;
579 [label="entropy = 0.0\nsamples = 1\nvalue = [1, 0, 0]", fillcolor="#e58139"] ;
578 -> 579 ;
580 [label="entropy = 0.0\nsamples = 54\nvalue = [0, 0, 54]", fillcolor="#8139e5"] ;
578 -> 580 ;
581 [label="entropy = 0.0\nsamples = 627\nvalue = [0, 0, 627]", fillcolor="#8139e5"] ;
577 -> 581 ;
582 [label="X[7] <= -0.5\nentropy = 0.235\nsamples = 26\nvalue = [0, 1, 25]", fillcolor="#8641e6"] ;
576 -> 582 ;
583 [label="X[18] <= 0.5\nentropy = 0.811\nsamples = 4\nvalue = [0, 1, 3]", fillcolor="#ab7bee"] ;
582 -> 583 ;
584 [label="entropy = 0.0\nsamples = 3\nvalue = [0, 0, 3]", fillcolor="#8139e5"] ;
583 -> 584 ;
585 [label="entropy = 0.0\nsamples = 1\nvalue = [0, 1, 0]", fillcolor="#39e581"] ;
583 -> 585 ;
586 [label="entropy = 0.0\nsamples = 22\nvalue = [0, 0, 22]", fillcolor="#8139e5"] ;
582 -> 586 ;
587 [label="entropy = 0.0\nsamples = 1\nvalue = [0, 1, 0]", fillcolor="#39e581"] ;
575 -> 587 ;
588 [label="X[36] <= -0.5\nentropy = 0.535\nsamples = 1475\nvalue = [52, 85, 1338]", fillcolor="#8d4de8"] ;
508 -> 588 ;
589 [label="X[37] <= 0.5\nentropy = 0.26\nsamples = 562\nvalue = [5, 16, 541]", fillcolor="#8641e6"] ;
588 -> 589 ;
590 [label="X[16] <= 0.5\nentropy = 0.03\nsamples = 322\nvalue = [0, 1, 321]", fillcolor="#813ae5"] ;
589 -> 590 ;
591 [label="entropy = 0.0\nsamples = 302\nvalue = [0, 0, 302]", fillcolor="#8139e5"] ;
590 -> 591 ;
592 [label="X[18] <= -0.5\nentropy = 0.286\nsamples = 20\nvalue = [0, 1, 19]", fillcolor="#8843e6"] ;
590 -> 592 ;
593 [label="X[15] <= 0.0\nentropy = 1.0\nsamples = 2\nvalue = [0, 1, 1]", fillcolor="#ffffff"] ;
592 -> 593 ;
594 [label="entropy = 0.0\nsamples = 1\nvalue = [0, 0, 1]", fillcolor="#8139e5"] ;
593 -> 594 ;
595 [label="entropy = 0.0\nsamples = 1\nvalue = [0, 1, 0]", fillcolor="#39e581"] ;
593 -> 595 ;
596 [label="entropy = 0.0\nsamples = 18\nvalue = [0, 0, 18]", fillcolor="#8139e5"] ;
592 -> 596 ;
597 [label="X[18] <= -0.5\nentropy = 0.481\nsamples = 240\nvalue = [5, 15, 220]", fillcolor="#8c4be7"] ;
589 -> 597 ;
598 [label="X[14] <= -0.5\nentropy = 1.016\nsamples = 55\nvalue = [5, 8, 42]", fillcolor="#a470ec"] ;
597 -> 598 ;
599 [label="X[38] <= 0.5\nentropy = 0.811\nsamples = 4\nvalue = [1, 3, 0]", fillcolor="#7beeab"] ;
598 -> 599 ;
600 [label="entropy = 0.0\nsamples = 3\nvalue = [0, 3, 0]", fillcolor="#39e581"] ;
599 -> 600 ;
601 [label="entropy = 0.0\nsamples = 1\nvalue = [1, 0, 0]", fillcolor="#e58139"] ;
599 -> 601 ;
602 [label="X[40] <= 0.5\nentropy = 0.847\nsamples = 51\nvalue = [4, 5, 42]", fillcolor="#9a60ea"] ;
598 -> 602 ;
603 [label="X[38] <= 0.5\nentropy = 0.715\nsamples = 49\nvalue = [2, 5, 42]", fillcolor="#9559e9"] ;
602 -> 603 ;
604 [label="X[30] <= 0.5\nentropy = 0.31\nsamples = 36\nvalue = [0, 2, 34]", fillcolor="#8845e7"] ;
603 -> 604 ;
605 [label="entropy = 0.0\nsamples = 18\nvalue = [0, 0, 18]", fillcolor="#8139e5"] ;
604 -> 605 ;
606 [label="X[24] <= 0.5\nentropy = 0.503\nsamples = 18\nvalue = [0, 2, 16]", fillcolor="#9152e8"] ;
604 -> 606 ;
607 [label="X[39] <= 0.5\nentropy = 0.323\nsamples = 17\nvalue = [0, 1, 16]", fillcolor="#8945e7"] ;
606 -> 607 ;
608 [label="entropy = 0.0\nsamples = 16\nvalue = [0, 0, 16]", fillcolor="#8139e5"] ;
607 -> 608 ;
609 [label="entropy = 0.0\nsamples = 1\nvalue = [0, 1, 0]", fillcolor="#39e581"] ;
607 -> 609 ;
610 [label="entropy = 0.0\nsamples = 1\nvalue = [0, 1, 0]", fillcolor="#39e581"] ;
606 -> 610 ;
611 [label="X[14] <= 0.5\nentropy = 1.335\nsamples = 13\nvalue = [2, 3, 8]", fillcolor="#c09cf2"] ;
603 -> 611 ;
612 [label="X[2] <= 0.5\nentropy = 1.189\nsamples = 12\nvalue = [1, 3, 8]", fillcolor="#b991f1"] ;
611 -> 612 ;
613 [label="X[39] <= -0.5\nentropy = 0.845\nsamples = 11\nvalue = [0, 3, 8]", fillcolor="#b083ef"] ;
612 -> 613 ;
614 [label="X[19] <= 0.5\nentropy = 0.918\nsamples = 3\nvalue = [0, 2, 1]", fillcolor="#9cf2c0"] ;
613 -> 614 ;
615 [label="entropy = 0.0\nsamples = 2\nvalue = [0, 2, 0]", fillcolor="#39e581"] ;
614 -> 615 ;
616 [label="entropy = 0.0\nsamples = 1\nvalue = [0, 0, 1]", fillcolor="#8139e5"] ;
614 -> 616 ;
617 [label="X[39] <= 0.5\nentropy = 0.544\nsamples = 8\nvalue = [0, 1, 7]", fillcolor="#9355e9"] ;
613 -> 617 ;
618 [label="entropy = 0.0\nsamples = 7\nvalue = [0, 0, 7]", fillcolor="#8139e5"] ;
617 -> 618 ;
619 [label="entropy = 0.0\nsamples = 1\nvalue = [0, 1, 0]", fillcolor="#39e581"] ;
617 -> 619 ;
620 [label="entropy = 0.0\nsamples = 1\nvalue = [1, 0, 0]", fillcolor="#e58139"] ;
612 -> 620 ;
621 [label="entropy = 0.0\nsamples = 1\nvalue = [1, 0, 0]", fillcolor="#e58139"] ;
611 -> 621 ;
622 [label="entropy = 0.0\nsamples = 2\nvalue = [2, 0, 0]", fillcolor="#e58139"] ;
602 -> 622 ;
623 [label="X[16] <= 0.5\nentropy = 0.232\nsamples = 185\nvalue = [0, 7, 178]", fillcolor="#8641e6"] ;
597 -> 623 ;
624 [label="X[38] <= 0.5\nentropy = 0.181\nsamples = 183\nvalue = [0, 5, 178]", fillcolor="#853fe6"] ;
623 -> 624 ;
625 [label="X[15] <= 0.5\nentropy = 0.064\nsamples = 132\nvalue = [0, 1, 131]", fillcolor="#823be5"] ;
624 -> 625 ;
626 [label="entropy = 0.0\nsamples = 123\nvalue = [0, 0, 123]", fillcolor="#8139e5"] ;
625 -> 626 ;
627 [label="X[30] <= -0.5\nentropy = 0.503\nsamples = 9\nvalue = [0, 1, 8]", fillcolor="#9152e8"] ;
625 -> 627 ;
628 [label="X[14] <= 0.0\nentropy = 1.0\nsamples = 2\nvalue = [0, 1, 1]", fillcolor="#ffffff"] ;
627 -> 628 ;
629 [label="entropy = 0.0\nsamples = 1\nvalue = [0, 1, 0]", fillcolor="#39e581"] ;
628 -> 629 ;
630 [label="entropy = 0.0\nsamples = 1\nvalue = [0, 0, 1]", fillcolor="#8139e5"] ;
628 -> 630 ;
631 [label="entropy = 0.0\nsamples = 7\nvalue = [0, 0, 7]", fillcolor="#8139e5"] ;
627 -> 631 ;
632 [label="X[40] <= 0.5\nentropy = 0.397\nsamples = 51\nvalue = [0, 4, 47]", fillcolor="#8c4ae7"] ;
624 -> 632 ;
633 [label="X[30] <= 0.5\nentropy = 0.258\nsamples = 46\nvalue = [0, 2, 44]", fillcolor="#8742e6"] ;
632 -> 633 ;
634 [label="entropy = 0.0\nsamples = 36\nvalue = [0, 0, 36]", fillcolor="#8139e5"] ;
633 -> 634 ;
635 [label="X[13] <= -0.5\nentropy = 0.722\nsamples = 10\nvalue = [0, 2, 8]", fillcolor="#a06aec"] ;
633 -> 635 ;
636 [label="X[31] <= -0.5\nentropy = 0.971\nsamples = 5\nvalue = [0, 2, 3]", fillcolor="#d5bdf6"] ;
635 -> 636 ;
637 [label="entropy = 0.0\nsamples = 1\nvalue = [0, 1, 0]", fillcolor="#39e581"] ;
636 -> 637 ;
638 [label="X[24] <= -0.5\nentropy = 0.811\nsamples = 4\nvalue = [0, 1, 3]", fillcolor="#ab7bee"] ;
636 -> 638 ;
639 [label="entropy = 0.0\nsamples = 1\nvalue = [0, 1, 0]", fillcolor="#39e581"] ;
638 -> 639 ;
640 [label="entropy = 0.0\nsamples = 3\nvalue = [0, 0, 3]", fillcolor="#8139e5"] ;
638 -> 640 ;
641 [label="entropy = 0.0\nsamples = 5\nvalue = [0, 0, 5]", fillcolor="#8139e5"] ;
635 -> 641 ;
642 [label="X[13] <= -0.5\nentropy = 0.971\nsamples = 5\nvalue = [0, 2, 3]", fillcolor="#d5bdf6"] ;
632 -> 642 ;
643 [label="entropy = 0.0\nsamples = 1\nvalue = [0, 1, 0]", fillcolor="#39e581"] ;
642 -> 643 ;
644 [label="X[24] <= -0.5\nentropy = 0.811\nsamples = 4\nvalue = [0, 1, 3]", fillcolor="#ab7bee"] ;
642 -> 644 ;
645 [label="entropy = 0.0\nsamples = 1\nvalue = [0, 1, 0]", fillcolor="#39e581"] ;
644 -> 645 ;
646 [label="entropy = 0.0\nsamples = 3\nvalue = [0, 0, 3]", fillcolor="#8139e5"] ;
644 -> 646 ;
647 [label="entropy = 0.0\nsamples = 2\nvalue = [0, 2, 0]", fillcolor="#39e581"] ;
623 -> 647 ;
648 [label="X[30] <= 0.5\nentropy = 0.673\nsamples = 913\nvalue = [47, 69, 797]", fillcolor="#9254e9"] ;
588 -> 648 ;
649 [label="X[17] <= 0.5\nentropy = 0.506\nsamples = 539\nvalue = [15, 32, 492]", fillcolor="#8d4be7"] ;
648 -> 649 ;
650 [label="X[24] <= 0.5\nentropy = 0.477\nsamples = 527\nvalue = [12, 31, 484]", fillcolor="#8c4ae7"] ;
649 -> 650 ;
651 [label="X[14] <= -0.5\nentropy = 0.351\nsamples = 374\nvalue = [4, 17, 353]", fillcolor="#8845e7"] ;
650 -> 651 ;
652 [label="X[31] <= 0.5\nentropy = 0.587\nsamples = 83\nvalue = [1, 9, 73]", fillcolor="#9254e9"] ;
651 -> 652 ;
653 [label="X[31] <= -0.5\nentropy = 0.548\nsamples = 71\nvalue = [0, 9, 62]", fillcolor="#9356e9"] ;
652 -> 653 ;
654 [label="X[33] <= 0.5\nentropy = 0.918\nsamples = 3\nvalue = [0, 2, 1]", fillcolor="#9cf2c0"] ;
653 -> 654 ;
655 [label="entropy = 0.0\nsamples = 2\nvalue = [0, 2, 0]", fillcolor="#39e581"] ;
654 -> 655 ;
656 [label="entropy = 0.0\nsamples = 1\nvalue = [0, 0, 1]", fillcolor="#8139e5"] ;
654 -> 656 ;
657 [label="X[25] <= 0.5\nentropy = 0.478\nsamples = 68\nvalue = [0, 7, 61]", fillcolor="#8f50e8"] ;
653 -> 657 ;
658 [label="X[13] <= 0.0\nentropy = 0.563\nsamples = 53\nvalue = [0, 7, 46]", fillcolor="#9457e9"] ;
657 -> 658 ;
659 [label="entropy = 0.0\nsamples = 9\nvalue = [0, 0, 9]", fillcolor="#8139e5"] ;
658 -> 659 ;
660 [label="X[16] <= -0.5\nentropy = 0.632\nsamples = 44\nvalue = [0, 7, 37]", fillcolor="#995eea"] ;
658 -> 660 ;
661 [label="entropy = 0.0\nsamples = 4\nvalue = [0, 0, 4]", fillcolor="#8139e5"] ;
660 -> 661 ;
662 [label="X[17] <= -0.5\nentropy = 0.669\nsamples = 40\nvalue = [0, 7, 33]", fillcolor="#9c63eb"] ;
660 -> 662 ;
663 [label="entropy = 0.0\nsamples = 3\nvalue = [0, 0, 3]", fillcolor="#8139e5"] ;
662 -> 663 ;
664 [label="X[15] <= 0.5\nentropy = 0.7\nsamples = 37\nvalue = [0, 7, 30]", fillcolor="#9e67eb"] ;
662 -> 664 ;
665 [label="X[20] <= 0.5\nentropy = 0.559\nsamples = 23\nvalue = [0, 3, 20]", fillcolor="#9457e9"] ;
664 -> 665 ;
666 [label="X[18] <= -0.5\nentropy = 0.75\nsamples = 14\nvalue = [0, 3, 11]", fillcolor="#a36fec"] ;
665 -> 666 ;
667 [label="X[1] <= -0.5\nentropy = 0.918\nsamples = 3\nvalue = [0, 2, 1]", fillcolor="#9cf2c0"] ;
666 -> 667 ;
668 [label="entropy = 0.0\nsamples = 2\nvalue = [0, 2, 0]", fillcolor="#39e581"] ;
667 -> 668 ;
669 [label="entropy = 0.0\nsamples = 1\nvalue = [0, 0, 1]", fillcolor="#8139e5"] ;
667 -> 669 ;
670 [label="X[24] <= -0.5\nentropy = 0.439\nsamples = 11\nvalue = [0, 1, 10]", fillcolor="#8e4de8"] ;
666 -> 670 ;
671 [label="X[16] <= 0.5\nentropy = 1.0\nsamples = 2\nvalue = [0, 1, 1]", fillcolor="#ffffff"] ;
670 -> 671 ;
672 [label="entropy = 0.0\nsamples = 1\nvalue = [0, 0, 1]", fillcolor="#8139e5"] ;
671 -> 672 ;
673 [label="entropy = 0.0\nsamples = 1\nvalue = [0, 1, 0]", fillcolor="#39e581"] ;
671 -> 673 ;
674 [label="entropy = 0.0\nsamples = 9\nvalue = [0, 0, 9]", fillcolor="#8139e5"] ;
670 -> 674 ;
675 [label="entropy = 0.0\nsamples = 9\nvalue = [0, 0, 9]", fillcolor="#8139e5"] ;
665 -> 675 ;
676 [label="X[19] <= -0.5\nentropy = 0.863\nsamples = 14\nvalue = [0, 4, 10]", fillcolor="#b388ef"] ;
664 -> 676 ;
677 [label="entropy = 0.0\nsamples = 2\nvalue = [0, 2, 0]", fillcolor="#39e581"] ;
676 -> 677 ;
678 [label="X[19] <= 0.5\nentropy = 0.65\nsamples = 12\nvalue = [0, 2, 10]", fillcolor="#9a61ea"] ;
676 -> 678 ;
679 [label="X[25] <= -0.5\nentropy = 0.764\nsamples = 9\nvalue = [0, 2, 7]", fillcolor="#a572ec"] ;
678 -> 679 ;
680 [label="entropy = 0.0\nsamples = 1\nvalue = [0, 0, 1]", fillcolor="#8139e5"] ;
679 -> 680 ;
681 [label="X[3] <= -0.5\nentropy = 0.811\nsamples = 8\nvalue = [0, 2, 6]", fillcolor="#ab7bee"] ;
679 -> 681 ;
682 [label="entropy = 0.0\nsamples = 1\nvalue = [0, 0, 1]", fillcolor="#8139e5"] ;
681 -> 682 ;
683 [label="X[2] <= 0.5\nentropy = 0.863\nsamples = 7\nvalue = [0, 2, 5]", fillcolor="#b388ef"] ;
681 -> 683 ;
684 [label="X[18] <= -0.5\nentropy = 0.722\nsamples = 5\nvalue = [0, 1, 4]", fillcolor="#a06aec"] ;
683 -> 684 ;
685 [label="entropy = 0.0\nsamples = 3\nvalue = [0, 0, 3]", fillcolor="#8139e5"] ;
684 -> 685 ;
686 [label="X[1] <= -0.5\nentropy = 1.0\nsamples = 2\nvalue = [0, 1, 1]", fillcolor="#ffffff"] ;
684 -> 686 ;
687 [label="entropy = 0.0\nsamples = 1\nvalue = [0, 0, 1]", fillcolor="#8139e5"] ;
686 -> 687 ;
688 [label="entropy = 0.0\nsamples = 1\nvalue = [0, 1, 0]", fillcolor="#39e581"] ;
686 -> 688 ;
689 [label="X[18] <= -0.5\nentropy = 1.0\nsamples = 2\nvalue = [0, 1, 1]", fillcolor="#ffffff"] ;
683 -> 689 ;
690 [label="entropy = 0.0\nsamples = 1\nvalue = [0, 1, 0]", fillcolor="#39e581"] ;
689 -> 690 ;
691 [label="entropy = 0.0\nsamples = 1\nvalue = [0, 0, 1]", fillcolor="#8139e5"] ;
689 -> 691 ;
692 [label="entropy = 0.0\nsamples = 3\nvalue = [0, 0, 3]", fillcolor="#8139e5"] ;
678 -> 692 ;
693 [label="entropy = 0.0\nsamples = 15\nvalue = [0, 0, 15]", fillcolor="#8139e5"] ;
657 -> 693 ;
694 [label="X[16] <= 0.5\nentropy = 0.414\nsamples = 12\nvalue = [1, 0, 11]", fillcolor="#8c4be7"] ;
652 -> 694 ;
695 [label="entropy = 0.0\nsamples = 11\nvalue = [0, 0, 11]", fillcolor="#8139e5"] ;
694 -> 695 ;
696 [label="entropy = 0.0\nsamples = 1\nvalue = [1, 0, 0]", fillcolor="#e58139"] ;
694 -> 696 ;
697 [label="X[13] <= -0.5\nentropy = 0.264\nsamples = 291\nvalue = [3, 8, 280]", fillcolor="#8641e6"] ;
651 -> 697 ;
698 [label="X[30] <= -0.5\nentropy = 0.57\nsamples = 88\nvalue = [3, 6, 79]", fillcolor="#8f4fe8"] ;
697 -> 698 ;
699 [label="X[15] <= -0.5\nentropy = 0.614\nsamples = 33\nvalue = [0, 5, 28]", fillcolor="#985cea"] ;
698 -> 699 ;
700 [label="entropy = 0.0\nsamples = 2\nvalue = [0, 2, 0]", fillcolor="#39e581"] ;
699 -> 700 ;
701 [label="X[14] <= 0.5\nentropy = 0.459\nsamples = 31\nvalue = [0, 3, 28]", fillcolor="#8e4ee8"] ;
699 -> 701 ;
702 [label="X[33] <= 0.5\nentropy = 0.918\nsamples = 9\nvalue = [0, 3, 6]", fillcolor="#c09cf2"] ;
701 -> 702 ;
703 [label="X[3] <= 0.5\nentropy = 0.592\nsamples = 7\nvalue = [0, 1, 6]", fillcolor="#965ae9"] ;
702 -> 703 ;
704 [label="entropy = 0.0\nsamples = 6\nvalue = [0, 0, 6]", fillcolor="#8139e5"] ;
703 -> 704 ;
705 [label="entropy = 0.0\nsamples = 1\nvalue = [0, 1, 0]", fillcolor="#39e581"] ;
703 -> 705 ;
706 [label="entropy = 0.0\nsamples = 2\nvalue = [0, 2, 0]", fillcolor="#39e581"] ;
702 -> 706 ;
707 [label="entropy = 0.0\nsamples = 22\nvalue = [0, 0, 22]", fillcolor="#8139e5"] ;
701 -> 707 ;
708 [label="X[24] <= -0.5\nentropy = 0.435\nsamples = 55\nvalue = [3, 1, 51]", fillcolor="#8b48e7"] ;
698 -> 708 ;
709 [label="X[25] <= 0.5\nentropy = 0.857\nsamples = 21\nvalue = [3, 1, 17]", fillcolor="#9d65eb"] ;
708 -> 709 ;
710 [label="X[19] <= -0.5\nentropy = 1.449\nsamples = 7\nvalue = [3, 1, 3]", fillcolor="#ffffff"] ;
709 -> 710 ;
711 [label="entropy = 0.0\nsamples = 1\nvalue = [0, 1, 0]", fillcolor="#39e581"] ;
710 -> 711 ;
712 [label="X[18] <= -0.5\nentropy = 1.0\nsamples = 6\nvalue = [3, 0, 3]", fillcolor="#ffffff"] ;
710 -> 712 ;
713 [label="entropy = 0.0\nsamples = 2\nvalue = [0, 0, 2]", fillcolor="#8139e5"] ;
712 -> 713 ;
714 [label="X[18] <= 0.5\nentropy = 0.811\nsamples = 4\nvalue = [3, 0, 1]", fillcolor="#eeab7b"] ;
712 -> 714 ;
715 [label="X[26] <= 0.5\nentropy = 1.0\nsamples = 2\nvalue = [1, 0, 1]", fillcolor="#ffffff"] ;
714 -> 715 ;
716 [label="entropy = 0.0\nsamples = 1\nvalue = [0, 0, 1]", fillcolor="#8139e5"] ;
715 -> 716 ;
717 [label="entropy = 0.0\nsamples = 1\nvalue = [1, 0, 0]", fillcolor="#e58139"] ;
715 -> 717 ;
718 [label="entropy = 0.0\nsamples = 2\nvalue = [2, 0, 0]", fillcolor="#e58139"] ;
714 -> 718 ;
719 [label="entropy = 0.0\nsamples = 14\nvalue = [0, 0, 14]", fillcolor="#8139e5"] ;
709 -> 719 ;
720 [label="entropy = 0.0\nsamples = 34\nvalue = [0, 0, 34]", fillcolor="#8139e5"] ;
708 -> 720 ;
721 [label="X[35] <= 0.5\nentropy = 0.08\nsamples = 203\nvalue = [0, 2, 201]", fillcolor="#823be5"] ;
697 -> 721 ;
722 [label="X[26] <= -0.5\nentropy = 0.045\nsamples = 202\nvalue = [0, 1, 201]", fillcolor="#823ae5"] ;
721 -> 722 ;
723 [label="X[19] <= -0.5\nentropy = 0.323\nsamples = 17\nvalue = [0, 1, 16]", fillcolor="#8945e7"] ;
722 -> 723 ;
724 [label="entropy = 0.0\nsamples = 1\nvalue = [0, 1, 0]", fillcolor="#39e581"] ;
723 -> 724 ;
725 [label="entropy = 0.0\nsamples = 16\nvalue = [0, 0, 16]", fillcolor="#8139e5"] ;
723 -> 725 ;
726 [label="entropy = 0.0\nsamples = 185\nvalue = [0, 0, 185]", fillcolor="#8139e5"] ;
722 -> 726 ;
727 [label="entropy = 0.0\nsamples = 1\nvalue = [0, 1, 0]", fillcolor="#39e581"] ;
721 -> 727 ;
728 [label="X[19] <= -0.5\nentropy = 0.73\nsamples = 153\nvalue = [8, 14, 131]", fillcolor="#9558e9"] ;
650 -> 728 ;
729 [label="X[14] <= -0.5\nentropy = 0.918\nsamples = 15\nvalue = [5, 0, 10]", fillcolor="#c09cf2"] ;
728 -> 729 ;
730 [label="entropy = 0.0\nsamples = 2\nvalue = [2, 0, 0]", fillcolor="#e58139"] ;
729 -> 730 ;
731 [label="X[13] <= 0.5\nentropy = 0.779\nsamples = 13\nvalue = [3, 0, 10]", fillcolor="#a774ed"] ;
729 -> 731 ;
732 [label="X[21] <= 0.5\nentropy = 1.0\nsamples = 6\nvalue = [3, 0, 3]", fillcolor="#ffffff"] ;
731 -> 732 ;
733 [label="X[14] <= 0.5\nentropy = 0.811\nsamples = 4\nvalue = [3, 0, 1]", fillcolor="#eeab7b"] ;
732 -> 733 ;
734 [label="entropy = 0.0\nsamples = 2\nvalue = [2, 0, 0]", fillcolor="#e58139"] ;
733 -> 734 ;
735 [label="X[15] <= 0.5\nentropy = 1.0\nsamples = 2\nvalue = [1, 0, 1]", fillcolor="#ffffff"] ;
733 -> 735 ;
736 [label="entropy = 0.0\nsamples = 1\nvalue = [0, 0, 1]", fillcolor="#8139e5"] ;
735 -> 736 ;
737 [label="entropy = 0.0\nsamples = 1\nvalue = [1, 0, 0]", fillcolor="#e58139"] ;
735 -> 737 ;
738 [label="entropy = 0.0\nsamples = 2\nvalue = [0, 0, 2]", fillcolor="#8139e5"] ;
732 -> 738 ;
739 [label="entropy = 0.0\nsamples = 7\nvalue = [0, 0, 7]", fillcolor="#8139e5"] ;
731 -> 739 ;
740 [label="X[2] <= 0.5\nentropy = 0.621\nsamples = 138\nvalue = [3, 14, 121]", fillcolor="#9254e9"] ;
728 -> 740 ;
741 [label="X[31] <= 0.5\nentropy = 0.457\nsamples = 104\nvalue = [0, 10, 94]", fillcolor="#8e4ee8"] ;
740 -> 741 ;
742 [label="X[18] <= -0.5\nentropy = 0.312\nsamples = 89\nvalue = [0, 5, 84]", fillcolor="#8845e7"] ;
741 -> 742 ;
743 [label="X[25] <= 0.5\nentropy = 0.461\nsamples = 41\nvalue = [0, 4, 37]", fillcolor="#8f4ee8"] ;
742 -> 743 ;
744 [label="X[16] <= 0.5\nentropy = 0.211\nsamples = 30\nvalue = [0, 1, 29]", fillcolor="#8540e6"] ;
743 -> 744 ;
745 [label="entropy = 0.0\nsamples = 28\nvalue = [0, 0, 28]", fillcolor="#8139e5"] ;
744 -> 745 ;
746 [label="X[14] <= 0.0\nentropy = 1.0\nsamples = 2\nvalue = [0, 1, 1]", fillcolor="#ffffff"] ;
744 -> 746 ;
747 [label="entropy = 0.0\nsamples = 1\nvalue = [0, 0, 1]", fillcolor="#8139e5"] ;
746 -> 747 ;
748 [label="entropy = 0.0\nsamples = 1\nvalue = [0, 1, 0]", fillcolor="#39e581"] ;
746 -> 748 ;
749 [label="X[15] <= -0.5\nentropy = 0.845\nsamples = 11\nvalue = [0, 3, 8]", fillcolor="#b083ef"] ;
743 -> 749 ;
750 [label="entropy = 0.0\nsamples = 1\nvalue = [0, 1, 0]", fillcolor="#39e581"] ;
749 -> 750 ;
751 [label="X[19] <= 0.5\nentropy = 0.722\nsamples = 10\nvalue = [0, 2, 8]", fillcolor="#a06aec"] ;
749 -> 751 ;
752 [label="entropy = 0.0\nsamples = 5\nvalue = [0, 0, 5]", fillcolor="#8139e5"] ;
751 -> 752 ;
753 [label="X[14] <= -0.5\nentropy = 0.971\nsamples = 5\nvalue = [0, 2, 3]", fillcolor="#d5bdf6"] ;
751 -> 753 ;
754 [label="entropy = 0.0\nsamples = 1\nvalue = [0, 1, 0]", fillcolor="#39e581"] ;
753 -> 754 ;
755 [label="X[13] <= -0.5\nentropy = 0.811\nsamples = 4\nvalue = [0, 1, 3]", fillcolor="#ab7bee"] ;
753 -> 755 ;
756 [label="entropy = 0.0\nsamples = 3\nvalue = [0, 0, 3]", fillcolor="#8139e5"] ;
755 -> 756 ;
757 [label="entropy = 0.0\nsamples = 1\nvalue = [0, 1, 0]", fillcolor="#39e581"] ;
755 -> 757 ;
758 [label="X[16] <= 0.5\nentropy = 0.146\nsamples = 48\nvalue = [0, 1, 47]", fillcolor="#843de6"] ;
742 -> 758 ;
759 [label="entropy = 0.0\nsamples = 37\nvalue = [0, 0, 37]", fillcolor="#8139e5"] ;
758 -> 759 ;
760 [label="X[30] <= -0.5\nentropy = 0.439\nsamples = 11\nvalue = [0, 1, 10]", fillcolor="#8e4de8"] ;
758 -> 760 ;
761 [label="X[13] <= 0.0\nentropy = 1.0\nsamples = 2\nvalue = [0, 1, 1]", fillcolor="#ffffff"] ;
760 -> 761 ;
762 [label="entropy = 0.0\nsamples = 1\nvalue = [0, 1, 0]", fillcolor="#39e581"] ;
761 -> 762 ;
763 [label="entropy = 0.0\nsamples = 1\nvalue = [0, 0, 1]", fillcolor="#8139e5"] ;
761 -> 763 ;
764 [label="entropy = 0.0\nsamples = 9\nvalue = [0, 0, 9]", fillcolor="#8139e5"] ;
760 -> 764 ;
765 [label="X[18] <= -0.5\nentropy = 0.918\nsamples = 15\nvalue = [0, 5, 10]", fillcolor="#c09cf2"] ;
741 -> 765 ;
766 [label="entropy = 0.0\nsamples = 4\nvalue = [0, 0, 4]", fillcolor="#8139e5"] ;
765 -> 766 ;
767 [label="X[32] <= -0.5\nentropy = 0.994\nsamples = 11\nvalue = [0, 5, 6]", fillcolor="#eadefb"] ;
765 -> 767 ;
768 [label="entropy = 0.0\nsamples = 2\nvalue = [0, 0, 2]", fillcolor="#8139e5"] ;
767 -> 768 ;
769 [label="X[1] <= -0.5\nentropy = 0.991\nsamples = 9\nvalue = [0, 5, 4]", fillcolor="#d7fae6"] ;
767 -> 769 ;
770 [label="entropy = 0.0\nsamples = 2\nvalue = [0, 0, 2]", fillcolor="#8139e5"] ;
769 -> 770 ;
771 [label="X[25] <= -0.5\nentropy = 0.863\nsamples = 7\nvalue = [0, 5, 2]", fillcolor="#88efb3"] ;
769 -> 771 ;
772 [label="entropy = 0.0\nsamples = 1\nvalue = [0, 0, 1]", fillcolor="#8139e5"] ;
771 -> 772 ;
773 [label="X[25] <= 0.5\nentropy = 0.65\nsamples = 6\nvalue = [0, 5, 1]", fillcolor="#61ea9a"] ;
771 -> 773 ;
774 [label="entropy = 0.0\nsamples = 4\nvalue = [0, 4, 0]", fillcolor="#39e581"] ;
773 -> 774 ;
775 [label="X[26] <= -0.5\nentropy = 1.0\nsamples = 2\nvalue = [0, 1, 1]", fillcolor="#ffffff"] ;
773 -> 775 ;
776 [label="entropy = 0.0\nsamples = 1\nvalue = [0, 1, 0]", fillcolor="#39e581"] ;
775 -> 776 ;
777 [label="entropy = 0.0\nsamples = 1\nvalue = [0, 0, 1]", fillcolor="#8139e5"] ;
775 -> 777 ;
778 [label="X[18] <= -0.5\nentropy = 0.936\nsamples = 34\nvalue = [3, 4, 27]", fillcolor="#9e67eb"] ;
740 -> 778 ;
779 [label="X[13] <= -0.5\nentropy = 1.539\nsamples = 11\nvalue = [3, 3, 5]", fillcolor="#e0cef8"] ;
778 -> 779 ;
780 [label="X[19] <= 0.5\nentropy = 0.918\nsamples = 3\nvalue = [2, 1, 0]", fillcolor="#f2c09c"] ;
779 -> 780 ;
781 [label="entropy = 0.0\nsamples = 2\nvalue = [2, 0, 0]", fillcolor="#e58139"] ;
780 -> 781 ;
782 [label="entropy = 0.0\nsamples = 1\nvalue = [0, 1, 0]", fillcolor="#39e581"] ;
780 -> 782 ;
783 [label="X[25] <= -0.5\nentropy = 1.299\nsamples = 8\nvalue = [1, 2, 5]", fillcolor="#c09cf2"] ;
779 -> 783 ;
784 [label="X[13] <= 0.5\nentropy = 1.0\nsamples = 2\nvalue = [1, 0, 1]", fillcolor="#ffffff"] ;
783 -> 784 ;
785 [label="entropy = 0.0\nsamples = 1\nvalue = [1, 0, 0]", fillcolor="#e58139"] ;
784 -> 785 ;
786 [label="entropy = 0.0\nsamples = 1\nvalue = [0, 0, 1]", fillcolor="#8139e5"] ;
784 -> 786 ;
787 [label="X[4] <= 0.5\nentropy = 0.918\nsamples = 6\nvalue = [0, 2, 4]", fillcolor="#c09cf2"] ;
783 -> 787 ;
788 [label="X[14] <= -0.5\nentropy = 0.722\nsamples = 5\nvalue = [0, 1, 4]", fillcolor="#a06aec"] ;
787 -> 788 ;
789 [label="entropy = 0.0\nsamples = 1\nvalue = [0, 1, 0]", fillcolor="#39e581"] ;
788 -> 789 ;
790 [label="entropy = 0.0\nsamples = 4\nvalue = [0, 0, 4]", fillcolor="#8139e5"] ;
788 -> 790 ;
791 [label="entropy = 0.0\nsamples = 1\nvalue = [0, 1, 0]", fillcolor="#39e581"] ;
787 -> 791 ;
792 [label="X[30] <= -0.5\nentropy = 0.258\nsamples = 23\nvalue = [0, 1, 22]", fillcolor="#8742e6"] ;
778 -> 792 ;
793 [label="X[13] <= -0.5\nentropy = 0.65\nsamples = 6\nvalue = [0, 1, 5]", fillcolor="#9a61ea"] ;
792 -> 793 ;
794 [label="X[3] <= 0.5\nentropy = 0.918\nsamples = 3\nvalue = [0, 1, 2]", fillcolor="#c09cf2"] ;
793 -> 794 ;
795 [label="entropy = 0.0\nsamples = 2\nvalue = [0, 0, 2]", fillcolor="#8139e5"] ;
794 -> 795 ;
796 [label="entropy = 0.0\nsamples = 1\nvalue = [0, 1, 0]", fillcolor="#39e581"] ;
794 -> 796 ;
797 [label="entropy = 0.0\nsamples = 3\nvalue = [0, 0, 3]", fillcolor="#8139e5"] ;
793 -> 797 ;
798 [label="entropy = 0.0\nsamples = 17\nvalue = [0, 0, 17]", fillcolor="#8139e5"] ;
792 -> 798 ;
799 [label="X[16] <= 0.0\nentropy = 1.189\nsamples = 12\nvalue = [3, 1, 8]", fillcolor="#b991f1"] ;
649 -> 799 ;
800 [label="X[18] <= -0.5\nentropy = 0.503\nsamples = 9\nvalue = [1, 0, 8]", fillcolor="#9152e8"] ;
799 -> 800 ;
801 [label="entropy = 0.0\nsamples = 1\nvalue = [1, 0, 0]", fillcolor="#e58139"] ;
800 -> 801 ;
802 [label="entropy = 0.0\nsamples = 8\nvalue = [0, 0, 8]", fillcolor="#8139e5"] ;
800 -> 802 ;
803 [label="X[24] <= -0.5\nentropy = 0.918\nsamples = 3\nvalue = [2, 1, 0]", fillcolor="#f2c09c"] ;
799 -> 803 ;
804 [label="entropy = 0.0\nsamples = 1\nvalue = [0, 1, 0]", fillcolor="#39e581"] ;
803 -> 804 ;
805 [label="entropy = 0.0\nsamples = 2\nvalue = [2, 0, 0]", fillcolor="#e58139"] ;
803 -> 805 ;
806 [label="X[24] <= 0.5\nentropy = 0.874\nsamples = 374\nvalue = [32, 37, 305]", fillcolor="#9b62ea"] ;
648 -> 806 ;
807 [label="X[16] <= 0.5\nentropy = 0.78\nsamples = 340\nvalue = [25, 28, 287]", fillcolor="#965be9"] ;
806 -> 807 ;
808 [label="X[19] <= -0.5\nentropy = 0.706\nsamples = 326\nvalue = [21, 23, 282]", fillcolor="#9356e9"] ;
807 -> 808 ;
809 [label="X[33] <= 0.5\nentropy = 0.868\nsamples = 45\nvalue = [9, 1, 35]", fillcolor="#a470ec"] ;
808 -> 809 ;
810 [label="X[18] <= 0.0\nentropy = 0.794\nsamples = 43\nvalue = [7, 1, 35]", fillcolor="#9d65eb"] ;
809 -> 810 ;
811 [label="X[3] <= 0.5\nentropy = 0.48\nsamples = 29\nvalue = [3, 0, 26]", fillcolor="#9050e8"] ;
810 -> 811 ;
812 [label="X[14] <= -0.5\nentropy = 0.371\nsamples = 28\nvalue = [2, 0, 26]", fillcolor="#8b48e7"] ;
811 -> 812 ;
813 [label="X[31] <= 0.5\nentropy = 1.0\nsamples = 2\nvalue = [1, 0, 1]", fillcolor="#ffffff"] ;
812 -> 813 ;
814 [label="entropy = 0.0\nsamples = 1\nvalue = [1, 0, 0]", fillcolor="#e58139"] ;
813 -> 814 ;
815 [label="entropy = 0.0\nsamples = 1\nvalue = [0, 0, 1]", fillcolor="#8139e5"] ;
813 -> 815 ;
816 [label="X[32] <= 0.5\nentropy = 0.235\nsamples = 26\nvalue = [1, 0, 25]", fillcolor="#8641e6"] ;
812 -> 816 ;
817 [label="entropy = 0.0\nsamples = 23\nvalue = [0, 0, 23]", fillcolor="#8139e5"] ;
816 -> 817 ;
818 [label="X[20] <= 0.5\nentropy = 0.918\nsamples = 3\nvalue = [1, 0, 2]", fillcolor="#c09cf2"] ;
816 -> 818 ;
819 [label="entropy = 0.0\nsamples = 2\nvalue = [0, 0, 2]", fillcolor="#8139e5"] ;
818 -> 819 ;
820 [label="entropy = 0.0\nsamples = 1\nvalue = [1, 0, 0]", fillcolor="#e58139"] ;
818 -> 820 ;
821 [label="entropy = 0.0\nsamples = 1\nvalue = [1, 0, 0]", fillcolor="#e58139"] ;
811 -> 821 ;
822 [label="X[13] <= -0.5\nentropy = 1.198\nsamples = 14\nvalue = [4, 1, 9]", fillcolor="#c09cf2"] ;
810 -> 822 ;
823 [label="X[14] <= 0.5\nentropy = 1.585\nsamples = 3\nvalue = [1, 1, 1]", fillcolor="#ffffff"] ;
822 -> 823 ;
824 [label="X[25] <= 0.5\nentropy = 1.0\nsamples = 2\nvalue = [0, 1, 1]", fillcolor="#ffffff"] ;
823 -> 824 ;
825 [label="entropy = 0.0\nsamples = 1\nvalue = [0, 0, 1]", fillcolor="#8139e5"] ;
824 -> 825 ;
826 [label="entropy = 0.0\nsamples = 1\nvalue = [0, 1, 0]", fillcolor="#39e581"] ;
824 -> 826 ;
827 [label="entropy = 0.0\nsamples = 1\nvalue = [1, 0, 0]", fillcolor="#e58139"] ;
823 -> 827 ;
828 [label="X[14] <= -0.5\nentropy = 0.845\nsamples = 11\nvalue = [3, 0, 8]", fillcolor="#b083ef"] ;
822 -> 828 ;
829 [label="entropy = 0.0\nsamples = 1\nvalue = [1, 0, 0]", fillcolor="#e58139"] ;
828 -> 829 ;
830 [label="X[32] <= -0.5\nentropy = 0.722\nsamples = 10\nvalue = [2, 0, 8]", fillcolor="#a06aec"] ;
828 -> 830 ;
831 [label="entropy = 0.0\nsamples = 1\nvalue = [1, 0, 0]", fillcolor="#e58139"] ;
830 -> 831 ;
832 [label="X[26] <= -0.5\nentropy = 0.503\nsamples = 9\nvalue = [1, 0, 8]", fillcolor="#9152e8"] ;
830 -> 832 ;
833 [label="entropy = 0.0\nsamples = 1\nvalue = [1, 0, 0]", fillcolor="#e58139"] ;
832 -> 833 ;
834 [label="entropy = 0.0\nsamples = 8\nvalue = [0, 0, 8]", fillcolor="#8139e5"] ;
832 -> 834 ;
835 [label="entropy = 0.0\nsamples = 2\nvalue = [2, 0, 0]", fillcolor="#e58139"] ;
809 -> 835 ;
836 [label="X[18] <= -0.5\nentropy = 0.646\nsamples = 281\nvalue = [12, 22, 247]", fillcolor="#9253e8"] ;
808 -> 836 ;
837 [label="X[2] <= 0.5\nentropy = 0.439\nsamples = 110\nvalue = [0, 10, 100]", fillcolor="#8e4de8"] ;
836 -> 837 ;
838 [label="X[34] <= 0.5\nentropy = 0.305\nsamples = 92\nvalue = [0, 5, 87]", fillcolor="#8844e6"] ;
837 -> 838 ;
839 [label="X[14] <= -0.5\nentropy = 0.26\nsamples = 91\nvalue = [0, 4, 87]", fillcolor="#8742e6"] ;
838 -> 839 ;
840 [label="X[15] <= -0.5\nentropy = 0.619\nsamples = 13\nvalue = [0, 2, 11]", fillcolor="#985dea"] ;
839 -> 840 ;
841 [label="entropy = 0.0\nsamples = 1\nvalue = [0, 1, 0]", fillcolor="#39e581"] ;
840 -> 841 ;
842 [label="X[15] <= 0.5\nentropy = 0.414\nsamples = 12\nvalue = [0, 1, 11]", fillcolor="#8c4be7"] ;
840 -> 842 ;
843 [label="entropy = 0.0\nsamples = 9\nvalue = [0, 0, 9]", fillcolor="#8139e5"] ;
842 -> 843 ;
844 [label="X[31] <= -0.5\nentropy = 0.918\nsamples = 3\nvalue = [0, 1, 2]", fillcolor="#c09cf2"] ;
842 -> 844 ;
845 [label="entropy = 0.0\nsamples = 1\nvalue = [0, 1, 0]", fillcolor="#39e581"] ;
844 -> 845 ;
846 [label="entropy = 0.0\nsamples = 2\nvalue = [0, 0, 2]", fillcolor="#8139e5"] ;
844 -> 846 ;
847 [label="X[31] <= 0.5\nentropy = 0.172\nsamples = 78\nvalue = [0, 2, 76]", fillcolor="#843ee6"] ;
839 -> 847 ;
848 [label="entropy = 0.0\nsamples = 52\nvalue = [0, 0, 52]", fillcolor="#8139e5"] ;
847 -> 848 ;
849 [label="X[26] <= -0.5\nentropy = 0.391\nsamples = 26\nvalue = [0, 2, 24]", fillcolor="#8c49e7"] ;
847 -> 849 ;
850 [label="entropy = 0.0\nsamples = 1\nvalue = [0, 1, 0]", fillcolor="#39e581"] ;
849 -> 850 ;
851 [label="X[33] <= -0.5\nentropy = 0.242\nsamples = 25\nvalue = [0, 1, 24]", fillcolor="#8641e6"] ;
849 -> 851 ;
852 [label="X[19] <= 0.5\nentropy = 0.811\nsamples = 4\nvalue = [0, 1, 3]", fillcolor="#ab7bee"] ;
851 -> 852 ;
853 [label="entropy = 0.0\nsamples = 3\nvalue = [0, 0, 3]", fillcolor="#8139e5"] ;
852 -> 853 ;
854 [label="entropy = 0.0\nsamples = 1\nvalue = [0, 1, 0]", fillcolor="#39e581"] ;
852 -> 854 ;
855 [label="entropy = 0.0\nsamples = 21\nvalue = [0, 0, 21]", fillcolor="#8139e5"] ;
851 -> 855 ;
856 [label="entropy = 0.0\nsamples = 1\nvalue = [0, 1, 0]", fillcolor="#39e581"] ;
838 -> 856 ;
857 [label="X[24] <= -0.5\nentropy = 0.852\nsamples = 18\nvalue = [0, 5, 13]", fillcolor="#b185ef"] ;
837 -> 857 ;
858 [label="entropy = 0.0\nsamples = 5\nvalue = [0, 0, 5]", fillcolor="#8139e5"] ;
857 -> 858 ;
859 [label="X[3] <= 0.5\nentropy = 0.961\nsamples = 13\nvalue = [0, 5, 8]", fillcolor="#d0b5f5"] ;
857 -> 859 ;
860 [label="X[4] <= 0.5\nentropy = 0.845\nsamples = 11\nvalue = [0, 3, 8]", fillcolor="#b083ef"] ;
859 -> 860 ;
861 [label="X[14] <= -0.5\nentropy = 0.722\nsamples = 10\nvalue = [0, 2, 8]", fillcolor="#a06aec"] ;
860 -> 861 ;
862 [label="entropy = 0.0\nsamples = 1\nvalue = [0, 1, 0]", fillcolor="#39e581"] ;
861 -> 862 ;
863 [label="X[14] <= 0.5\nentropy = 0.503\nsamples = 9\nvalue = [0, 1, 8]", fillcolor="#9152e8"] ;
861 -> 863 ;
864 [label="entropy = 0.0\nsamples = 8\nvalue = [0, 0, 8]", fillcolor="#8139e5"] ;
863 -> 864 ;
865 [label="entropy = 0.0\nsamples = 1\nvalue = [0, 1, 0]", fillcolor="#39e581"] ;
863 -> 865 ;
866 [label="entropy = 0.0\nsamples = 1\nvalue = [0, 1, 0]", fillcolor="#39e581"] ;
860 -> 866 ;
867 [label="entropy = 0.0\nsamples = 2\nvalue = [0, 2, 0]", fillcolor="#39e581"] ;
859 -> 867 ;
868 [label="X[13] <= -0.5\nentropy = 0.726\nsamples = 171\nvalue = [12, 12, 147]", fillcolor="#9457e9"] ;
836 -> 868 ;
869 [label="X[3] <= 0.5\nentropy = 1.098\nsamples = 68\nvalue = [9, 9, 50]", fillcolor="#a775ed"] ;
868 -> 869 ;
870 [label="X[26] <= -0.5\nentropy = 1.009\nsamples = 65\nvalue = [7, 8, 50]", fillcolor="#a26dec"] ;
869 -> 870 ;
871 [label="X[27] <= 0.5\nentropy = 1.0\nsamples = 2\nvalue = [1, 1, 0]", fillcolor="#ffffff"] ;
870 -> 871 ;
872 [label="entropy = 0.0\nsamples = 1\nvalue = [1, 0, 0]", fillcolor="#e58139"] ;
871 -> 872 ;
873 [label="entropy = 0.0\nsamples = 1\nvalue = [0, 1, 0]", fillcolor="#39e581"] ;
871 -> 873 ;
874 [label="X[32] <= -0.5\nentropy = 0.94\nsamples = 63\nvalue = [6, 7, 50]", fillcolor="#9e67eb"] ;
870 -> 874 ;
875 [label="X[24] <= -0.5\nentropy = 1.239\nsamples = 13\nvalue = [4, 1, 8]", fillcolor="#c7a7f3"] ;
874 -> 875 ;
876 [label="X[25] <= 0.5\nentropy = 0.918\nsamples = 3\nvalue = [2, 1, 0]", fillcolor="#f2c09c"] ;
875 -> 876 ;
877 [label="entropy = 0.0\nsamples = 2\nvalue = [2, 0, 0]", fillcolor="#e58139"] ;
876 -> 877 ;
878 [label="entropy = 0.0\nsamples = 1\nvalue = [0, 1, 0]", fillcolor="#39e581"] ;
876 -> 878 ;
879 [label="X[2] <= 0.5\nentropy = 0.722\nsamples = 10\nvalue = [2, 0, 8]", fillcolor="#a06aec"] ;
875 -> 879 ;
880 [label="X[14] <= -0.5\nentropy = 0.503\nsamples = 9\nvalue = [1, 0, 8]", fillcolor="#9152e8"] ;
879 -> 880 ;
881 [label="X[15] <= 0.5\nentropy = 1.0\nsamples = 2\nvalue = [1, 0, 1]", fillcolor="#ffffff"] ;
880 -> 881 ;
882 [label="entropy = 0.0\nsamples = 1\nvalue = [1, 0, 0]", fillcolor="#e58139"] ;
881 -> 882 ;
883 [label="entropy = 0.0\nsamples = 1\nvalue = [0, 0, 1]", fillcolor="#8139e5"] ;
881 -> 883 ;
884 [label="entropy = 0.0\nsamples = 7\nvalue = [0, 0, 7]", fillcolor="#8139e5"] ;
880 -> 884 ;
885 [label="entropy = 0.0\nsamples = 1\nvalue = [1, 0, 0]", fillcolor="#e58139"] ;
879 -> 885 ;
886 [label="X[24] <= -0.5\nentropy = 0.764\nsamples = 50\nvalue = [2, 6, 42]", fillcolor="#985dea"] ;
874 -> 886 ;
887 [label="X[25] <= -0.5\nentropy = 0.391\nsamples = 26\nvalue = [2, 0, 24]", fillcolor="#8c49e7"] ;
886 -> 887 ;
888 [label="X[14] <= 0.5\nentropy = 0.971\nsamples = 5\nvalue = [2, 0, 3]", fillcolor="#d5bdf6"] ;
887 -> 888 ;
889 [label="entropy = 0.0\nsamples = 2\nvalue = [0, 0, 2]", fillcolor="#8139e5"] ;
888 -> 889 ;
890 [label="X[31] <= 0.5\nentropy = 0.918\nsamples = 3\nvalue = [2, 0, 1]", fillcolor="#f2c09c"] ;
888 -> 890 ;
891 [label="entropy = 0.0\nsamples = 2\nvalue = [2, 0, 0]", fillcolor="#e58139"] ;
890 -> 891 ;
892 [label="entropy = 0.0\nsamples = 1\nvalue = [0, 0, 1]", fillcolor="#8139e5"] ;
890 -> 892 ;
893 [label="entropy = 0.0\nsamples = 21\nvalue = [0, 0, 21]", fillcolor="#8139e5"] ;
887 -> 893 ;
894 [label="X[15] <= 0.5\nentropy = 0.811\nsamples = 24\nvalue = [0, 6, 18]", fillcolor="#ab7bee"] ;
886 -> 894 ;
895 [label="X[33] <= 0.5\nentropy = 0.918\nsamples = 18\nvalue = [0, 6, 12]", fillcolor="#c09cf2"] ;
894 -> 895 ;
896 [label="X[16] <= -0.5\nentropy = 0.971\nsamples = 15\nvalue = [0, 6, 9]", fillcolor="#d5bdf6"] ;
895 -> 896 ;
897 [label="entropy = 0.0\nsamples = 2\nvalue = [0, 0, 2]", fillcolor="#8139e5"] ;
896 -> 897 ;
898 [label="X[34] <= 0.5\nentropy = 0.996\nsamples = 13\nvalue = [0, 6, 7]", fillcolor="#ede3fb"] ;
896 -> 898 ;
899 [label="X[1] <= -0.5\nentropy = 0.98\nsamples = 12\nvalue = [0, 5, 7]", fillcolor="#dbc6f8"] ;
898 -> 899 ;
900 [label="X[15] <= -0.5\nentropy = 1.0\nsamples = 10\nvalue = [0, 5, 5]", fillcolor="#ffffff"] ;
899 -> 900 ;
901 [label="entropy = 0.0\nsamples = 2\nvalue = [0, 2, 0]", fillcolor="#39e581"] ;
900 -> 901 ;
902 [label="X[4] <= 0.5\nentropy = 0.954\nsamples = 8\nvalue = [0, 3, 5]", fillcolor="#cdb0f5"] ;
900 -> 902 ;
903 [label="X[33] <= -0.5\nentropy = 0.863\nsamples = 7\nvalue = [0, 2, 5]", fillcolor="#b388ef"] ;
902 -> 903 ;
904 [label="entropy = 0.0\nsamples = 1\nvalue = [0, 1, 0]", fillcolor="#39e581"] ;
903 -> 904 ;
905 [label="X[31] <= -0.5\nentropy = 0.65\nsamples = 6\nvalue = [0, 1, 5]", fillcolor="#9a61ea"] ;
903 -> 905 ;
906 [label="X[32] <= 0.5\nentropy = 0.918\nsamples = 3\nvalue = [0, 1, 2]", fillcolor="#c09cf2"] ;
905 -> 906 ;
907 [label="entropy = 0.0\nsamples = 1\nvalue = [0, 1, 0]", fillcolor="#39e581"] ;
906 -> 907 ;
908 [label="entropy = 0.0\nsamples = 2\nvalue = [0, 0, 2]", fillcolor="#8139e5"] ;
906 -> 908 ;
909 [label="entropy = 0.0\nsamples = 3\nvalue = [0, 0, 3]", fillcolor="#8139e5"] ;
905 -> 909 ;
910 [label="entropy = 0.0\nsamples = 1\nvalue = [0, 1, 0]", fillcolor="#39e581"] ;
902 -> 910 ;
911 [label="entropy = 0.0\nsamples = 2\nvalue = [0, 0, 2]", fillcolor="#8139e5"] ;
899 -> 911 ;
912 [label="entropy = 0.0\nsamples = 1\nvalue = [0, 1, 0]", fillcolor="#39e581"] ;
898 -> 912 ;
913 [label="entropy = 0.0\nsamples = 3\nvalue = [0, 0, 3]", fillcolor="#8139e5"] ;
895 -> 913 ;
914 [label="entropy = 0.0\nsamples = 6\nvalue = [0, 0, 6]", fillcolor="#8139e5"] ;
894 -> 914 ;
915 [label="X[4] <= -0.5\nentropy = 0.918\nsamples = 3\nvalue = [2, 1, 0]", fillcolor="#f2c09c"] ;
869 -> 915 ;
916 [label="entropy = 0.0\nsamples = 1\nvalue = [0, 1, 0]", fillcolor="#39e581"] ;
915 -> 916 ;
917 [label="entropy = 0.0\nsamples = 2\nvalue = [2, 0, 0]", fillcolor="#e58139"] ;
915 -> 917 ;
918 [label="X[28] <= 0.5\nentropy = 0.379\nsamples = 103\nvalue = [3, 3, 97]", fillcolor="#8945e7"] ;
868 -> 918 ;
919 [label="X[1] <= -0.5\nentropy = 0.28\nsamples = 101\nvalue = [2, 2, 97]", fillcolor="#8641e6"] ;
918 -> 919 ;
920 [label="entropy = 0.0\nsamples = 63\nvalue = [0, 0, 63]", fillcolor="#8139e5"] ;
919 -> 920 ;
921 [label="X[14] <= -0.5\nentropy = 0.591\nsamples = 38\nvalue = [2, 2, 34]", fillcolor="#8f4fe8"] ;
919 -> 921 ;
922 [label="X[31] <= -0.5\nentropy = 0.722\nsamples = 10\nvalue = [2, 0, 8]", fillcolor="#a06aec"] ;
921 -> 922 ;
923 [label="entropy = 0.0\nsamples = 5\nvalue = [0, 0, 5]", fillcolor="#8139e5"] ;
922 -> 923 ;
924 [label="X[31] <= 0.5\nentropy = 0.971\nsamples = 5\nvalue = [2, 0, 3]", fillcolor="#d5bdf6"] ;
922 -> 924 ;
925 [label="entropy = 0.0\nsamples = 2\nvalue = [2, 0, 0]", fillcolor="#e58139"] ;
924 -> 925 ;
926 [label="entropy = 0.0\nsamples = 3\nvalue = [0, 0, 3]", fillcolor="#8139e5"] ;
924 -> 926 ;
927 [label="X[34] <= 0.5\nentropy = 0.371\nsamples = 28\nvalue = [0, 2, 26]", fillcolor="#8b48e7"] ;
921 -> 927 ;
928 [label="X[31] <= 0.5\nentropy = 0.229\nsamples = 27\nvalue = [0, 1, 26]", fillcolor="#8641e6"] ;
927 -> 928 ;
929 [label="entropy = 0.0\nsamples = 23\nvalue = [0, 0, 23]", fillcolor="#8139e5"] ;
928 -> 929 ;
930 [label="X[26] <= -0.5\nentropy = 0.811\nsamples = 4\nvalue = [0, 1, 3]", fillcolor="#ab7bee"] ;
928 -> 930 ;
931 [label="entropy = 0.0\nsamples = 1\nvalue = [0, 1, 0]", fillcolor="#39e581"] ;
930 -> 931 ;
932 [label="entropy = 0.0\nsamples = 3\nvalue = [0, 0, 3]", fillcolor="#8139e5"] ;
930 -> 932 ;
933 [label="entropy = 0.0\nsamples = 1\nvalue = [0, 1, 0]", fillcolor="#39e581"] ;
927 -> 933 ;
934 [label="X[26] <= 0.0\nentropy = 1.0\nsamples = 2\nvalue = [1, 1, 0]", fillcolor="#ffffff"] ;
918 -> 934 ;
935 [label="entropy = 0.0\nsamples = 1\nvalue = [0, 1, 0]", fillcolor="#39e581"] ;
934 -> 935 ;
936 [label="entropy = 0.0\nsamples = 1\nvalue = [1, 0, 0]", fillcolor="#e58139"] ;
934 -> 936 ;
937 [label="X[15] <= 0.0\nentropy = 1.577\nsamples = 14\nvalue = [4, 5, 5]", fillcolor="#ffffff"] ;
807 -> 937 ;
938 [label="X[24] <= -0.5\nentropy = 1.352\nsamples = 9\nvalue = [3, 5, 1]", fillcolor="#bdf6d5"] ;
937 -> 938 ;
939 [label="entropy = 0.0\nsamples = 2\nvalue = [2, 0, 0]", fillcolor="#e58139"] ;
938 -> 939 ;
940 [label="X[31] <= 0.5\nentropy = 1.149\nsamples = 7\nvalue = [1, 5, 1]", fillcolor="#7beeab"] ;
938 -> 940 ;
941 [label="X[17] <= -0.5\nentropy = 0.65\nsamples = 6\nvalue = [0, 5, 1]", fillcolor="#61ea9a"] ;
940 -> 941 ;
942 [label="X[13] <= 0.0\nentropy = 1.0\nsamples = 2\nvalue = [0, 1, 1]", fillcolor="#ffffff"] ;
941 -> 942 ;
943 [label="entropy = 0.0\nsamples = 1\nvalue = [0, 1, 0]", fillcolor="#39e581"] ;
942 -> 943 ;
944 [label="entropy = 0.0\nsamples = 1\nvalue = [0, 0, 1]", fillcolor="#8139e5"] ;
942 -> 944 ;
945 [label="entropy = 0.0\nsamples = 4\nvalue = [0, 4, 0]", fillcolor="#39e581"] ;
941 -> 945 ;
946 [label="entropy = 0.0\nsamples = 1\nvalue = [1, 0, 0]", fillcolor="#e58139"] ;
940 -> 946 ;
947 [label="X[18] <= -0.5\nentropy = 0.722\nsamples = 5\nvalue = [1, 0, 4]", fillcolor="#a06aec"] ;
937 -> 947 ;
948 [label="entropy = 0.0\nsamples = 1\nvalue = [1, 0, 0]", fillcolor="#e58139"] ;
947 -> 948 ;
949 [label="entropy = 0.0\nsamples = 4\nvalue = [0, 0, 4]", fillcolor="#8139e5"] ;
947 -> 949 ;
950 [label="X[19] <= -0.5\nentropy = 1.463\nsamples = 34\nvalue = [7, 9, 18]", fillcolor="#d2b8f6"] ;
806 -> 950 ;
951 [label="X[2] <= 0.5\nentropy = 0.592\nsamples = 7\nvalue = [1, 0, 6]", fillcolor="#965ae9"] ;
950 -> 951 ;
952 [label="entropy = 0.0\nsamples = 6\nvalue = [0, 0, 6]", fillcolor="#8139e5"] ;
951 -> 952 ;
953 [label="entropy = 0.0\nsamples = 1\nvalue = [1, 0, 0]", fillcolor="#e58139"] ;
951 -> 953 ;
