digraph Tree {
node [shape=box, style="filled", color="black", fontname="helvetica"] ;
edge [fontname="helvetica"] ;
0 [label="X[0] <= -0.5\nentropy = 1.218\nsamples = 27022\nvalue = [6654, 2579, 17789]", fillcolor="#ba93f1"] ;
1 [label="X[6] <= 0.5\nentropy = 1.02\nsamples = 8096\nvalue = [1120, 794, 6182]", fillcolor="#a46fec"] ;
0 -> 1 [labeldistance=2.5, labelangle=45, headlabel="True"] ;
2 [label="X[36] <= 0.5\nentropy = 0.809\nsamples = 4579\nvalue = [424, 331, 3824]", fillcolor="#985dea"] ;
1 -> 2 ;
3 [label="X[1] <= 0.5\nentropy = 0.644\nsamples = 3208\nvalue = [182, 199, 2827]", fillcolor="#9152e8"] ;
2 -> 3 ;
4 [label="X[20] <= -0.5\nentropy = 0.404\nsamples = 1978\nvalue = [50, 76, 1852]", fillcolor="#8946e7"] ;
3 -> 4 ;
5 [label="X[18] <= 0.0\nentropy = 1.061\nsamples = 166\nvalue = [14, 29, 123]", fillcolor="#a977ed"] ;
4 -> 5 ;
6 [label="X[24] <= 0.5\nentropy = 1.436\nsamples = 37\nvalue = [5, 16, 16]", fillcolor="#ffffff"] ;
5 -> 6 ;
7 [label="X[21] <= -0.5\nentropy = 1.26\nsamples = 25\nvalue = [2, 8, 15]", fillcolor="#cbadf4"] ;
6 -> 7 ;
8 [label="entropy = 0.0\nsamples = 1\nvalue = [1, 0, 0]", fillcolor="#e58139"] ;
7 -> 8 ;
9 [label="X[30] <= -0.5\nentropy = 1.143\nsamples = 24\nvalue = [1, 8, 15]", fillcolor="#c8a8f4"] ;
7 -> 9 ;
10 [label="entropy = 0.0\nsamples = 1\nvalue = [1, 0, 0]", fillcolor="#e58139"] ;
9 -> 10 ;
11 [label="X[22] <= -0.5\nentropy = 0.932\nsamples = 23\nvalue = [0, 8, 15]", fillcolor="#c4a3f3"] ;
9 -> 11 ;
12 [label="entropy = 0.0\nsamples = 2\nvalue = [0, 2, 0]", fillcolor="#39e581"] ;
11 -> 12 ;
13 [label="X[25] <= 0.5\nentropy = 0.863\nsamples = 21\nvalue = [0, 6, 15]", fillcolor="#b388ef"] ;
11 -> 13 ;
14 [label="X[13] <= -0.5\nentropy = 0.742\nsamples = 19\nvalue = [0, 4, 15]", fillcolor="#a36eec"] ;
13 -> 14 ;
15 [label="X[22] <= 0.5\nentropy = 0.918\nsamples = 3\nvalue = [0, 2, 1]", fillcolor="#9cf2c0"] ;
14 -> 15 ;
16 [label="entropy = 0.0\nsamples = 2\nvalue = [0, 2, 0]", fillcolor="#39e581"] ;
15 -> 16 ;
17 [label="entropy = 0.0\nsamples = 1\nvalue = [0, 0, 1]", fillcolor="#8139e5"] ;
15 -> 17 ;
18 [label="X[19] <= 0.0\nentropy = 0.544\nsamples = 16\nvalue = [0, 2, 14]", fillcolor="#9355e9"] ;
14 -> 18 ;
19 [label="entropy = 0.0\nsamples = 1\nvalue = [0, 1, 0]", fillcolor="#39e581"] ;
18 -> 19 ;
20 [label="X[2] <= 0.5\nentropy = 0.353\nsamples = 15\nvalue = [0, 1, 14]", fillcolor="#8a47e7"] ;
18 -> 20 ;
21 [label="entropy = 0.0\nsamples = 14\nvalue = [0, 0, 14]", fillcolor="#8139e5"] ;
20 -> 21 ;
22 [label="entropy = 0.0\nsamples = 1\nvalue = [0, 1, 0]", fillcolor="#39e581"] ;
20 -> 22 ;
23 [label="entropy = 0.0\nsamples = 2\nvalue = [0, 2, 0]", fillcolor="#39e581"] ;
13 -> 23 ;
24 [label="X[6] <= -0.5\nentropy = 1.189\nsamples = 12\nvalue = [3, 8, 1]", fillcolor="#91f1b9"] ;
6 -> 24 ;
25 [label="entropy = 0.0\nsamples = 1\nvalue = [0, 0, 1]", fillcolor="#8139e5"] ;
24 -> 25 ;
26 [label="X[2] <= 0.5\nentropy = 0.845\nsamples = 11\nvalue = [3, 8, 0]", fillcolor="#83efb0"] ;
24 -> 26 ;
27 [label="X[25] <= -0.5\nentropy = 0.722\nsamples = 10\nvalue = [2, 8, 0]", fillcolor="#6aeca0"] ;
26 -> 27 ;
28 [label="entropy = 0.0\nsamples = 1\nvalue = [1, 0, 0]", fillcolor="#e58139"] ;
27 -> 28 ;
29 [label="X[14] <= 0.5\nentropy = 0.503\nsamples = 9\nvalue = [1, 8, 0]", fillcolor="#52e891"] ;
27 -> 29 ;
30 [label="entropy = 0.0\nsamples = 8\nvalue = [0, 8, 0]", fillcolor="#39e581"] ;
29 -> 30 ;
31 [label="entropy = 0.0\nsamples = 1\nvalue = [1, 0, 0]", fillcolor="#e58139"] ;
29 -> 31 ;
32 [label="entropy = 0.0\nsamples = 1\nvalue = [1, 0, 0]", fillcolor="#e58139"] ;
26 -> 32 ;
33 [label="X[36] <= -0.5\nentropy = 0.825\nsamples = 129\nvalue = [9, 13, 107]", fillcolor="#995fea"] ;
5 -> 33 ;
34 [label="X[13] <= 0.5\nentropy = 0.826\nsamples = 27\nvalue = [0, 7, 20]", fillcolor="#ad7eee"] ;
33 -> 34 ;
35 [label="X[21] <= 0.5\nentropy = 0.918\nsamples = 21\nvalue = [0, 7, 14]", fillcolor="#c09cf2"] ;
34 -> 35 ;
36 [label="X[12] <= -0.5\nentropy = 0.996\nsamples = 13\nvalue = [0, 6, 7]", fillcolor="#ede3fb"] ;
35 -> 36 ;
37 [label="X[24] <= 0.5\nentropy = 0.811\nsamples = 4\nvalue = [0, 3, 1]", fillcolor="#7beeab"] ;
36 -> 37 ;
38 [label="entropy = 0.0\nsamples = 1\nvalue = [0, 0, 1]", fillcolor="#8139e5"] ;
37 -> 38 ;
39 [label="entropy = 0.0\nsamples = 3\nvalue = [0, 3, 0]", fillcolor="#39e581"] ;
37 -> 39 ;
40 [label="X[37] <= 0.5\nentropy = 0.918\nsamples = 9\nvalue = [0, 3, 6]", fillcolor="#c09cf2"] ;
36 -> 40 ;
41 [label="entropy = 0.0\nsamples = 4\nvalue = [0, 0, 4]", fillcolor="#8139e5"] ;
40 -> 41 ;
42 [label="X[6] <= -0.5\nentropy = 0.971\nsamples = 5\nvalue = [0, 3, 2]", fillcolor="#bdf6d5"] ;
40 -> 42 ;
43 [label="entropy = 0.0\nsamples = 3\nvalue = [0, 3, 0]", fillcolor="#39e581"] ;
42 -> 43 ;
44 [label="entropy = 0.0\nsamples = 2\nvalue = [0, 0, 2]", fillcolor="#8139e5"] ;
42 -> 44 ;
45 [label="X[22] <= -0.5\nentropy = 0.544\nsamples = 8\nvalue = [0, 1, 7]", fillcolor="#9355e9"] ;
35 -> 45 ;
46 [label="entropy = 0.0\nsamples = 1\nvalue = [0, 1, 0]", fillcolor="#39e581"] ;
45 -> 46 ;
47 [label="entropy = 0.0\nsamples = 7\nvalue = [0, 0, 7]", fillcolor="#8139e5"] ;
45 -> 47 ;
48 [label="entropy = 0.0\nsamples = 6\nvalue = [0, 0, 6]", fillcolor="#8139e5"] ;
34 -> 48 ;
49 [label="X[21] <= 0.5\nentropy = 0.745\nsamples = 102\nvalue = [9, 6, 87]", fillcolor="#9559e9"] ;
33 -> 49 ;
50 [label="X[13] <= 0.5\nentropy = 0.9\nsamples = 65\nvalue = [9, 4, 52]", fillcolor="#9e67eb"] ;
49 -> 50 ;
51 [label="X[12] <= 0.5\nentropy = 0.599\nsamples = 51\nvalue = [5, 1, 45]", fillcolor="#9153e8"] ;
50 -> 51 ;
52 [label="X[22] <= 0.5\nentropy = 0.343\nsamples = 39\nvalue = [1, 1, 37]", fillcolor="#8843e6"] ;
51 -> 52 ;
53 [label="X[7] <= 0.5\nentropy = 0.187\nsamples = 35\nvalue = [0, 1, 34]", fillcolor="#853fe6"] ;
52 -> 53 ;
54 [label="entropy = 0.0\nsamples = 27\nvalue = [0, 0, 27]", fillcolor="#8139e5"] ;
53 -> 54 ;
55 [label="X[2] <= 0.5\nentropy = 0.544\nsamples = 8\nvalue = [0, 1, 7]", fillcolor="#9355e9"] ;
53 -> 55 ;
56 [label="entropy = 0.0\nsamples = 7\nvalue = [0, 0, 7]", fillcolor="#8139e5"] ;
55 -> 56 ;
57 [label="entropy = 0.0\nsamples = 1\nvalue = [0, 1, 0]", fillcolor="#39e581"] ;
55 -> 57 ;
58 [label="X[12] <= -0.5\nentropy = 0.811\nsamples = 4\nvalue = [1, 0, 3]", fillcolor="#ab7bee"] ;
52 -> 58 ;
59 [label="entropy = 0.0\nsamples = 1\nvalue = [1, 0, 0]", fillcolor="#e58139"] ;
58 -> 59 ;
60 [label="entropy = 0.0\nsamples = 3\nvalue = [0, 0, 3]", fillcolor="#8139e5"] ;
58 -> 60 ;
61 [label="X[24] <= -0.5\nentropy = 0.918\nsamples = 12\nvalue = [4, 0, 8]", fillcolor="#c09cf2"] ;
51 -> 61 ;
62 [label="entropy = 0.0\nsamples = 2\nvalue = [2, 0, 0]", fillcolor="#e58139"] ;
61 -> 62 ;
63 [label="X[6] <= -0.5\nentropy = 0.722\nsamples = 10\nvalue = [2, 0, 8]", fillcolor="#a06aec"] ;
61 -> 63 ;
64 [label="X[13] <= -0.5\nentropy = 1.0\nsamples = 4\nvalue = [2, 0, 2]", fillcolor="#ffffff"] ;
63 -> 64 ;
65 [label="entropy = 0.0\nsamples = 1\nvalue = [1, 0, 0]", fillcolor="#e58139"] ;
64 -> 65 ;
66 [label="X[8] <= 0.5\nentropy = 0.918\nsamples = 3\nvalue = [1, 0, 2]", fillcolor="#c09cf2"] ;
64 -> 66 ;
67 [label="entropy = 0.0\nsamples = 2\nvalue = [0, 0, 2]", fillcolor="#8139e5"] ;
66 -> 67 ;
68 [label="entropy = 0.0\nsamples = 1\nvalue = [1, 0, 0]", fillcolor="#e58139"] ;
66 -> 68 ;
69 [label="entropy = 0.0\nsamples = 6\nvalue = [0, 0, 6]", fillcolor="#8139e5"] ;
63 -> 69 ;
70 [label="X[21] <= -0.5\nentropy = 1.493\nsamples = 14\nvalue = [4, 3, 7]", fillcolor="#d9c4f7"] ;
50 -> 70 ;
71 [label="X[12] <= 0.0\nentropy = 0.811\nsamples = 4\nvalue = [3, 0, 1]", fillcolor="#eeab7b"] ;
70 -> 71 ;
72 [label="entropy = 0.0\nsamples = 3\nvalue = [3, 0, 0]", fillcolor="#e58139"] ;
71 -> 72 ;
73 [label="entropy = 0.0\nsamples = 1\nvalue = [0, 0, 1]", fillcolor="#8139e5"] ;
71 -> 73 ;
74 [label="X[25] <= 0.5\nentropy = 1.295\nsamples = 10\nvalue = [1, 3, 6]", fillcolor="#c9aaf4"] ;
70 -> 74 ;
75 [label="X[14] <= -0.5\nentropy = 0.918\nsamples = 9\nvalue = [0, 3, 6]", fillcolor="#c09cf2"] ;
74 -> 75 ;
76 [label="entropy = 0.0\nsamples = 3\nvalue = [0, 0, 3]", fillcolor="#8139e5"] ;
75 -> 76 ;
77 [label="X[30] <= 0.5\nentropy = 1.0\nsamples = 6\nvalue = [0, 3, 3]", fillcolor="#ffffff"] ;
75 -> 77 ;
78 [label="X[31] <= 0.5\nentropy = 0.971\nsamples = 5\nvalue = [0, 3, 2]", fillcolor="#bdf6d5"] ;
77 -> 78 ;
79 [label="X[30] <= -0.5\nentropy = 0.811\nsamples = 4\nvalue = [0, 3, 1]", fillcolor="#7beeab"] ;
78 -> 79 ;
80 [label="entropy = 0.0\nsamples = 2\nvalue = [0, 2, 0]", fillcolor="#39e581"] ;
79 -> 80 ;
81 [label="X[1] <= -0.5\nentropy = 1.0\nsamples = 2\nvalue = [0, 1, 1]", fillcolor="#ffffff"] ;
79 -> 81 ;
82 [label="entropy = 0.0\nsamples = 1\nvalue = [0, 1, 0]", fillcolor="#39e581"] ;
81 -> 82 ;
83 [label="entropy = 0.0\nsamples = 1\nvalue = [0, 0, 1]", fillcolor="#8139e5"] ;
81 -> 83 ;
84 [label="entropy = 0.0\nsamples = 1\nvalue = [0, 0, 1]", fillcolor="#8139e5"] ;
78 -> 84 ;
85 [label="entropy = 0.0\nsamples = 1\nvalue = [0, 0, 1]", fillcolor="#8139e5"] ;
77 -> 85 ;
86 [label="entropy = 0.0\nsamples = 1\nvalue = [1, 0, 0]", fillcolor="#e58139"] ;
74 -> 86 ;
87 [label="X[6] <= -0.5\nentropy = 0.303\nsamples = 37\nvalue = [0, 2, 35]", fillcolor="#8844e6"] ;
49 -> 87 ;
88 [label="X[13] <= -0.5\nentropy = 0.544\nsamples = 16\nvalue = [0, 2, 14]", fillcolor="#9355e9"] ;
87 -> 88 ;
89 [label="entropy = 0.0\nsamples = 1\nvalue = [0, 1, 0]", fillcolor="#39e581"] ;
88 -> 89 ;
90 [label="X[22] <= -0.5\nentropy = 0.353\nsamples = 15\nvalue = [0, 1, 14]", fillcolor="#8a47e7"] ;
88 -> 90 ;
91 [label="X[12] <= 0.5\nentropy = 1.0\nsamples = 2\nvalue = [0, 1, 1]", fillcolor="#ffffff"] ;
90 -> 91 ;
92 [label="entropy = 0.0\nsamples = 1\nvalue = [0, 1, 0]", fillcolor="#39e581"] ;
91 -> 92 ;
93 [label="entropy = 0.0\nsamples = 1\nvalue = [0, 0, 1]", fillcolor="#8139e5"] ;
91 -> 93 ;
94 [label="entropy = 0.0\nsamples = 13\nvalue = [0, 0, 13]", fillcolor="#8139e5"] ;
90 -> 94 ;
95 [label="entropy = 0.0\nsamples = 21\nvalue = [0, 0, 21]", fillcolor="#8139e5"] ;
87 -> 95 ;
96 [label="X[6] <= -0.5\nentropy = 0.314\nsamples = 1812\nvalue = [36, 47, 1729]", fillcolor="#8742e6"] ;
4 -> 96 ;
97 [label="X[14] <= -0.5\nentropy = 0.086\nsamples = 731\nvalue = [2, 5, 724]", fillcolor="#823be5"] ;
96 -> 97 ;
98 [label="X[7] <= -0.5\nentropy = 0.492\nsamples = 57\nvalue = [1, 4, 52]", fillcolor="#8d4ce7"] ;
97 -> 98 ;
99 [label="X[8] <= 0.5\nentropy = 1.459\nsamples = 6\nvalue = [1, 2, 3]", fillcolor="#e0cef8"] ;
98 -> 99 ;
100 [label="X[16] <= 0.5\nentropy = 0.811\nsamples = 4\nvalue = [1, 0, 3]", fillcolor="#ab7bee"] ;
99 -> 100 ;
101 [label="entropy = 0.0\nsamples = 3\nvalue = [0, 0, 3]", fillcolor="#8139e5"] ;
100 -> 101 ;
102 [label="entropy = 0.0\nsamples = 1\nvalue = [1, 0, 0]", fillcolor="#e58139"] ;
100 -> 102 ;
103 [label="entropy = 0.0\nsamples = 2\nvalue = [0, 2, 0]", fillcolor="#39e581"] ;
99 -> 103 ;
104 [label="X[17] <= 0.5\nentropy = 0.239\nsamples = 51\nvalue = [0, 2, 49]", fillcolor="#8641e6"] ;
98 -> 104 ;
105 [label="X[15] <= -0.5\nentropy = 0.141\nsamples = 50\nvalue = [0, 1, 49]", fillcolor="#843de6"] ;
104 -> 105 ;
106 [label="X[18] <= 0.5\nentropy = 0.722\nsamples = 5\nvalue = [0, 1, 4]", fillcolor="#a06aec"] ;
105 -> 106 ;
107 [label="entropy = 0.0\nsamples = 3\nvalue = [0, 0, 3]", fillcolor="#8139e5"] ;
106 -> 107 ;
108 [label="X[16] <= 0.5\nentropy = 1.0\nsamples = 2\nvalue = [0, 1, 1]", fillcolor="#ffffff"] ;
106 -> 108 ;
109 [label="entropy = 0.0\nsamples = 1\nvalue = [0, 0, 1]", fillcolor="#8139e5"] ;
108 -> 109 ;
110 [label="entropy = 0.0\nsamples = 1\nvalue = [0, 1, 0]", fillcolor="#39e581"] ;
108 -> 110 ;
111 [label="entropy = 0.0\nsamples = 45\nvalue = [0, 0, 45]", fillcolor="#8139e5"] ;
105 -> 111 ;
112 [label="entropy = 0.0\nsamples = 1\nvalue = [0, 1, 0]", fillcolor="#39e581"] ;
104 -> 112 ;
113 [label="X[13] <= -0.5\nentropy = 0.032\nsamples = 674\nvalue = [1, 1, 672]", fillcolor="#813ae5"] ;
97 -> 113 ;
114 [label="X[9] <= 0.5\nentropy = 0.179\nsamples = 88\nvalue = [1, 1, 86]", fillcolor="#843ee6"] ;
113 -> 114 ;
115 [label="X[30] <= -0.5\nentropy = 0.091\nsamples = 86\nvalue = [0, 1, 85]", fillcolor="#823be5"] ;
114 -> 115 ;
116 [label="X[24] <= 0.5\nentropy = 0.391\nsamples = 13\nvalue = [0, 1, 12]", fillcolor="#8c49e7"] ;
115 -> 116 ;
117 [label="entropy = 0.0\nsamples = 9\nvalue = [0, 0, 9]", fillcolor="#8139e5"] ;
116 -> 117 ;
118 [label="X[18] <= 0.5\nentropy = 0.811\nsamples = 4\nvalue = [0, 1, 3]", fillcolor="#ab7bee"] ;
116 -> 118 ;
119 [label="entropy = 0.0\nsamples = 2\nvalue = [0, 0, 2]", fillcolor="#8139e5"] ;
118 -> 119 ;
120 [label="X[19] <= 0.5\nentropy = 1.0\nsamples = 2\nvalue = [0, 1, 1]", fillcolor="#ffffff"] ;
118 -> 120 ;
121 [label="entropy = 0.0\nsamples = 1\nvalue = [0, 1, 0]", fillcolor="#39e581"] ;
120 -> 121 ;
122 [label="entropy = 0.0\nsamples = 1\nvalue = [0, 0, 1]", fillcolor="#8139e5"] ;
120 -> 122 ;
123 [label="entropy = 0.0\nsamples = 73\nvalue = [0, 0, 73]", fillcolor="#8139e5"] ;
115 -> 123 ;
124 [label="X[7] <= 0.0\nentropy = 1.0\nsamples = 2\nvalue = [1, 0, 1]", fillcolor="#ffffff"] ;
114 -> 124 ;
125 [label="entropy = 0.0\nsamples = 1\nvalue = [1, 0, 0]", fillcolor="#e58139"] ;
124 -> 125 ;
126 [label="entropy = 0.0\nsamples = 1\nvalue = [0, 0, 1]", fillcolor="#8139e5"] ;
124 -> 126 ;
127 [label="entropy = 0.0\nsamples = 586\nvalue = [0, 0, 586]", fillcolor="#8139e5"] ;
113 -> 127 ;
128 [label="X[36] <= -0.5\nentropy = 0.437\nsamples = 1081\nvalue = [34, 42, 1005]", fillcolor="#8a47e7"] ;
96 -> 128 ;
129 [label="X[23] <= 0.5\nentropy = 0.206\nsamples = 405\nvalue = [4, 7, 394]", fillcolor="#843ee6"] ;
128 -> 129 ;
130 [label="X[38] <= 0.5\nentropy = 0.189\nsamples = 404\nvalue = [3, 7, 394]", fillcolor="#843ee6"] ;
129 -> 130 ;
131 [label="X[14] <= -0.5\nentropy = 0.112\nsamples = 335\nvalue = [0, 5, 330]", fillcolor="#833ce5"] ;
130 -> 131 ;
132 [label="X[37] <= 0.5\nentropy = 0.348\nsamples = 46\nvalue = [0, 3, 43]", fillcolor="#8a47e7"] ;
131 -> 132 ;
133 [label="entropy = 0.0\nsamples = 32\nvalue = [0, 0, 32]", fillcolor="#8139e5"] ;
132 -> 133 ;
134 [label="X[18] <= -0.5\nentropy = 0.75\nsamples = 14\nvalue = [0, 3, 11]", fillcolor="#a36fec"] ;
132 -> 134 ;
135 [label="entropy = 0.0\nsamples = 1\nvalue = [0, 1, 0]", fillcolor="#39e581"] ;
134 -> 135 ;
136 [label="X[15] <= -0.5\nentropy = 0.619\nsamples = 13\nvalue = [0, 2, 11]", fillcolor="#985dea"] ;
134 -> 136 ;
137 [label="entropy = 0.0\nsamples = 1\nvalue = [0, 1, 0]", fillcolor="#39e581"] ;
136 -> 137 ;
138 [label="X[12] <= 0.0\nentropy = 0.414\nsamples = 12\nvalue = [0, 1, 11]", fillcolor="#8c4be7"] ;
136 -> 138 ;
139 [label="X[30] <= 0.5\nentropy = 1.0\nsamples = 2\nvalue = [0, 1, 1]", fillcolor="#ffffff"] ;
138 -> 139 ;
140 [label="entropy = 0.0\nsamples = 1\nvalue = [0, 0, 1]", fillcolor="#8139e5"] ;
139 -> 140 ;
141 [label="entropy = 0.0\nsamples = 1\nvalue = [0, 1, 0]", fillcolor="#39e581"] ;
139 -> 141 ;
142 [label="entropy = 0.0\nsamples = 10\nvalue = [0, 0, 10]", fillcolor="#8139e5"] ;
138 -> 142 ;
143 [label="X[26] <= -0.5\nentropy = 0.06\nsamples = 289\nvalue = [0, 2, 287]", fillcolor="#823ae5"] ;
131 -> 143 ;
144 [label="X[18] <= 0.5\nentropy = 0.722\nsamples = 5\nvalue = [0, 1, 4]", fillcolor="#a06aec"] ;
143 -> 144 ;
145 [label="entropy = 0.0\nsamples = 4\nvalue = [0, 0, 4]", fillcolor="#8139e5"] ;
144 -> 145 ;
146 [label="entropy = 0.0\nsamples = 1\nvalue = [0, 1, 0]", fillcolor="#39e581"] ;
144 -> 146 ;
147 [label="X[39] <= 0.5\nentropy = 0.034\nsamples = 284\nvalue = [0, 1, 283]", fillcolor="#813ae5"] ;
143 -> 147 ;
148 [label="entropy = 0.0\nsamples = 269\nvalue = [0, 0, 269]", fillcolor="#8139e5"] ;
147 -> 148 ;
149 [label="X[18] <= -0.5\nentropy = 0.353\nsamples = 15\nvalue = [0, 1, 14]", fillcolor="#8a47e7"] ;
147 -> 149 ;
150 [label="X[19] <= 0.5\nentropy = 1.0\nsamples = 2\nvalue = [0, 1, 1]", fillcolor="#ffffff"] ;
149 -> 150 ;
151 [label="entropy = 0.0\nsamples = 1\nvalue = [0, 1, 0]", fillcolor="#39e581"] ;
150 -> 151 ;
152 [label="entropy = 0.0\nsamples = 1\nvalue = [0, 0, 1]", fillcolor="#8139e5"] ;
150 -> 152 ;
153 [label="entropy = 0.0\nsamples = 13\nvalue = [0, 0, 13]", fillcolor="#8139e5"] ;
149 -> 153 ;
154 [label="X[18] <= -0.5\nentropy = 0.445\nsamples = 69\nvalue = [3, 2, 64]", fillcolor="#8b48e7"] ;
130 -> 154 ;
155 [label="X[39] <= -0.5\nentropy = 1.224\nsamples = 9\nvalue = [2, 1, 6]", fillcolor="#b78ef0"] ;
154 -> 155 ;
156 [label="X[13] <= 0.5\nentropy = 1.0\nsamples = 2\nvalue = [1, 1, 0]", fillcolor="#ffffff"] ;
155 -> 156 ;
157 [label="entropy = 0.0\nsamples = 1\nvalue = [1, 0, 0]", fillcolor="#e58139"] ;
156 -> 157 ;
158 [label="entropy = 0.0\nsamples = 1\nvalue = [0, 1, 0]", fillcolor="#39e581"] ;
156 -> 158 ;
159 [label="X[14] <= 0.5\nentropy = 0.592\nsamples = 7\nvalue = [1, 0, 6]", fillcolor="#965ae9"] ;
155 -> 159 ;
160 [label="entropy = 0.0\nsamples = 6\nvalue = [0, 0, 6]", fillcolor="#8139e5"] ;
159 -> 160 ;
161 [label="entropy = 0.0\nsamples = 1\nvalue = [1, 0, 0]", fillcolor="#e58139"] ;
159 -> 161 ;
162 [label="X[40] <= 0.5\nentropy = 0.244\nsamples = 60\nvalue = [1, 1, 58]", fillcolor="#8540e6"] ;
154 -> 162 ;
163 [label="X[12] <= 0.0\nentropy = 0.129\nsamples = 56\nvalue = [1, 0, 55]", fillcolor="#833de5"] ;
162 -> 163 ;
164 [label="X[13] <= -0.5\nentropy = 0.439\nsamples = 11\nvalue = [1, 0, 10]", fillcolor="#8e4de8"] ;
163 -> 164 ;
165 [label="X[24] <= 0.5\nentropy = 1.0\nsamples = 2\nvalue = [1, 0, 1]", fillcolor="#ffffff"] ;
164 -> 165 ;
166 [label="entropy = 0.0\nsamples = 1\nvalue = [1, 0, 0]", fillcolor="#e58139"] ;
165 -> 166 ;
167 [label="entropy = 0.0\nsamples = 1\nvalue = [0, 0, 1]", fillcolor="#8139e5"] ;
165 -> 167 ;
168 [label="entropy = 0.0\nsamples = 9\nvalue = [0, 0, 9]", fillcolor="#8139e5"] ;
164 -> 168 ;
169 [label="entropy = 0.0\nsamples = 45\nvalue = [0, 0, 45]", fillcolor="#8139e5"] ;
163 -> 169 ;
170 [label="X[24] <= -0.5\nentropy = 0.811\nsamples = 4\nvalue = [0, 1, 3]", fillcolor="#ab7bee"] ;
162 -> 170 ;
171 [label="entropy = 0.0\nsamples = 1\nvalue = [0, 1, 0]", fillcolor="#39e581"] ;
170 -> 171 ;
172 [label="entropy = 0.0\nsamples = 3\nvalue = [0, 0, 3]", fillcolor="#8139e5"] ;
170 -> 172 ;
173 [label="entropy = 0.0\nsamples = 1\nvalue = [1, 0, 0]", fillcolor="#e58139"] ;
129 -> 173 ;
174 [label="X[12] <= 0.5\nentropy = 0.552\nsamples = 676\nvalue = [30, 35, 611]", fillcolor="#8e4de8"] ;
128 -> 174 ;
175 [label="X[34] <= 0.5\nentropy = 0.122\nsamples = 209\nvalue = [1, 2, 206]", fillcolor="#833ce5"] ;
174 -> 175 ;
176 [label="X[3] <= 0.5\nentropy = 0.088\nsamples = 207\nvalue = [1, 1, 205]", fillcolor="#823be5"] ;
175 -> 176 ;
177 [label="entropy = 0.0\nsamples = 186\nvalue = [0, 0, 186]", fillcolor="#8139e5"] ;
176 -> 177 ;
178 [label="X[13] <= -0.5\nentropy = 0.549\nsamples = 21\nvalue = [1, 1, 19]", fillcolor="#8e4de8"] ;
176 -> 178 ;
179 [label="X[30] <= 0.5\nentropy = 1.0\nsamples = 2\nvalue = [1, 0, 1]", fillcolor="#ffffff"] ;
178 -> 179 ;
180 [label="entropy = 0.0\nsamples = 1\nvalue = [1, 0, 0]", fillcolor="#e58139"] ;
179 -> 180 ;
181 [label="entropy = 0.0\nsamples = 1\nvalue = [0, 0, 1]", fillcolor="#8139e5"] ;
179 -> 181 ;
182 [label="X[25] <= -0.5\nentropy = 0.297\nsamples = 19\nvalue = [0, 1, 18]", fillcolor="#8844e6"] ;
178 -> 182 ;
183 [label="X[24] <= 0.0\nentropy = 1.0\nsamples = 2\nvalue = [0, 1, 1]", fillcolor="#ffffff"] ;
182 -> 183 ;
184 [label="entropy = 0.0\nsamples = 1\nvalue = [0, 1, 0]", fillcolor="#39e581"] ;
183 -> 184 ;
185 [label="entropy = 0.0\nsamples = 1\nvalue = [0, 0, 1]", fillcolor="#8139e5"] ;
183 -> 185 ;
186 [label="entropy = 0.0\nsamples = 17\nvalue = [0, 0, 17]", fillcolor="#8139e5"] ;
182 -> 186 ;
187 [label="X[35] <= -0.5\nentropy = 1.0\nsamples = 2\nvalue = [0, 1, 1]", fillcolor="#ffffff"] ;
175 -> 187 ;
188 [label="entropy = 0.0\nsamples = 1\nvalue = [0, 0, 1]", fillcolor="#8139e5"] ;
187 -> 188 ;
189 [label="entropy = 0.0\nsamples = 1\nvalue = [0, 1, 0]", fillcolor="#39e581"] ;
187 -> 189 ;
190 [label="X[25] <= 0.5\nentropy = 0.697\nsamples = 467\nvalue = [29, 33, 405]", fillcolor="#9355e9"] ;
174 -> 190 ;
191 [label="X[16] <= -0.5\nentropy = 0.765\nsamples = 363\nvalue = [29, 26, 308]", fillcolor="#965ae9"] ;
190 -> 191 ;
192 [label="entropy = 0.0\nsamples = 27\nvalue = [0, 0, 27]", fillcolor="#8139e5"] ;
191 -> 192 ;
193 [label="X[17] <= 0.5\nentropy = 0.806\nsamples = 336\nvalue = [29, 26, 281]", fillcolor="#985cea"] ;
191 -> 193 ;
194 [label="X[30] <= -0.5\nentropy = 0.79\nsamples = 334\nvalue = [27, 26, 281]", fillcolor="#975be9"] ;
193 -> 194 ;
195 [label="X[14] <= -0.5\nentropy = 0.554\nsamples = 82\nvalue = [1, 8, 73]", fillcolor="#9051e8"] ;
194 -> 195 ;
196 [label="X[13] <= 0.0\nentropy = 1.198\nsamples = 14\nvalue = [1, 4, 9]", fillcolor="#c09cf2"] ;
195 -> 196 ;
197 [label="entropy = 0.0\nsamples = 3\nvalue = [0, 3, 0]", fillcolor="#39e581"] ;
196 -> 197 ;
198 [label="X[18] <= 0.5\nentropy = 0.866\nsamples = 11\nvalue = [1, 1, 9]", fillcolor="#9a61ea"] ;
196 -> 198 ;
199 [label="X[15] <= -0.5\nentropy = 0.469\nsamples = 10\nvalue = [1, 0, 9]", fillcolor="#8f4fe8"] ;
198 -> 199 ;
200 [label="X[16] <= 0.5\nentropy = 0.918\nsamples = 3\nvalue = [1, 0, 2]", fillcolor="#c09cf2"] ;
199 -> 200 ;
201 [label="entropy = 0.0\nsamples = 1\nvalue = [0, 0, 1]", fillcolor="#8139e5"] ;
200 -> 201 ;
202 [label="X[31] <= 0.5\nentropy = 1.0\nsamples = 2\nvalue = [1, 0, 1]", fillcolor="#ffffff"] ;
200 -> 202 ;
203 [label="entropy = 0.0\nsamples = 1\nvalue = [0, 0, 1]", fillcolor="#8139e5"] ;
202 -> 203 ;
204 [label="entropy = 0.0\nsamples = 1\nvalue = [1, 0, 0]", fillcolor="#e58139"] ;
202 -> 204 ;
205 [label="entropy = 0.0\nsamples = 7\nvalue = [0, 0, 7]", fillcolor="#8139e5"] ;
199 -> 205 ;
206 [label="entropy = 0.0\nsamples = 1\nvalue = [0, 1, 0]", fillcolor="#39e581"] ;
198 -> 206 ;
207 [label="X[34] <= -0.5\nentropy = 0.323\nsamples = 68\nvalue = [0, 4, 64]", fillcolor="#8945e7"] ;
195 -> 207 ;
208 [label="X[13] <= 0.5\nentropy = 0.971\nsamples = 5\nvalue = [0, 2, 3]", fillcolor="#d5bdf6"] ;
207 -> 208 ;
209 [label="X[1] <= -0.5\nentropy = 0.918\nsamples = 3\nvalue = [0, 2, 1]", fillcolor="#9cf2c0"] ;
208 -> 209 ;
210 [label="entropy = 0.0\nsamples = 1\nvalue = [0, 0, 1]", fillcolor="#8139e5"] ;
209 -> 210 ;
211 [label="entropy = 0.0\nsamples = 2\nvalue = [0, 2, 0]", fillcolor="#39e581"] ;
209 -> 211 ;
212 [label="entropy = 0.0\nsamples = 2\nvalue = [0, 0, 2]", fillcolor="#8139e5"] ;
208 -> 212 ;
213 [label="X[13] <= -0.5\nentropy = 0.203\nsamples = 63\nvalue = [0, 2, 61]", fillcolor="#853fe6"] ;
207 -> 213 ;
214 [label="X[16] <= 0.5\nentropy = 0.469\nsamples = 20\nvalue = [0, 2, 18]", fillcolor="#8f4fe8"] ;
213 -> 214 ;
215 [label="X[3] <= 0.5\nentropy = 0.297\nsamples = 19\nvalue = [0, 1, 18]", fillcolor="#8844e6"] ;
214 -> 215 ;
216 [label="entropy = 0.0\nsamples = 18\nvalue = [0, 0, 18]", fillcolor="#8139e5"] ;
215 -> 216 ;
217 [label="entropy = 0.0\nsamples = 1\nvalue = [0, 1, 0]", fillcolor="#39e581"] ;
215 -> 217 ;
218 [label="entropy = 0.0\nsamples = 1\nvalue = [0, 1, 0]", fillcolor="#39e581"] ;
214 -> 218 ;
219 [label="entropy = 0.0\nsamples = 43\nvalue = [0, 0, 43]", fillcolor="#8139e5"] ;
213 -> 219 ;
220 [label="X[15] <= -0.5\nentropy = 0.839\nsamples = 252\nvalue = [26, 18, 208]", fillcolor="#9a60ea"] ;
194 -> 220 ;
221 [label="X[30] <= 0.5\nentropy = 0.581\nsamples = 36\nvalue = [0, 5, 31]", fillcolor="#9559e9"] ;
220 -> 221 ;
222 [label="X[24] <= -0.5\nentropy = 0.267\nsamples = 22\nvalue = [0, 1, 21]", fillcolor="#8742e6"] ;
221 -> 222 ;
223 [label="X[14] <= 0.0\nentropy = 0.918\nsamples = 3\nvalue = [0, 1, 2]", fillcolor="#c09cf2"] ;
222 -> 223 ;
224 [label="entropy = 0.0\nsamples = 1\nvalue = [0, 1, 0]", fillcolor="#39e581"] ;
223 -> 224 ;
225 [label="entropy = 0.0\nsamples = 2\nvalue = [0, 0, 2]", fillcolor="#8139e5"] ;
223 -> 225 ;
226 [label="entropy = 0.0\nsamples = 19\nvalue = [0, 0, 19]", fillcolor="#8139e5"] ;
222 -> 226 ;
227 [label="X[13] <= 0.0\nentropy = 0.863\nsamples = 14\nvalue = [0, 4, 10]", fillcolor="#b388ef"] ;
221 -> 227 ;
228 [label="X[1] <= -0.5\nentropy = 0.971\nsamples = 5\nvalue = [0, 3, 2]", fillcolor="#bdf6d5"] ;
227 -> 228 ;
229 [label="entropy = 0.0\nsamples = 2\nvalue = [0, 2, 0]", fillcolor="#39e581"] ;
228 -> 229 ;
230 [label="X[24] <= 0.5\nentropy = 0.918\nsamples = 3\nvalue = [0, 1, 2]", fillcolor="#c09cf2"] ;
228 -> 230 ;
231 [label="entropy = 0.0\nsamples = 2\nvalue = [0, 0, 2]", fillcolor="#8139e5"] ;
230 -> 231 ;
232 [label="entropy = 0.0\nsamples = 1\nvalue = [0, 1, 0]", fillcolor="#39e581"] ;
230 -> 232 ;
233 [label="X[31] <= 0.5\nentropy = 0.503\nsamples = 9\nvalue = [0, 1, 8]", fillcolor="#9152e8"] ;
227 -> 233 ;
234 [label="entropy = 0.0\nsamples = 7\nvalue = [0, 0, 7]", fillcolor="#8139e5"] ;
233 -> 234 ;
235 [label="X[1] <= -0.5\nentropy = 1.0\nsamples = 2\nvalue = [0, 1, 1]", fillcolor="#ffffff"] ;
233 -> 235 ;
236 [label="entropy = 0.0\nsamples = 1\nvalue = [0, 0, 1]", fillcolor="#8139e5"] ;
235 -> 236 ;
237 [label="entropy = 0.0\nsamples = 1\nvalue = [0, 1, 0]", fillcolor="#39e581"] ;
235 -> 237 ;
238 [label="X[19] <= -0.5\nentropy = 0.847\nsamples = 216\nvalue = [26, 13, 177]", fillcolor="#9b62ea"] ;
220 -> 238 ;
239 [label="X[15] <= 0.5\nentropy = 1.059\nsamples = 44\nvalue = [11, 2, 31]", fillcolor="#b387ef"] ;
238 -> 239 ;
240 [label="X[21] <= 0.5\nentropy = 0.811\nsamples = 36\nvalue = [9, 0, 27]", fillcolor="#ab7bee"] ;
239 -> 240 ;
241 [label="X[14] <= -0.5\nentropy = 0.894\nsamples = 29\nvalue = [9, 0, 20]", fillcolor="#ba92f1"] ;
240 -> 241 ;
242 [label="entropy = 0.0\nsamples = 2\nvalue = [2, 0, 0]", fillcolor="#e58139"] ;
241 -> 242 ;
243 [label="X[13] <= 0.5\nentropy = 0.826\nsamples = 27\nvalue = [7, 0, 20]", fillcolor="#ad7eee"] ;
241 -> 243 ;
244 [label="X[32] <= -0.5\nentropy = 0.977\nsamples = 17\nvalue = [7, 0, 10]", fillcolor="#d9c4f7"] ;
243 -> 244 ;
245 [label="entropy = 0.0\nsamples = 2\nvalue = [2, 0, 0]", fillcolor="#e58139"] ;
244 -> 245 ;
246 [label="X[31] <= 0.5\nentropy = 0.918\nsamples = 15\nvalue = [5, 0, 10]", fillcolor="#c09cf2"] ;
244 -> 246 ;
247 [label="X[20] <= 0.5\nentropy = 0.98\nsamples = 12\nvalue = [5, 0, 7]", fillcolor="#dbc6f8"] ;
246 -> 247 ;
248 [label="X[30] <= 0.5\nentropy = 0.918\nsamples = 6\nvalue = [4, 0, 2]", fillcolor="#f2c09c"] ;
247 -> 248 ;
249 [label="X[18] <= 0.0\nentropy = 0.918\nsamples = 3\nvalue = [1, 0, 2]", fillcolor="#c09cf2"] ;
248 -> 249 ;
250 [label="entropy = 0.0\nsamples = 1\nvalue = [1, 0, 0]", fillcolor="#e58139"] ;
249 -> 250 ;
251 [label="entropy = 0.0\nsamples = 2\nvalue = [0, 0, 2]", fillcolor="#8139e5"] ;
249 -> 251 ;
252 [label="entropy = 0.0\nsamples = 3\nvalue = [3, 0, 0]", fillcolor="#e58139"] ;
248 -> 252 ;
253 [label="X[24] <= 0.5\nentropy = 0.65\nsamples = 6\nvalue = [1, 0, 5]", fillcolor="#9a61ea"] ;
247 -> 253 ;
254 [label="entropy = 0.0\nsamples = 4\nvalue = [0, 0, 4]", fillcolor="#8139e5"] ;
253 -> 254 ;
255 [label="X[21] <= -0.5\nentropy = 1.0\nsamples = 2\nvalue = [1, 0, 1]", fillcolor="#ffffff"] ;
253 -> 255 ;
256 [label="entropy = 0.0\nsamples = 1\nvalue = [1, 0, 0]", fillcolor="#e58139"] ;
255 -> 256 ;
257 [label="entropy = 0.0\nsamples = 1\nvalue = [0, 0, 1]", fillcolor="#8139e5"] ;
255 -> 257 ;
258 [label="entropy = 0.0\nsamples = 3\nvalue = [0, 0, 3]", fillcolor="#8139e5"] ;
246 -> 258 ;
259 [label="entropy = 0.0\nsamples = 10\nvalue = [0, 0, 10]", fillcolor="#8139e5"] ;
243 -> 259 ;
260 [label="entropy = 0.0\nsamples = 7\nvalue = [0, 0, 7]", fillcolor="#8139e5"] ;
240 -> 260 ;
261 [label="X[13] <= 0.0\nentropy = 1.5\nsamples = 8\nvalue = [2, 2, 4]", fillcolor="#d5bdf6"] ;
239 -> 261 ;
262 [label="X[24] <= -0.5\nentropy = 0.811\nsamples = 4\nvalue = [0, 1, 3]", fillcolor="#ab7bee"] ;
261 -> 262 ;
263 [label="entropy = 0.0\nsamples = 1\nvalue = [0, 1, 0]", fillcolor="#39e581"] ;
262 -> 263 ;
264 [label="entropy = 0.0\nsamples = 3\nvalue = [0, 0, 3]", fillcolor="#8139e5"] ;
262 -> 264 ;
265 [label="X[1] <= -0.5\nentropy = 1.5\nsamples = 4\nvalue = [2, 1, 1]", fillcolor="#f6d5bd"] ;
261 -> 265 ;
266 [label="entropy = 0.0\nsamples = 1\nvalue = [0, 0, 1]", fillcolor="#8139e5"] ;
265 -> 266 ;
267 [label="X[20] <= 0.5\nentropy = 0.918\nsamples = 3\nvalue = [2, 1, 0]", fillcolor="#f2c09c"] ;
265 -> 267 ;
268 [label="entropy = 0.0\nsamples = 2\nvalue = [2, 0, 0]", fillcolor="#e58139"] ;
267 -> 268 ;
269 [label="entropy = 0.0\nsamples = 1\nvalue = [0, 1, 0]", fillcolor="#39e581"] ;
267 -> 269 ;
270 [label="X[13] <= -0.5\nentropy = 0.761\nsamples = 172\nvalue = [15, 11, 146]", fillcolor="#965ae9"] ;
238 -> 270 ;
271 [label="X[24] <= -0.5\nentropy = 0.963\nsamples = 66\nvalue = [11, 4, 51]", fillcolor="#a36fec"] ;
270 -> 271 ;
272 [label="X[25] <= -0.5\nentropy = 0.997\nsamples = 15\nvalue = [7, 0, 8]", fillcolor="#efe6fc"] ;
271 -> 272 ;
273 [label="entropy = 0.0\nsamples = 3\nvalue = [3, 0, 0]", fillcolor="#e58139"] ;
272 -> 273 ;
274 [label="X[1] <= -0.5\nentropy = 0.918\nsamples = 12\nvalue = [4, 0, 8]", fillcolor="#c09cf2"] ;
272 -> 274 ;
275 [label="entropy = 0.0\nsamples = 2\nvalue = [2, 0, 0]", fillcolor="#e58139"] ;
274 -> 275 ;
276 [label="X[32] <= -0.5\nentropy = 0.722\nsamples = 10\nvalue = [2, 0, 8]", fillcolor="#a06aec"] ;
274 -> 276 ;
277 [label="entropy = 0.0\nsamples = 2\nvalue = [2, 0, 0]", fillcolor="#e58139"] ;
276 -> 277 ;
278 [label="entropy = 0.0\nsamples = 8\nvalue = [0, 0, 8]", fillcolor="#8139e5"] ;
276 -> 278 ;
279 [label="X[2] <= 0.5\nentropy = 0.784\nsamples = 51\nvalue = [4, 4, 43]", fillcolor="#965be9"] ;
271 -> 279 ;
280 [label="X[24] <= 0.5\nentropy = 0.373\nsamples = 35\nvalue = [1, 1, 33]", fillcolor="#8845e7"] ;
279 -> 280 ;
281 [label="entropy = 0.0\nsamples = 24\nvalue = [0, 0, 24]", fillcolor="#8139e5"] ;
280 -> 281 ;
282 [label="X[30] <= 0.5\nentropy = 0.866\nsamples = 11\nvalue = [1, 1, 9]", fillcolor="#9a61ea"] ;
280 -> 282 ;
283 [label="entropy = 0.0\nsamples = 8\nvalue = [0, 0, 8]", fillcolor="#8139e5"] ;
282 -> 283 ;
284 [label="X[19] <= 0.5\nentropy = 1.585\nsamples = 3\nvalue = [1, 1, 1]", fillcolor="#ffffff"] ;
282 -> 284 ;
285 [label="entropy = 0.0\nsamples = 1\nvalue = [0, 1, 0]", fillcolor="#39e581"] ;
284 -> 285 ;
286 [label="X[1] <= -0.5\nentropy = 1.0\nsamples = 2\nvalue = [1, 0, 1]", fillcolor="#ffffff"] ;
284 -> 286 ;
287 [label="entropy = 0.0\nsamples = 1\nvalue = [0, 0, 1]", fillcolor="#8139e5"] ;
286 -> 287 ;
288 [label="entropy = 0.0\nsamples = 1\nvalue = [1, 0, 0]", fillcolor="#e58139"] ;
286 -> 288 ;
289 [label="X[18] <= -0.5\nentropy = 1.329\nsamples = 16\nvalue = [3, 3, 10]", fillcolor="#bb94f1"] ;
279 -> 289 ;
290 [label="X[15] <= 0.5\nentropy = 1.522\nsamples = 5\nvalue = [2, 2, 1]", fillcolor="#ffffff"] ;
289 -> 290 ;
291 [label="X[24] <= 0.5\nentropy = 1.0\nsamples = 4\nvalue = [2, 2, 0]", fillcolor="#ffffff"] ;
290 -> 291 ;
292 [label="entropy = 0.0\nsamples = 1\nvalue = [0, 1, 0]", fillcolor="#39e581"] ;
291 -> 292 ;
293 [label="X[19] <= 0.5\nentropy = 0.918\nsamples = 3\nvalue = [2, 1, 0]", fillcolor="#f2c09c"] ;
291 -> 293 ;
294 [label="entropy = 0.0\nsamples = 2\nvalue = [2, 0, 0]", fillcolor="#e58139"] ;
293 -> 294 ;
295 [label="entropy = 0.0\nsamples = 1\nvalue = [0, 1, 0]", fillcolor="#39e581"] ;
293 -> 295 ;
296 [label="entropy = 0.0\nsamples = 1\nvalue = [0, 0, 1]", fillcolor="#8139e5"] ;
290 -> 296 ;
297 [label="X[31] <= -0.5\nentropy = 0.866\nsamples = 11\nvalue = [1, 1, 9]", fillcolor="#9a61ea"] ;
289 -> 297 ;
298 [label="X[32] <= 0.5\nentropy = 1.585\nsamples = 3\nvalue = [1, 1, 1]", fillcolor="#ffffff"] ;
297 -> 298 ;
299 [label="X[14] <= 0.5\nentropy = 1.0\nsamples = 2\nvalue = [1, 1, 0]", fillcolor="#ffffff"] ;
298 -> 299 ;
300 [label="entropy = 0.0\nsamples = 1\nvalue = [1, 0, 0]", fillcolor="#e58139"] ;
299 -> 300 ;
301 [label="entropy = 0.0\nsamples = 1\nvalue = [0, 1, 0]", fillcolor="#39e581"] ;
299 -> 301 ;
302 [label="entropy = 0.0\nsamples = 1\nvalue = [0, 0, 1]", fillcolor="#8139e5"] ;
298 -> 302 ;
303 [label="entropy = 0.0\nsamples = 8\nvalue = [0, 0, 8]", fillcolor="#8139e5"] ;
297 -> 303 ;
304 [label="X[4] <= 0.5\nentropy = 0.579\nsamples = 106\nvalue = [4, 7, 95]", fillcolor="#8f4fe8"] ;
270 -> 304 ;
305 [label="X[18] <= -0.5\nentropy = 0.522\nsamples = 101\nvalue = [4, 5, 92]", fillcolor="#8d4ce7"] ;
304 -> 305 ;
306 [label="X[24] <= -0.5\nentropy = 0.715\nsamples = 49\nvalue = [2, 5, 42]", fillcolor="#9559e9"] ;
305 -> 306 ;
307 [label="entropy = 0.0\nsamples = 19\nvalue = [0, 0, 19]", fillcolor="#8139e5"] ;
306 -> 307 ;
308 [label="X[31] <= -0.5\nentropy = 0.985\nsamples = 30\nvalue = [2, 5, 23]", fillcolor="#a470ec"] ;
306 -> 308 ;
309 [label="X[24] <= 0.5\nentropy = 1.436\nsamples = 9\nvalue = [2, 2, 5]", fillcolor="#c9aaf4"] ;
308 -> 309 ;
310 [label="X[14] <= -0.5\nentropy = 0.722\nsamples = 5\nvalue = [0, 1, 4]", fillcolor="#a06aec"] ;
309 -> 310 ;
311 [label="entropy = 0.0\nsamples = 1\nvalue = [0, 1, 0]", fillcolor="#39e581"] ;
310 -> 311 ;
312 [label="entropy = 0.0\nsamples = 4\nvalue = [0, 0, 4]", fillcolor="#8139e5"] ;
310 -> 312 ;
313 [label="X[32] <= 0.5\nentropy = 1.5\nsamples = 4\nvalue = [2, 1, 1]", fillcolor="#f6d5bd"] ;
309 -> 313 ;
314 [label="X[19] <= 0.5\nentropy = 0.918\nsamples = 3\nvalue = [2, 0, 1]", fillcolor="#f2c09c"] ;
313 -> 314 ;
315 [label="entropy = 0.0\nsamples = 2\nvalue = [2, 0, 0]", fillcolor="#e58139"] ;
314 -> 315 ;
316 [label="entropy = 0.0\nsamples = 1\nvalue = [0, 0, 1]", fillcolor="#8139e5"] ;
314 -> 316 ;
317 [label="entropy = 0.0\nsamples = 1\nvalue = [0, 1, 0]", fillcolor="#39e581"] ;
313 -> 317 ;
318 [label="X[3] <= 0.5\nentropy = 0.592\nsamples = 21\nvalue = [0, 3, 18]", fillcolor="#965ae9"] ;
308 -> 318 ;
319 [label="X[19] <= 0.5\nentropy = 0.469\nsamples = 20\nvalue = [0, 2, 18]", fillcolor="#8f4fe8"] ;
318 -> 319 ;
320 [label="entropy = 0.0\nsamples = 11\nvalue = [0, 0, 11]", fillcolor="#8139e5"] ;
319 -> 320 ;
321 [label="X[20] <= 0.5\nentropy = 0.764\nsamples = 9\nvalue = [0, 2, 7]", fillcolor="#a572ec"] ;
319 -> 321 ;
322 [label="X[3] <= -0.5\nentropy = 1.0\nsamples = 4\nvalue = [0, 2, 2]", fillcolor="#ffffff"] ;
321 -> 322 ;
323 [label="entropy = 0.0\nsamples = 2\nvalue = [0, 0, 2]", fillcolor="#8139e5"] ;
322 -> 323 ;
324 [label="entropy = 0.0\nsamples = 2\nvalue = [0, 2, 0]", fillcolor="#39e581"] ;
322 -> 324 ;
325 [label="entropy = 0.0\nsamples = 5\nvalue = [0, 0, 5]", fillcolor="#8139e5"] ;
321 -> 325 ;
326 [label="entropy = 0.0\nsamples = 1\nvalue = [0, 1, 0]", fillcolor="#39e581"] ;
318 -> 326 ;
327 [label="X[1] <= -0.5\nentropy = 0.235\nsamples = 52\nvalue = [2, 0, 50]", fillcolor="#8641e6"] ;
305 -> 327 ;
328 [label="entropy = 0.0\nsamples = 35\nvalue = [0, 0, 35]", fillcolor="#8139e5"] ;
327 -> 328 ;
329 [label="X[14] <= -0.5\nentropy = 0.523\nsamples = 17\nvalue = [2, 0, 15]", fillcolor="#9253e8"] ;
327 -> 329 ;
330 [label="X[31] <= -0.5\nentropy = 0.811\nsamples = 8\nvalue = [2, 0, 6]", fillcolor="#ab7bee"] ;
329 -> 330 ;
331 [label="entropy = 0.0\nsamples = 2\nvalue = [0, 0, 2]", fillcolor="#8139e5"] ;
330 -> 331 ;
332 [label="X[32] <= -0.5\nentropy = 0.918\nsamples = 6\nvalue = [2, 0, 4]", fillcolor="#c09cf2"] ;
330 -> 332 ;
333 [label="entropy = 0.0\nsamples = 1\nvalue = [1, 0, 0]", fillcolor="#e58139"] ;
332 -> 333 ;
334 [label="X[15] <= 0.5\nentropy = 0.722\nsamples = 5\nvalue = [1, 0, 4]", fillcolor="#a06aec"] ;
332 -> 334 ;
335 [label="entropy = 0.0\nsamples = 3\nvalue = [0, 0, 3]", fillcolor="#8139e5"] ;
334 -> 335 ;
336 [label="X[30] <= 0.5\nentropy = 1.0\nsamples = 2\nvalue = [1, 0, 1]", fillcolor="#ffffff"] ;
334 -> 336 ;
337 [label="entropy = 0.0\nsamples = 1\nvalue = [0, 0, 1]", fillcolor="#8139e5"] ;
336 -> 337 ;
338 [label="entropy = 0.0\nsamples = 1\nvalue = [1, 0, 0]", fillcolor="#e58139"] ;
336 -> 338 ;
339 [label="entropy = 0.0\nsamples = 9\nvalue = [0, 0, 9]", fillcolor="#8139e5"] ;
329 -> 339 ;
340 [label="X[30] <= 0.5\nentropy = 0.971\nsamples = 5\nvalue = [0, 2, 3]", fillcolor="#d5bdf6"] ;
304 -> 340 ;
341 [label="entropy = 0.0\nsamples = 3\nvalue = [0, 0, 3]", fillcolor="#8139e5"] ;
340 -> 341 ;
342 [label="entropy = 0.0\nsamples = 2\nvalue = [0, 2, 0]", fillcolor="#39e581"] ;
340 -> 342 ;
343 [label="entropy = 0.0\nsamples = 2\nvalue = [2, 0, 0]", fillcolor="#e58139"] ;
193 -> 343 ;
344 [label="X[13] <= 0.5\nentropy = 0.356\nsamples = 104\nvalue = [0, 7, 97]", fillcolor="#8a47e7"] ;
190 -> 344 ;
345 [label="X[27] <= 0.5\nentropy = 0.474\nsamples = 69\nvalue = [0, 7, 62]", fillcolor="#8f4fe8"] ;
344 -> 345 ;
346 [label="X[32] <= -0.5\nentropy = 0.353\nsamples = 60\nvalue = [0, 4, 56]", fillcolor="#8a47e7"] ;
345 -> 346 ;
347 [label="X[26] <= -0.5\nentropy = 0.863\nsamples = 7\nvalue = [0, 2, 5]", fillcolor="#b388ef"] ;
346 -> 347 ;
348 [label="entropy = 0.0\nsamples = 1\nvalue = [0, 1, 0]", fillcolor="#39e581"] ;
347 -> 348 ;
349 [label="X[13] <= -0.5\nentropy = 0.65\nsamples = 6\nvalue = [0, 1, 5]", fillcolor="#9a61ea"] ;
347 -> 349 ;
350 [label="X[30] <= 0.0\nentropy = 1.0\nsamples = 2\nvalue = [0, 1, 1]", fillcolor="#ffffff"] ;
349 -> 350 ;
351 [label="entropy = 0.0\nsamples = 1\nvalue = [0, 0, 1]", fillcolor="#8139e5"] ;
350 -> 351 ;
352 [label="entropy = 0.0\nsamples = 1\nvalue = [0, 1, 0]", fillcolor="#39e581"] ;
350 -> 352 ;
353 [label="entropy = 0.0\nsamples = 4\nvalue = [0, 0, 4]", fillcolor="#8139e5"] ;
349 -> 353 ;
354 [label="X[19] <= 0.5\nentropy = 0.232\nsamples = 53\nvalue = [0, 2, 51]", fillcolor="#8641e6"] ;
346 -> 354 ;
355 [label="X[18] <= 0.5\nentropy = 0.144\nsamples = 49\nvalue = [0, 1, 48]", fillcolor="#843de6"] ;
354 -> 355 ;
356 [label="entropy = 0.0\nsamples = 43\nvalue = [0, 0, 43]", fillcolor="#8139e5"] ;
355 -> 356 ;
357 [label="X[13] <= -0.5\nentropy = 0.65\nsamples = 6\nvalue = [0, 1, 5]", fillcolor="#9a61ea"] ;
355 -> 357 ;
358 [label="entropy = 0.0\nsamples = 1\nvalue = [0, 1, 0]", fillcolor="#39e581"] ;
357 -> 358 ;
359 [label="entropy = 0.0\nsamples = 5\nvalue = [0, 0, 5]", fillcolor="#8139e5"] ;
357 -> 359 ;
360 [label="X[14] <= -0.5\nentropy = 0.811\nsamples = 4\nvalue = [0, 1, 3]", fillcolor="#ab7bee"] ;
354 -> 360 ;
361 [label="entropy = 0.0\nsamples = 1\nvalue = [0, 1, 0]", fillcolor="#39e581"] ;
360 -> 361 ;
362 [label="entropy = 0.0\nsamples = 3\nvalue = [0, 0, 3]", fillcolor="#8139e5"] ;
360 -> 362 ;
363 [label="X[28] <= -0.5\nentropy = 0.918\nsamples = 9\nvalue = [0, 3, 6]", fillcolor="#c09cf2"] ;
345 -> 363 ;
364 [label="entropy = 0.0\nsamples = 3\nvalue = [0, 0, 3]", fillcolor="#8139e5"] ;
363 -> 364 ;
365 [label="X[18] <= -0.5\nentropy = 1.0\nsamples = 6\nvalue = [0, 3, 3]", fillcolor="#ffffff"] ;
363 -> 365 ;
366 [label="entropy = 0.0\nsamples = 2\nvalue = [0, 0, 2]", fillcolor="#8139e5"] ;
365 -> 366 ;
367 [label="X[14] <= 0.5\nentropy = 0.811\nsamples = 4\nvalue = [0, 3, 1]", fillcolor="#7beeab"] ;
365 -> 367 ;
368 [label="entropy = 0.0\nsamples = 3\nvalue = [0, 3, 0]", fillcolor="#39e581"] ;
367 -> 368 ;
369 [label="entropy = 0.0\nsamples = 1\nvalue = [0, 0, 1]", fillcolor="#8139e5"] ;
367 -> 369 ;
370 [label="entropy = 0.0\nsamples = 35\nvalue = [0, 0, 35]", fillcolor="#8139e5"] ;
344 -> 370 ;
371 [label="X[20] <= -0.5\nentropy = 0.943\nsamples = 1230\nvalue = [132, 123, 975]", fillcolor="#9e67eb"] ;
3 -> 371 ;
372 [label="X[2] <= -0.5\nentropy = 1.517\nsamples = 87\nvalue = [34, 17, 36]", fillcolor="#faf8fe"] ;
371 -> 372 ;
373 [label="X[18] <= 0.0\nentropy = 0.774\nsamples = 19\nvalue = [1, 2, 16]", fillcolor="#975cea"] ;
372 -> 373 ;
374 [label="entropy = 0.0\nsamples = 2\nvalue = [0, 2, 0]", fillcolor="#39e581"] ;
373 -> 374 ;
375 [label="X[4] <= 0.5\nentropy = 0.323\nsamples = 17\nvalue = [1, 0, 16]", fillcolor="#8945e7"] ;
373 -> 375 ;
376 [label="entropy = 0.0\nsamples = 15\nvalue = [0, 0, 15]", fillcolor="#8139e5"] ;
375 -> 376 ;
377 [label="X[3] <= 0.0\nentropy = 1.0\nsamples = 2\nvalue = [1, 0, 1]", fillcolor="#ffffff"] ;
375 -> 377 ;
378 [label="entropy = 0.0\nsamples = 1\nvalue = [0, 0, 1]", fillcolor="#8139e5"] ;
377 -> 378 ;
379 [label="entropy = 0.0\nsamples = 1\nvalue = [1, 0, 0]", fillcolor="#e58139"] ;
377 -> 379 ;
380 [label="X[21] <= -0.5\nentropy = 1.506\nsamples = 68\nvalue = [33, 15, 20]", fillcolor="#f8ddc9"] ;
372 -> 380 ;
381 [label="X[6] <= -0.5\nentropy = 0.592\nsamples = 14\nvalue = [12, 0, 2]", fillcolor="#e9965a"] ;
380 -> 381 ;
382 [label="X[24] <= 0.5\nentropy = 0.971\nsamples = 5\nvalue = [3, 0, 2]", fillcolor="#f6d5bd"] ;
381 -> 382 ;
383 [label="X[30] <= 0.5\nentropy = 0.811\nsamples = 4\nvalue = [3, 0, 1]", fillcolor="#eeab7b"] ;
382 -> 383 ;
384 [label="entropy = 0.0\nsamples = 3\nvalue = [3, 0, 0]", fillcolor="#e58139"] ;
383 -> 384 ;
385 [label="entropy = 0.0\nsamples = 1\nvalue = [0, 0, 1]", fillcolor="#8139e5"] ;
383 -> 385 ;
386 [label="entropy = 0.0\nsamples = 1\nvalue = [0, 0, 1]", fillcolor="#8139e5"] ;
382 -> 386 ;
387 [label="entropy = 0.0\nsamples = 9\nvalue = [9, 0, 0]", fillcolor="#e58139"] ;
381 -> 387 ;
388 [label="X[2] <= 0.5\nentropy = 1.572\nsamples = 54\nvalue = [21, 15, 18]", fillcolor="#fdf4ee"] ;
380 -> 388 ;
389 [label="X[18] <= 0.0\nentropy = 1.582\nsamples = 41\nvalue = [13, 15, 13]", fillcolor="#f1fdf6"] ;
388 -> 389 ;
390 [label="X[30] <= 0.5\nentropy = 1.325\nsamples = 12\nvalue = [5, 6, 1]", fillcolor="#e3fbed"] ;
389 -> 390 ;
391 [label="X[30] <= -0.5\nentropy = 0.991\nsamples = 9\nvalue = [5, 4, 0]", fillcolor="#fae6d7"] ;
390 -> 391 ;
392 [label="entropy = 0.0\nsamples = 2\nvalue = [2, 0, 0]", fillcolor="#e58139"] ;
391 -> 392 ;
393 [label="X[21] <= 0.5\nentropy = 0.985\nsamples = 7\nvalue = [3, 4, 0]", fillcolor="#cef8e0"] ;
391 -> 393 ;
394 [label="X[6] <= -0.5\nentropy = 0.971\nsamples = 5\nvalue = [3, 2, 0]", fillcolor="#f6d5bd"] ;
393 -> 394 ;
395 [label="entropy = 0.0\nsamples = 1\nvalue = [0, 1, 0]", fillcolor="#39e581"] ;
394 -> 395 ;
396 [label="X[36] <= -0.5\nentropy = 0.811\nsamples = 4\nvalue = [3, 1, 0]", fillcolor="#eeab7b"] ;
394 -> 396 ;
397 [label="X[37] <= 0.5\nentropy = 1.0\nsamples = 2\nvalue = [1, 1, 0]", fillcolor="#ffffff"] ;
396 -> 397 ;
398 [label="entropy = 0.0\nsamples = 1\nvalue = [0, 1, 0]", fillcolor="#39e581"] ;
397 -> 398 ;
399 [label="entropy = 0.0\nsamples = 1\nvalue = [1, 0, 0]", fillcolor="#e58139"] ;
397 -> 399 ;
400 [label="entropy = 0.0\nsamples = 2\nvalue = [2, 0, 0]", fillcolor="#e58139"] ;
396 -> 400 ;
401 [label="entropy = 0.0\nsamples = 2\nvalue = [0, 2, 0]", fillcolor="#39e581"] ;
393 -> 401 ;
402 [label="X[6] <= -0.5\nentropy = 0.918\nsamples = 3\nvalue = [0, 2, 1]", fillcolor="#9cf2c0"] ;
390 -> 402 ;
403 [label="entropy = 0.0\nsamples = 1\nvalue = [0, 0, 1]", fillcolor="#8139e5"] ;
402 -> 403 ;
404 [label="entropy = 0.0\nsamples = 2\nvalue = [0, 2, 0]", fillcolor="#39e581"] ;
402 -> 404 ;
405 [label="X[24] <= -0.5\nentropy = 1.563\nsamples = 29\nvalue = [8, 9, 12]", fillcolor="#ece1fb"] ;
389 -> 405 ;
406 [label="X[19] <= 0.0\nentropy = 0.811\nsamples = 4\nvalue = [3, 1, 0]", fillcolor="#eeab7b"] ;
405 -> 406 ;
407 [label="entropy = 0.0\nsamples = 3\nvalue = [3, 0, 0]", fillcolor="#e58139"] ;
406 -> 407 ;
408 [label="entropy = 0.0\nsamples = 1\nvalue = [0, 1, 0]", fillcolor="#39e581"] ;
406 -> 408 ;
409 [label="X[7] <= 0.5\nentropy = 1.499\nsamples = 25\nvalue = [5, 8, 12]", fillcolor="#e1d0f9"] ;
405 -> 409 ;
410 [label="X[21] <= 0.5\nentropy = 1.403\nsamples = 23\nvalue = [3, 8, 12]", fillcolor="#ddcaf8"] ;
409 -> 410 ;
411 [label="X[30] <= -0.5\nentropy = 1.555\nsamples = 12\nvalue = [3, 4, 5]", fillcolor="#efe6fc"] ;
410 -> 411 ;
412 [label="X[12] <= 0.0\nentropy = 0.918\nsamples = 3\nvalue = [2, 0, 1]", fillcolor="#f2c09c"] ;
411 -> 412 ;
413 [label="entropy = 0.0\nsamples = 1\nvalue = [0, 0, 1]", fillcolor="#8139e5"] ;
412 -> 413 ;
414 [label="entropy = 0.0\nsamples = 2\nvalue = [2, 0, 0]", fillcolor="#e58139"] ;
412 -> 414 ;
415 [label="X[12] <= -0.5\nentropy = 1.392\nsamples = 9\nvalue = [1, 4, 4]", fillcolor="#ffffff"] ;
411 -> 415 ;
416 [label="X[37] <= 0.5\nentropy = 0.811\nsamples = 4\nvalue = [1, 3, 0]", fillcolor="#7beeab"] ;
415 -> 416 ;
417 [label="entropy = 0.0\nsamples = 3\nvalue = [0, 3, 0]", fillcolor="#39e581"] ;
416 -> 417 ;
418 [label="entropy = 0.0\nsamples = 1\nvalue = [1, 0, 0]", fillcolor="#e58139"] ;
416 -> 418 ;
419 [label="X[7] <= -0.5\nentropy = 0.722\nsamples = 5\nvalue = [0, 1, 4]", fillcolor="#a06aec"] ;
415 -> 419 ;
420 [label="X[30] <= 0.5\nentropy = 1.0\nsamples = 2\nvalue = [0, 1, 1]", fillcolor="#ffffff"] ;
419 -> 420 ;
421 [label="entropy = 0.0\nsamples = 1\nvalue = [0, 1, 0]", fillcolor="#39e581"] ;
420 -> 421 ;
422 [label="entropy = 0.0\nsamples = 1\nvalue = [0, 0, 1]", fillcolor="#8139e5"] ;
420 -> 422 ;
423 [label="entropy = 0.0\nsamples = 3\nvalue = [0, 0, 3]", fillcolor="#8139e5"] ;
419 -> 423 ;
424 [label="X[22] <= -0.5\nentropy = 0.946\nsamples = 11\nvalue = [0, 4, 7]", fillcolor="#c9aaf4"] ;
410 -> 424 ;
425 [label="X[12] <= 0.5\nentropy = 0.971\nsamples = 5\nvalue = [0, 3, 2]", fillcolor="#bdf6d5"] ;
424 -> 425 ;
426 [label="X[23] <= -0.5\nentropy = 0.811\nsamples = 4\nvalue = [0, 3, 1]", fillcolor="#7beeab"] ;
425 -> 426 ;
427 [label="entropy = 0.0\nsamples = 1\nvalue = [0, 0, 1]", fillcolor="#8139e5"] ;
426 -> 427 ;
428 [label="entropy = 0.0\nsamples = 3\nvalue = [0, 3, 0]", fillcolor="#39e581"] ;
426 -> 428 ;
429 [label="entropy = 0.0\nsamples = 1\nvalue = [0, 0, 1]", fillcolor="#8139e5"] ;
425 -> 429 ;
430 [label="X[30] <= -0.5\nentropy = 0.65\nsamples = 6\nvalue = [0, 1, 5]", fillcolor="#9a61ea"] ;
424 -> 430 ;
431 [label="X[12] <= 0.0\nentropy = 1.0\nsamples = 2\nvalue = [0, 1, 1]", fillcolor="#ffffff"] ;
430 -> 431 ;
432 [label="entropy = 0.0\nsamples = 1\nvalue = [0, 0, 1]", fillcolor="#8139e5"] ;
431 -> 432 ;
433 [label="entropy = 0.0\nsamples = 1\nvalue = [0, 1, 0]", fillcolor="#39e581"] ;
431 -> 433 ;
434 [label="entropy = 0.0\nsamples = 4\nvalue = [0, 0, 4]", fillcolor="#8139e5"] ;
430 -> 434 ;
435 [label="entropy = 0.0\nsamples = 2\nvalue = [2, 0, 0]", fillcolor="#e58139"] ;
409 -> 435 ;
436 [label="X[18] <= 0.0\nentropy = 0.961\nsamples = 13\nvalue = [8, 0, 5]", fillcolor="#f5d0b5"] ;
388 -> 436 ;
437 [label="entropy = 0.0\nsamples = 3\nvalue = [3, 0, 0]", fillcolor="#e58139"] ;
436 -> 437 ;
438 [label="X[6] <= -0.5\nentropy = 1.0\nsamples = 10\nvalue = [5, 0, 5]", fillcolor="#ffffff"] ;
436 -> 438 ;
439 [label="entropy = 0.0\nsamples = 2\nvalue = [2, 0, 0]", fillcolor="#e58139"] ;
438 -> 439 ;
440 [label="X[30] <= -0.5\nentropy = 0.954\nsamples = 8\nvalue = [3, 0, 5]", fillcolor="#cdb0f5"] ;
438 -> 440 ;
441 [label="entropy = 0.0\nsamples = 1\nvalue = [1, 0, 0]", fillcolor="#e58139"] ;
440 -> 441 ;
442 [label="X[21] <= 0.5\nentropy = 0.863\nsamples = 7\nvalue = [2, 0, 5]", fillcolor="#b388ef"] ;
440 -> 442 ;
443 [label="entropy = 0.0\nsamples = 4\nvalue = [0, 0, 4]", fillcolor="#8139e5"] ;
442 -> 443 ;
444 [label="X[22] <= -0.5\nentropy = 0.918\nsamples = 3\nvalue = [2, 0, 1]", fillcolor="#f2c09c"] ;
442 -> 444 ;
445 [label="entropy = 0.0\nsamples = 1\nvalue = [0, 0, 1]", fillcolor="#8139e5"] ;
444 -> 445 ;
446 [label="entropy = 0.0\nsamples = 2\nvalue = [2, 0, 0]", fillcolor="#e58139"] ;
444 -> 446 ;
447 [label="X[14] <= -0.5\nentropy = 0.855\nsamples = 1143\nvalue = [98, 106, 939]", fillcolor="#9a60ea"] ;
371 -> 447 ;
448 [label="X[2] <= -0.5\nentropy = 1.466\nsamples = 119\nvalue = [36, 22, 61]", fillcolor="#d9c3f7"] ;
447 -> 448 ;
449 [label="X[18] <= -0.5\nentropy = 0.297\nsamples = 19\nvalue = [0, 1, 18]", fillcolor="#8844e6"] ;
448 -> 449 ;
450 [label="entropy = 0.0\nsamples = 1\nvalue = [0, 1, 0]", fillcolor="#39e581"] ;
449 -> 450 ;
451 [label="entropy = 0.0\nsamples = 18\nvalue = [0, 0, 18]", fillcolor="#8139e5"] ;
449 -> 451 ;
452 [label="X[6] <= -0.5\nentropy = 1.527\nsamples = 100\nvalue = [36, 21, 43]", fillcolor="#f1e9fc"] ;
448 -> 452 ;
453 [label="X[2] <= 0.5\nentropy = 1.312\nsamples = 19\nvalue = [12, 4, 3]", fillcolor="#f1bc95"] ;
452 -> 453 ;
454 [label="X[24] <= -0.5\nentropy = 1.457\nsamples = 15\nvalue = [8, 4, 3]", fillcolor="#f6d1b7"] ;
453 -> 454 ;
455 [label="entropy = 0.0\nsamples = 1\nvalue = [0, 0, 1]", fillcolor="#8139e5"] ;
454 -> 455 ;
456 [label="X[18] <= 0.5\nentropy = 1.379\nsamples = 14\nvalue = [8, 4, 2]", fillcolor="#f5cdb0"] ;
454 -> 456 ;
457 [label="X[30] <= -0.5\nentropy = 0.918\nsamples = 9\nvalue = [6, 3, 0]", fillcolor="#f2c09c"] ;
456 -> 457 ;
458 [label="entropy = 0.0\nsamples = 1\nvalue = [0, 1, 0]", fillcolor="#39e581"] ;
457 -> 458 ;
459 [label="X[36] <= -0.5\nentropy = 0.811\nsamples = 8\nvalue = [6, 2, 0]", fillcolor="#eeab7b"] ;
457 -> 459 ;
460 [label="entropy = 0.0\nsamples = 1\nvalue = [0, 1, 0]", fillcolor="#39e581"] ;
459 -> 460 ;
461 [label="X[31] <= 0.5\nentropy = 0.592\nsamples = 7\nvalue = [6, 1, 0]", fillcolor="#e9965a"] ;
459 -> 461 ;
462 [label="entropy = 0.0\nsamples = 6\nvalue = [6, 0, 0]", fillcolor="#e58139"] ;
461 -> 462 ;
463 [label="entropy = 0.0\nsamples = 1\nvalue = [0, 1, 0]", fillcolor="#39e581"] ;
461 -> 463 ;
464 [label="X[15] <= -0.5\nentropy = 1.522\nsamples = 5\nvalue = [2, 1, 2]", fillcolor="#ffffff"] ;
456 -> 464 ;
465 [label="entropy = 0.0\nsamples = 1\nvalue = [0, 1, 0]", fillcolor="#39e581"] ;
464 -> 465 ;
466 [label="X[12] <= 0.0\nentropy = 1.0\nsamples = 4\nvalue = [2, 0, 2]", fillcolor="#ffffff"] ;
464 -> 466 ;
467 [label="entropy = 0.0\nsamples = 1\nvalue = [0, 0, 1]", fillcolor="#8139e5"] ;
466 -> 467 ;
468 [label="X[15] <= 0.5\nentropy = 0.918\nsamples = 3\nvalue = [2, 0, 1]", fillcolor="#f2c09c"] ;
466 -> 468 ;
469 [label="entropy = 0.0\nsamples = 2\nvalue = [2, 0, 0]", fillcolor="#e58139"] ;
468 -> 469 ;
470 [label="entropy = 0.0\nsamples = 1\nvalue = [0, 0, 1]", fillcolor="#8139e5"] ;
468 -> 470 ;
471 [label="entropy = 0.0\nsamples = 4\nvalue = [4, 0, 0]", fillcolor="#e58139"] ;
453 -> 471 ;
472 [label="X[13] <= 0.0\nentropy = 1.495\nsamples = 81\nvalue = [24, 17, 40]", fillcolor="#dcc7f8"] ;
452 -> 472 ;
473 [label="X[31] <= 0.5\nentropy = 1.368\nsamples = 30\nvalue = [14, 3, 13]", fillcolor="#fdf8f3"] ;
472 -> 473 ;
474 [label="X[2] <= 0.5\nentropy = 1.197\nsamples = 25\nvalue = [11, 1, 13]", fillcolor="#ede3fb"] ;
473 -> 474 ;
475 [label="X[18] <= -0.5\nentropy = 1.041\nsamples = 12\nvalue = [2, 1, 9]", fillcolor="#a774ed"] ;
474 -> 475 ;
476 [label="X[24] <= 0.5\nentropy = 0.918\nsamples = 3\nvalue = [2, 0, 1]", fillcolor="#f2c09c"] ;
475 -> 476 ;
477 [label="entropy = 0.0\nsamples = 1\nvalue = [0, 0, 1]", fillcolor="#8139e5"] ;
476 -> 477 ;
478 [label="entropy = 0.0\nsamples = 2\nvalue = [2, 0, 0]", fillcolor="#e58139"] ;
476 -> 478 ;
479 [label="X[30] <= -0.5\nentropy = 0.503\nsamples = 9\nvalue = [0, 1, 8]", fillcolor="#9152e8"] ;
475 -> 479 ;
480 [label="entropy = 0.0\nsamples = 1\nvalue = [0, 1, 0]", fillcolor="#39e581"] ;
479 -> 480 ;
481 [label="entropy = 0.0\nsamples = 8\nvalue = [0, 0, 8]", fillcolor="#8139e5"] ;
479 -> 481 ;
482 [label="X[30] <= 0.5\nentropy = 0.89\nsamples = 13\nvalue = [9, 0, 4]", fillcolor="#f1b991"] ;
474 -> 482 ;
483 [label="X[3] <= -0.5\nentropy = 0.991\nsamples = 9\nvalue = [5, 0, 4]", fillcolor="#fae6d7"] ;
482 -> 483 ;
484 [label="X[4] <= 0.5\nentropy = 0.811\nsamples = 4\nvalue = [1, 0, 3]", fillcolor="#ab7bee"] ;
483 -> 484 ;
485 [label="entropy = 0.0\nsamples = 3\nvalue = [0, 0, 3]", fillcolor="#8139e5"] ;
484 -> 485 ;
486 [label="entropy = 0.0\nsamples = 1\nvalue = [1, 0, 0]", fillcolor="#e58139"] ;
484 -> 486 ;
487 [label="X[36] <= -0.5\nentropy = 0.722\nsamples = 5\nvalue = [4, 0, 1]", fillcolor="#eca06a"] ;
483 -> 487 ;
488 [label="entropy = 0.0\nsamples = 1\nvalue = [0, 0, 1]", fillcolor="#8139e5"] ;
487 -> 488 ;
489 [label="entropy = 0.0\nsamples = 4\nvalue = [4, 0, 0]", fillcolor="#e58139"] ;
487 -> 489 ;
490 [label="entropy = 0.0\nsamples = 4\nvalue = [4, 0, 0]", fillcolor="#e58139"] ;
482 -> 490 ;
491 [label="X[18] <= -0.5\nentropy = 0.971\nsamples = 5\nvalue = [3, 2, 0]", fillcolor="#f6d5bd"] ;
473 -> 491 ;
492 [label="entropy = 0.0\nsamples = 1\nvalue = [0, 1, 0]", fillcolor="#39e581"] ;
491 -> 492 ;
493 [label="X[32] <= 0.5\nentropy = 0.811\nsamples = 4\nvalue = [3, 1, 0]", fillcolor="#eeab7b"] ;
491 -> 493 ;
494 [label="entropy = 0.0\nsamples = 3\nvalue = [3, 0, 0]", fillcolor="#e58139"] ;
493 -> 494 ;
495 [label="entropy = 0.0\nsamples = 1\nvalue = [0, 1, 0]", fillcolor="#39e581"] ;
493 -> 495 ;
496 [label="X[15] <= 0.5\nentropy = 1.459\nsamples = 51\nvalue = [10, 14, 27]", fillcolor="#d3b9f6"] ;
472 -> 496 ;
497 [label="X[3] <= -0.5\nentropy = 1.377\nsamples = 42\nvalue = [9, 8, 25]", fillcolor="#c29ff2"] ;
496 -> 497 ;
498 [label="entropy = 0.0\nsamples = 2\nvalue = [0, 2, 0]", fillcolor="#39e581"] ;
497 -> 498 ;
499 [label="X[16] <= 0.5\nentropy = 1.319\nsamples = 40\nvalue = [9, 6, 25]", fillcolor="#be99f2"] ;
497 -> 499 ;
500 [label="X[37] <= 0.5\nentropy = 1.231\nsamples = 38\nvalue = [9, 4, 25]", fillcolor="#b992f1"] ;
499 -> 500 ;
501 [label="X[18] <= -0.5\nentropy = 1.177\nsamples = 36\nvalue = [7, 4, 25]", fillcolor="#b184ef"] ;
500 -> 501 ;
502 [label="X[19] <= 0.5\nentropy = 1.561\nsamples = 8\nvalue = [3, 2, 3]", fillcolor="#ffffff"] ;
501 -> 502 ;
503 [label="X[24] <= -0.5\nentropy = 1.459\nsamples = 6\nvalue = [3, 2, 1]", fillcolor="#f8e0ce"] ;
502 -> 503 ;
504 [label="X[2] <= 0.5\nentropy = 1.0\nsamples = 2\nvalue = [0, 1, 1]", fillcolor="#ffffff"] ;
503 -> 504 ;
505 [label="entropy = 0.0\nsamples = 1\nvalue = [0, 0, 1]", fillcolor="#8139e5"] ;
504 -> 505 ;
506 [label="entropy = 0.0\nsamples = 1\nvalue = [0, 1, 0]", fillcolor="#39e581"] ;
504 -> 506 ;
507 [label="X[24] <= 0.5\nentropy = 0.811\nsamples = 4\nvalue = [3, 1, 0]", fillcolor="#eeab7b"] ;
503 -> 507 ;
508 [label="entropy = 0.0\nsamples = 3\nvalue = [3, 0, 0]", fillcolor="#e58139"] ;
507 -> 508 ;
509 [label="entropy = 0.0\nsamples = 1\nvalue = [0, 1, 0]", fillcolor="#39e581"] ;
507 -> 509 ;
510 [label="entropy = 0.0\nsamples = 2\nvalue = [0, 0, 2]", fillcolor="#8139e5"] ;
502 -> 510 ;
511 [label="X[32] <= 0.5\nentropy = 0.946\nsamples = 28\nvalue = [4, 2, 22]", fillcolor="#a06bec"] ;
501 -> 511 ;
512 [label="X[2] <= 0.5\nentropy = 0.825\nsamples = 27\nvalue = [4, 1, 22]", fillcolor="#9c64eb"] ;
511 -> 512 ;
513 [label="X[31] <= 0.5\nentropy = 0.722\nsamples = 20\nvalue = [4, 0, 16]", fillcolor="#a06aec"] ;
512 -> 513 ;
514 [label="X[24] <= -0.5\nentropy = 0.567\nsamples = 15\nvalue = [2, 0, 13]", fillcolor="#9457e9"] ;
513 -> 514 ;
515 [label="X[25] <= 0.5\nentropy = 0.918\nsamples = 6\nvalue = [2, 0, 4]", fillcolor="#c09cf2"] ;
514 -> 515 ;
516 [label="X[25] <= -0.5\nentropy = 0.918\nsamples = 3\nvalue = [2, 0, 1]", fillcolor="#f2c09c"] ;
515 -> 516 ;
517 [label="entropy = 0.0\nsamples = 1\nvalue = [0, 0, 1]", fillcolor="#8139e5"] ;
516 -> 517 ;
518 [label="entropy = 0.0\nsamples = 2\nvalue = [2, 0, 0]", fillcolor="#e58139"] ;
516 -> 518 ;
519 [label="entropy = 0.0\nsamples = 3\nvalue = [0, 0, 3]", fillcolor="#8139e5"] ;
515 -> 519 ;
520 [label="entropy = 0.0\nsamples = 9\nvalue = [0, 0, 9]", fillcolor="#8139e5"] ;
514 -> 520 ;
521 [label="X[12] <= 0.0\nentropy = 0.971\nsamples = 5\nvalue = [2, 0, 3]", fillcolor="#d5bdf6"] ;
513 -> 521 ;
522 [label="entropy = 0.0\nsamples = 1\nvalue = [1, 0, 0]", fillcolor="#e58139"] ;
521 -> 522 ;
523 [label="X[32] <= -0.5\nentropy = 0.811\nsamples = 4\nvalue = [1, 0, 3]", fillcolor="#ab7bee"] ;
521 -> 523 ;
524 [label="entropy = 0.0\nsamples = 1\nvalue = [1, 0, 0]", fillcolor="#e58139"] ;
523 -> 524 ;
525 [label="entropy = 0.0\nsamples = 3\nvalue = [0, 0, 3]", fillcolor="#8139e5"] ;
523 -> 525 ;
526 [label="X[36] <= -0.5\nentropy = 0.592\nsamples = 7\nvalue = [0, 1, 6]", fillcolor="#965ae9"] ;
512 -> 526 ;
527 [label="X[30] <= -0.5\nentropy = 1.0\nsamples = 2\nvalue = [0, 1, 1]", fillcolor="#ffffff"] ;
526 -> 527 ;
528 [label="entropy = 0.0\nsamples = 1\nvalue = [0, 1, 0]", fillcolor="#39e581"] ;
527 -> 528 ;
529 [label="entropy = 0.0\nsamples = 1\nvalue = [0, 0, 1]", fillcolor="#8139e5"] ;
527 -> 529 ;
530 [label="entropy = 0.0\nsamples = 5\nvalue = [0, 0, 5]", fillcolor="#8139e5"] ;
526 -> 530 ;
531 [label="entropy = 0.0\nsamples = 1\nvalue = [0, 1, 0]", fillcolor="#39e581"] ;
511 -> 531 ;
532 [label="entropy = 0.0\nsamples = 2\nvalue = [2, 0, 0]", fillcolor="#e58139"] ;
500 -> 532 ;
533 [label="entropy = 0.0\nsamples = 2\nvalue = [0, 2, 0]", fillcolor="#39e581"] ;
499 -> 533 ;
534 [label="X[25] <= -0.5\nentropy = 1.224\nsamples = 9\nvalue = [1, 6, 2]", fillcolor="#8ef0b7"] ;
496 -> 534 ;
535 [label="entropy = 0.0\nsamples = 1\nvalue = [1, 0, 0]", fillcolor="#e58139"] ;
534 -> 535 ;
536 [label="X[37] <= -0.5\nentropy = 0.811\nsamples = 8\nvalue = [0, 6, 2]", fillcolor="#7beeab"] ;
534 -> 536 ;
537 [label="entropy = 0.0\nsamples = 1\nvalue = [0, 0, 1]", fillcolor="#8139e5"] ;
536 -> 537 ;
538 [label="X[24] <= -0.5\nentropy = 0.592\nsamples = 7\nvalue = [0, 6, 1]", fillcolor="#5ae996"] ;
536 -> 538 ;
539 [label="X[12] <= 0.0\nentropy = 1.0\nsamples = 2\nvalue = [0, 1, 1]", fillcolor="#ffffff"] ;
538 -> 539 ;
540 [label="entropy = 0.0\nsamples = 1\nvalue = [0, 0, 1]", fillcolor="#8139e5"] ;
539 -> 540 ;
541 [label="entropy = 0.0\nsamples = 1\nvalue = [0, 1, 0]", fillcolor="#39e581"] ;
539 -> 541 ;
542 [label="entropy = 0.0\nsamples = 5\nvalue = [0, 5, 0]", fillcolor="#39e581"] ;
538 -> 542 ;
543 [label="X[13] <= 0.5\nentropy = 0.731\nsamples = 1024\nvalue = [62, 84, 878]", fillcolor="#9558e9"] ;
447 -> 543 ;
544 [label="X[6] <= -0.5\nentropy = 0.819\nsamples = 851\nvalue = [61, 82, 708]", fillcolor="#985eea"] ;
543 -> 544 ;
545 [label="X[12] <= 0.5\nentropy = 0.516\nsamples = 363\nvalue = [9, 24, 330]", fillcolor="#8d4ce8"] ;
544 -> 545 ;
546 [label="X[19] <= -0.5\nentropy = 0.237\nsamples = 148\nvalue = [1, 4, 143]", fillcolor="#8540e6"] ;
545 -> 546 ;
547 [label="X[20] <= 0.5\nentropy = 0.503\nsamples = 27\nvalue = [0, 3, 24]", fillcolor="#9152e8"] ;
546 -> 547 ;
548 [label="X[8] <= 0.5\nentropy = 0.779\nsamples = 13\nvalue = [0, 3, 10]", fillcolor="#a774ed"] ;
547 -> 548 ;
549 [label="X[8] <= -0.5\nentropy = 0.954\nsamples = 8\nvalue = [0, 3, 5]", fillcolor="#cdb0f5"] ;
548 -> 549 ;
550 [label="entropy = 0.0\nsamples = 1\nvalue = [0, 1, 0]", fillcolor="#39e581"] ;
549 -> 550 ;
551 [label="X[7] <= 0.5\nentropy = 0.863\nsamples = 7\nvalue = [0, 2, 5]", fillcolor="#b388ef"] ;
549 -> 551 ;
552 [label="X[3] <= -0.5\nentropy = 0.918\nsamples = 3\nvalue = [0, 2, 1]", fillcolor="#9cf2c0"] ;
551 -> 552 ;
553 [label="entropy = 0.0\nsamples = 1\nvalue = [0, 0, 1]", fillcolor="#8139e5"] ;
552 -> 553 ;
554 [label="entropy = 0.0\nsamples = 2\nvalue = [0, 2, 0]", fillcolor="#39e581"] ;
552 -> 554 ;
555 [label="entropy = 0.0\nsamples = 4\nvalue = [0, 0, 4]", fillcolor="#8139e5"] ;
551 -> 555 ;
556 [label="entropy = 0.0\nsamples = 5\nvalue = [0, 0, 5]", fillcolor="#8139e5"] ;
548 -> 556 ;
557 [label="entropy = 0.0\nsamples = 14\nvalue = [0, 0, 14]", fillcolor="#8139e5"] ;
547 -> 557 ;
558 [label="X[9] <= -0.5\nentropy = 0.138\nsamples = 121\nvalue = [1, 1, 119]", fillcolor="#833ce5"] ;
546 -> 558 ;
559 [label="X[2] <= 0.5\nentropy = 0.592\nsamples = 7\nvalue = [1, 0, 6]", fillcolor="#965ae9"] ;
558 -> 559 ;
560 [label="entropy = 0.0\nsamples = 6\nvalue = [0, 0, 6]", fillcolor="#8139e5"] ;
559 -> 560 ;
561 [label="entropy = 0.0\nsamples = 1\nvalue = [1, 0, 0]", fillcolor="#e58139"] ;
559 -> 561 ;
562 [label="X[25] <= -0.5\nentropy = 0.073\nsamples = 114\nvalue = [0, 1, 113]", fillcolor="#823be5"] ;
558 -> 562 ;
563 [label="X[37] <= 0.5\nentropy = 0.544\nsamples = 8\nvalue = [0, 1, 7]", fillcolor="#9355e9"] ;
562 -> 563 ;
564 [label="entropy = 0.0\nsamples = 7\nvalue = [0, 0, 7]", fillcolor="#8139e5"] ;
563 -> 564 ;
565 [label="entropy = 0.0\nsamples = 1\nvalue = [0, 1, 0]", fillcolor="#39e581"] ;
563 -> 565 ;
566 [label="entropy = 0.0\nsamples = 106\nvalue = [0, 0, 106]", fillcolor="#8139e5"] ;
562 -> 566 ;
567 [label="X[24] <= 0.5\nentropy = 0.67\nsamples = 215\nvalue = [8, 20, 187]", fillcolor="#9355e9"] ;
545 -> 567 ;
568 [label="X[2] <= 0.5\nentropy = 0.507\nsamples = 172\nvalue = [5, 10, 157]", fillcolor="#8d4be7"] ;
567 -> 568 ;
569 [label="X[8] <= -0.5\nentropy = 0.342\nsamples = 126\nvalue = [1, 6, 119]", fillcolor="#8845e7"] ;
568 -> 569 ;
570 [label="X[19] <= -0.5\nentropy = 0.986\nsamples = 9\nvalue = [1, 1, 7]", fillcolor="#a06aec"] ;
569 -> 570 ;
571 [label="entropy = 0.0\nsamples = 1\nvalue = [1, 0, 0]", fillcolor="#e58139"] ;
570 -> 571 ;
572 [label="X[13] <= -0.5\nentropy = 0.544\nsamples = 8\nvalue = [0, 1, 7]", fillcolor="#9355e9"] ;
570 -> 572 ;
573 [label="entropy = 0.0\nsamples = 1\nvalue = [0, 1, 0]", fillcolor="#39e581"] ;
572 -> 573 ;
574 [label="entropy = 0.0\nsamples = 7\nvalue = [0, 0, 7]", fillcolor="#8139e5"] ;
572 -> 574 ;
575 [label="X[7] <= 0.5\nentropy = 0.255\nsamples = 117\nvalue = [0, 5, 112]", fillcolor="#8742e6"] ;
569 -> 575 ;
576 [label="X[26] <= -0.5\nentropy = 0.344\nsamples = 78\nvalue = [0, 5, 73]", fillcolor="#8a47e7"] ;
575 -> 576 ;
577 [label="entropy = 0.0\nsamples = 1\nvalue = [0, 1, 0]", fillcolor="#39e581"] ;
576 -> 577 ;
578 [label="X[37] <= 0.5\nentropy = 0.295\nsamples = 77\nvalue = [0, 4, 73]", fillcolor="#8844e6"] ;
576 -> 578 ;
579 [label="X[32] <= -0.5\nentropy = 0.194\nsamples = 67\nvalue = [0, 2, 65]", fillcolor="#853fe6"] ;
578 -> 579 ;
580 [label="X[24] <= -0.5\nentropy = 0.918\nsamples = 3\nvalue = [0, 1, 2]", fillcolor="#c09cf2"] ;
579 -> 580 ;
581 [label="entropy = 0.0\nsamples = 1\nvalue = [0, 1, 0]", fillcolor="#39e581"] ;
580 -> 581 ;
582 [label="entropy = 0.0\nsamples = 2\nvalue = [0, 0, 2]", fillcolor="#8139e5"] ;
580 -> 582 ;
583 [label="X[3] <= 0.5\nentropy = 0.116\nsamples = 64\nvalue = [0, 1, 63]", fillcolor="#833ce5"] ;
579 -> 583 ;
584 [label="entropy = 0.0\nsamples = 51\nvalue = [0, 0, 51]", fillcolor="#8139e5"] ;
583 -> 584 ;
585 [label="X[13] <= -0.5\nentropy = 0.391\nsamples = 13\nvalue = [0, 1, 12]", fillcolor="#8c49e7"] ;
583 -> 585 ;
586 [label="X[18] <= 0.5\nentropy = 0.918\nsamples = 3\nvalue = [0, 1, 2]", fillcolor="#c09cf2"] ;
585 -> 586 ;
587 [label="entropy = 0.0\nsamples = 2\nvalue = [0, 0, 2]", fillcolor="#8139e5"] ;
586 -> 587 ;
588 [label="entropy = 0.0\nsamples = 1\nvalue = [0, 1, 0]", fillcolor="#39e581"] ;
586 -> 588 ;
589 [label="entropy = 0.0\nsamples = 10\nvalue = [0, 0, 10]", fillcolor="#8139e5"] ;
585 -> 589 ;
590 [label="X[19] <= -0.5\nentropy = 0.722\nsamples = 10\nvalue = [0, 2, 8]", fillcolor="#a06aec"] ;
578 -> 590 ;
591 [label="entropy = 0.0\nsamples = 1\nvalue = [0, 1, 0]", fillcolor="#39e581"] ;
590 -> 591 ;
592 [label="X[18] <= -0.5\nentropy = 0.503\nsamples = 9\nvalue = [0, 1, 8]", fillcolor="#9152e8"] ;
590 -> 592 ;
593 [label="X[38] <= 0.5\nentropy = 1.0\nsamples = 2\nvalue = [0, 1, 1]", fillcolor="#ffffff"] ;
592 -> 593 ;
594 [label="entropy = 0.0\nsamples = 1\nvalue = [0, 0, 1]", fillcolor="#8139e5"] ;
593 -> 594 ;
595 [label="entropy = 0.0\nsamples = 1\nvalue = [0, 1, 0]", fillcolor="#39e581"] ;
593 -> 595 ;
596 [label="entropy = 0.0\nsamples = 7\nvalue = [0, 0, 7]", fillcolor="#8139e5"] ;
592 -> 596 ;
597 [label="entropy = 0.0\nsamples = 39\nvalue = [0, 0, 39]", fillcolor="#8139e5"] ;
575 -> 597 ;
598 [label="X[4] <= 0.5\nentropy = 0.84\nsamples = 46\nvalue = [4, 4, 38]", fillcolor="#995fea"] ;
568 -> 598 ;
599 [label="X[9] <= -0.5\nentropy = 0.642\nsamples = 42\nvalue = [2, 3, 37]", fillcolor="#9152e8"] ;
598 -> 599 ;
600 [label="entropy = 0.0\nsamples = 1\nvalue = [1, 0, 0]", fillcolor="#e58139"] ;
599 -> 600 ;
601 [label="X[15] <= -0.5\nentropy = 0.54\nsamples = 41\nvalue = [1, 3, 37]", fillcolor="#8e4ee8"] ;
599 -> 601 ;
602 [label="entropy = 0.0\nsamples = 1\nvalue = [0, 1, 0]", fillcolor="#39e581"] ;
601 -> 602 ;
603 [label="X[30] <= 0.5\nentropy = 0.453\nsamples = 40\nvalue = [1, 2, 37]", fillcolor="#8b49e7"] ;
601 -> 603 ;
604 [label="entropy = 0.0\nsamples = 28\nvalue = [0, 0, 28]", fillcolor="#8139e5"] ;
603 -> 604 ;
605 [label="X[19] <= -0.5\nentropy = 1.041\nsamples = 12\nvalue = [1, 2, 9]", fillcolor="#a774ed"] ;
603 -> 605 ;
606 [label="entropy = 0.0\nsamples = 1\nvalue = [1, 0, 0]", fillcolor="#e58139"] ;
605 -> 606 ;
607 [label="X[25] <= -0.5\nentropy = 0.684\nsamples = 11\nvalue = [0, 2, 9]", fillcolor="#9d65eb"] ;
605 -> 607 ;
608 [label="entropy = 0.0\nsamples = 1\nvalue = [0, 1, 0]", fillcolor="#39e581"] ;
607 -> 608 ;
609 [label="X[31] <= -0.5\nentropy = 0.469\nsamples = 10\nvalue = [0, 1, 9]", fillcolor="#8f4fe8"] ;
607 -> 609 ;
610 [label="entropy = 0.0\nsamples = 1\nvalue = [0, 1, 0]", fillcolor="#39e581"] ;
609 -> 610 ;
611 [label="entropy = 0.0\nsamples = 9\nvalue = [0, 0, 9]", fillcolor="#8139e5"] ;
609 -> 611 ;
612 [label="X[7] <= -0.5\nentropy = 1.5\nsamples = 4\nvalue = [2, 1, 1]", fillcolor="#f6d5bd"] ;
598 -> 612 ;
613 [label="entropy = 0.0\nsamples = 1\nvalue = [0, 1, 0]", fillcolor="#39e581"] ;
612 -> 613 ;
614 [label="X[36] <= -0.5\nentropy = 0.918\nsamples = 3\nvalue = [2, 0, 1]", fillcolor="#f2c09c"] ;
612 -> 614 ;
615 [label="entropy = 0.0\nsamples = 1\nvalue = [0, 0, 1]", fillcolor="#8139e5"] ;
614 -> 615 ;
616 [label="entropy = 0.0\nsamples = 2\nvalue = [2, 0, 0]", fillcolor="#e58139"] ;
614 -> 616 ;
617 [label="X[31] <= -0.5\nentropy = 1.12\nsamples = 43\nvalue = [3, 10, 30]", fillcolor="#b387ef"] ;
567 -> 617 ;
618 [label="X[30] <= 0.0\nentropy = 0.918\nsamples = 3\nvalue = [2, 1, 0]", fillcolor="#f2c09c"] ;
617 -> 618 ;
619 [label="entropy = 0.0\nsamples = 2\nvalue = [2, 0, 0]", fillcolor="#e58139"] ;
618 -> 619 ;
620 [label="entropy = 0.0\nsamples = 1\nvalue = [0, 1, 0]", fillcolor="#39e581"] ;
618 -> 620 ;
621 [label="X[18] <= 0.5\nentropy = 0.929\nsamples = 40\nvalue = [1, 9, 30]", fillcolor="#aa79ed"] ;
617 -> 621 ;
622 [label="X[7] <= -0.5\nentropy = 0.79\nsamples = 38\nvalue = [0, 9, 29]", fillcolor="#a876ed"] ;
621 -> 622 ;
623 [label="entropy = 0.0\nsamples = 8\nvalue = [0, 0, 8]", fillcolor="#8139e5"] ;
622 -> 623 ;
624 [label="X[2] <= -0.5\nentropy = 0.881\nsamples = 30\nvalue = [0, 9, 21]", fillcolor="#b78ef0"] ;
622 -> 624 ;
625 [label="X[3] <= 0.5\nentropy = 0.439\nsamples = 11\nvalue = [0, 1, 10]", fillcolor="#8e4de8"] ;
624 -> 625 ;
626 [label="entropy = 0.0\nsamples = 9\nvalue = [0, 0, 9]", fillcolor="#8139e5"] ;
625 -> 626 ;
627 [label="X[30] <= -0.5\nentropy = 1.0\nsamples = 2\nvalue = [0, 1, 1]", fillcolor="#ffffff"] ;
625 -> 627 ;
628 [label="entropy = 0.0\nsamples = 1\nvalue = [0, 0, 1]", fillcolor="#8139e5"] ;
627 -> 628 ;
629 [label="entropy = 0.0\nsamples = 1\nvalue = [0, 1, 0]", fillcolor="#39e581"] ;
627 -> 629 ;
630 [label="X[26] <= -0.5\nentropy = 0.982\nsamples = 19\nvalue = [0, 8, 11]", fillcolor="#ddc9f8"] ;
624 -> 630 ;
631 [label="entropy = 0.0\nsamples = 2\nvalue = [0, 2, 0]", fillcolor="#39e581"] ;
630 -> 631 ;
632 [label="X[31] <= 0.5\nentropy = 0.937\nsamples = 17\nvalue = [0, 6, 11]", fillcolor="#c6a5f3"] ;
630 -> 632 ;
633 [label="X[15] <= -0.5\nentropy = 0.896\nsamples = 16\nvalue = [0, 5, 11]", fillcolor="#ba93f1"] ;
632 -> 633 ;
634 [label="entropy = 0.0\nsamples = 1\nvalue = [0, 1, 0]", fillcolor="#39e581"] ;
633 -> 634 ;
635 [label="X[3] <= -0.5\nentropy = 0.837\nsamples = 15\nvalue = [0, 4, 11]", fillcolor="#af81ee"] ;
633 -> 635 ;
636 [label="entropy = 0.0\nsamples = 1\nvalue = [0, 1, 0]", fillcolor="#39e581"] ;
635 -> 636 ;
637 [label="X[14] <= 0.5\nentropy = 0.75\nsamples = 14\nvalue = [0, 3, 11]", fillcolor="#a36fec"] ;
635 -> 637 ;
638 [label="X[25] <= -0.5\nentropy = 0.845\nsamples = 11\nvalue = [0, 3, 8]", fillcolor="#b083ef"] ;
637 -> 638 ;
639 [label="entropy = 0.0\nsamples = 1\nvalue = [0, 0, 1]", fillcolor="#8139e5"] ;
638 -> 639 ;
640 [label="X[19] <= -0.5\nentropy = 0.881\nsamples = 10\nvalue = [0, 3, 7]", fillcolor="#b78ef0"] ;
638 -> 640 ;
641 [label="entropy = 0.0\nsamples = 1\nvalue = [0, 0, 1]", fillcolor="#8139e5"] ;
640 -> 641 ;
642 [label="X[25] <= 0.5\nentropy = 0.918\nsamples = 9\nvalue = [0, 3, 6]", fillcolor="#c09cf2"] ;
640 -> 642 ;
643 [label="X[30] <= -0.5\nentropy = 0.954\nsamples = 8\nvalue = [0, 3, 5]", fillcolor="#cdb0f5"] ;
642 -> 643 ;
644 [label="entropy = 0.0\nsamples = 1\nvalue = [0, 1, 0]", fillcolor="#39e581"] ;
643 -> 644 ;
645 [label="X[36] <= -0.5\nentropy = 0.863\nsamples = 7\nvalue = [0, 2, 5]", fillcolor="#b388ef"] ;
643 -> 645 ;
646 [label="entropy = 0.0\nsamples = 3\nvalue = [0, 0, 3]", fillcolor="#8139e5"] ;
645 -> 646 ;
647 [label="X[30] <= 0.5\nentropy = 1.0\nsamples = 4\nvalue = [0, 2, 2]", fillcolor="#ffffff"] ;
645 -> 647 ;
648 [label="X[8] <= -0.5\nentropy = 0.918\nsamples = 3\nvalue = [0, 1, 2]", fillcolor="#c09cf2"] ;
647 -> 648 ;
649 [label="entropy = 0.0\nsamples = 1\nvalue = [0, 1, 0]", fillcolor="#39e581"] ;
648 -> 649 ;
650 [label="entropy = 0.0\nsamples = 2\nvalue = [0, 0, 2]", fillcolor="#8139e5"] ;
648 -> 650 ;
651 [label="entropy = 0.0\nsamples = 1\nvalue = [0, 1, 0]", fillcolor="#39e581"] ;
647 -> 651 ;
652 [label="entropy = 0.0\nsamples = 1\nvalue = [0, 0, 1]", fillcolor="#8139e5"] ;
642 -> 652 ;
653 [label="entropy = 0.0\nsamples = 3\nvalue = [0, 0, 3]", fillcolor="#8139e5"] ;
637 -> 653 ;
654 [label="entropy = 0.0\nsamples = 1\nvalue = [0, 1, 0]", fillcolor="#39e581"] ;
632 -> 654 ;
655 [label="X[13] <= -0.5\nentropy = 1.0\nsamples = 2\nvalue = [1, 0, 1]", fillcolor="#ffffff"] ;
621 -> 655 ;
656 [label="entropy = 0.0\nsamples = 1\nvalue = [1, 0, 0]", fillcolor="#e58139"] ;
655 -> 656 ;
657 [label="entropy = 0.0\nsamples = 1\nvalue = [0, 0, 1]", fillcolor="#8139e5"] ;
655 -> 657 ;
658 [label="X[18] <= -0.5\nentropy = 0.995\nsamples = 488\nvalue = [52, 58, 378]", fillcolor="#a16cec"] ;
544 -> 658 ;
659 [label="X[19] <= 0.5\nentropy = 1.356\nsamples = 115\nvalue = [24, 21, 70]", fillcolor="#bf9bf2"] ;
658 -> 659 ;
660 [label="X[19] <= -0.5\nentropy = 1.495\nsamples = 86\nvalue = [24, 19, 43]", fillcolor="#d8c2f7"] ;
659 -> 660 ;
661 [label="X[13] <= -0.5\nentropy = 0.971\nsamples = 20\nvalue = [12, 0, 8]", fillcolor="#f6d5bd"] ;
660 -> 661 ;
662 [label="X[24] <= 0.5\nentropy = 0.592\nsamples = 7\nvalue = [1, 0, 6]", fillcolor="#965ae9"] ;
661 -> 662 ;
663 [label="entropy = 0.0\nsamples = 5\nvalue = [0, 0, 5]", fillcolor="#8139e5"] ;
662 -> 663 ;
664 [label="X[14] <= 0.5\nentropy = 1.0\nsamples = 2\nvalue = [1, 0, 1]", fillcolor="#ffffff"] ;
662 -> 664 ;
665 [label="entropy = 0.0\nsamples = 1\nvalue = [0, 0, 1]", fillcolor="#8139e5"] ;
664 -> 665 ;
666 [label="entropy = 0.0\nsamples = 1\nvalue = [1, 0, 0]", fillcolor="#e58139"] ;
664 -> 666 ;
667 [label="X[24] <= -0.5\nentropy = 0.619\nsamples = 13\nvalue = [11, 0, 2]", fillcolor="#ea985d"] ;
661 -> 667 ;
668 [label="entropy = 0.0\nsamples = 1\nvalue = [0, 0, 1]", fillcolor="#8139e5"] ;
667 -> 668 ;
669 [label="X[36] <= -0.5\nentropy = 0.414\nsamples = 12\nvalue = [11, 0, 1]", fillcolor="#e78c4b"] ;
667 -> 669 ;
670 [label="X[24] <= 0.5\nentropy = 0.918\nsamples = 3\nvalue = [2, 0, 1]", fillcolor="#f2c09c"] ;
669 -> 670 ;
671 [label="entropy = 0.0\nsamples = 2\nvalue = [2, 0, 0]", fillcolor="#e58139"] ;
670 -> 671 ;
672 [label="entropy = 0.0\nsamples = 1\nvalue = [0, 0, 1]", fillcolor="#8139e5"] ;
670 -> 672 ;
673 [label="entropy = 0.0\nsamples = 9\nvalue = [9, 0, 0]", fillcolor="#e58139"] ;
669 -> 673 ;
674 [label="X[24] <= -0.5\nentropy = 1.45\nsamples = 66\nvalue = [12, 19, 35]", fillcolor="#d4bcf6"] ;
660 -> 674 ;
675 [label="X[4] <= 0.5\nentropy = 0.65\nsamples = 18\nvalue = [0, 3, 15]", fillcolor="#9a61ea"] ;
674 -> 675 ;
676 [label="X[32] <= 0.5\nentropy = 0.523\nsamples = 17\nvalue = [0, 2, 15]", fillcolor="#9253e8"] ;
675 -> 676 ;
677 [label="X[13] <= -0.5\nentropy = 0.337\nsamples = 16\nvalue = [0, 1, 15]", fillcolor="#8946e7"] ;
676 -> 677 ;
678 [label="X[2] <= 0.5\nentropy = 0.811\nsamples = 4\nvalue = [0, 1, 3]", fillcolor="#ab7bee"] ;
677 -> 678 ;
679 [label="entropy = 0.0\nsamples = 3\nvalue = [0, 0, 3]", fillcolor="#8139e5"] ;
678 -> 679 ;
680 [label="entropy = 0.0\nsamples = 1\nvalue = [0, 1, 0]", fillcolor="#39e581"] ;
678 -> 680 ;
681 [label="entropy = 0.0\nsamples = 12\nvalue = [0, 0, 12]", fillcolor="#8139e5"] ;
677 -> 681 ;
682 [label="entropy = 0.0\nsamples = 1\nvalue = [0, 1, 0]", fillcolor="#39e581"] ;
676 -> 682 ;
683 [label="entropy = 0.0\nsamples = 1\nvalue = [0, 1, 0]", fillcolor="#39e581"] ;
675 -> 683 ;
684 [label="X[14] <= 0.5\nentropy = 1.555\nsamples = 48\nvalue = [12, 16, 20]", fillcolor="#efe6fc"] ;
674 -> 684 ;
685 [label="X[13] <= -0.5\nentropy = 1.559\nsamples = 40\nvalue = [10, 16, 14]", fillcolor="#f0fdf5"] ;
684 -> 685 ;
686 [label="X[2] <= 0.5\nentropy = 1.295\nsamples = 10\nvalue = [6, 3, 1]", fillcolor="#f4c9aa"] ;
685 -> 686 ;
687 [label="X[32] <= 0.5\nentropy = 0.985\nsamples = 7\nvalue = [4, 3, 0]", fillcolor="#f8e0ce"] ;
686 -> 687 ;
688 [label="X[37] <= 0.5\nentropy = 0.918\nsamples = 6\nvalue = [4, 2, 0]", fillcolor="#f2c09c"] ;
687 -> 688 ;
689 [label="X[24] <= 0.5\nentropy = 0.722\nsamples = 5\nvalue = [4, 1, 0]", fillcolor="#eca06a"] ;
688 -> 689 ;
690 [label="X[4] <= 0.5\nentropy = 1.0\nsamples = 2\nvalue = [1, 1, 0]", fillcolor="#ffffff"] ;
689 -> 690 ;
691 [label="entropy = 0.0\nsamples = 1\nvalue = [0, 1, 0]", fillcolor="#39e581"] ;
690 -> 691 ;
692 [label="entropy = 0.0\nsamples = 1\nvalue = [1, 0, 0]", fillcolor="#e58139"] ;
690 -> 692 ;
693 [label="entropy = 0.0\nsamples = 3\nvalue = [3, 0, 0]", fillcolor="#e58139"] ;
689 -> 693 ;
694 [label="entropy = 0.0\nsamples = 1\nvalue = [0, 1, 0]", fillcolor="#39e581"] ;
688 -> 694 ;
695 [label="entropy = 0.0\nsamples = 1\nvalue = [0, 1, 0]", fillcolor="#39e581"] ;
687 -> 695 ;
696 [label="X[3] <= -0.5\nentropy = 0.918\nsamples = 3\nvalue = [2, 0, 1]", fillcolor="#f2c09c"] ;
686 -> 696 ;
697 [label="entropy = 0.0\nsamples = 2\nvalue = [2, 0, 0]", fillcolor="#e58139"] ;
696 -> 697 ;
698 [label="entropy = 0.0\nsamples = 1\nvalue = [0, 0, 1]", fillcolor="#8139e5"] ;
696 -> 698 ;
699 [label="X[30] <= -0.5\nentropy = 1.433\nsamples = 30\nvalue = [4, 13, 13]", fillcolor="#ffffff"] ;
685 -> 699 ;
700 [label="X[31] <= -0.5\nentropy = 0.65\nsamples = 6\nvalue = [1, 0, 5]", fillcolor="#9a61ea"] ;
699 -> 700 ;
701 [label="entropy = 0.0\nsamples = 1\nvalue = [1, 0, 0]", fillcolor="#e58139"] ;
700 -> 701 ;
702 [label="entropy = 0.0\nsamples = 5\nvalue = [0, 0, 5]", fillcolor="#8139e5"] ;
700 -> 702 ;
703 [label="X[30] <= 0.5\nentropy = 1.382\nsamples = 24\nvalue = [3, 13, 8]", fillcolor="#c1f7d8"] ;
699 -> 703 ;
704 [label="X[37] <= -0.5\nentropy = 1.157\nsamples = 10\nvalue = [2, 7, 1]", fillcolor="#83efb0"] ;
703 -> 704 ;
705 [label="X[24] <= 0.5\nentropy = 1.0\nsamples = 2\nvalue = [0, 1, 1]", fillcolor="#ffffff"] ;
704 -> 705 ;
706 [label="entropy = 0.0\nsamples = 1\nvalue = [0, 1, 0]", fillcolor="#39e581"] ;
705 -> 706 ;
707 [label="entropy = 0.0\nsamples = 1\nvalue = [0, 0, 1]", fillcolor="#8139e5"] ;
705 -> 707 ;
708 [label="X[37] <= 0.5\nentropy = 0.811\nsamples = 8\nvalue = [2, 6, 0]", fillcolor="#7beeab"] ;
704 -> 708 ;
709 [label="X[36] <= -0.5\nentropy = 0.592\nsamples = 7\nvalue = [1, 6, 0]", fillcolor="#5ae996"] ;
708 -> 709 ;
710 [label="X[4] <= 0.5\nentropy = 0.811\nsamples = 4\nvalue = [1, 3, 0]", fillcolor="#7beeab"] ;
709 -> 710 ;
711 [label="entropy = 0.0\nsamples = 2\nvalue = [0, 2, 0]", fillcolor="#39e581"] ;
710 -> 711 ;
712 [label="X[3] <= 0.0\nentropy = 1.0\nsamples = 2\nvalue = [1, 1, 0]", fillcolor="#ffffff"] ;
710 -> 712 ;
713 [label="entropy = 0.0\nsamples = 1\nvalue = [0, 1, 0]", fillcolor="#39e581"] ;
712 -> 713 ;
714 [label="entropy = 0.0\nsamples = 1\nvalue = [1, 0, 0]", fillcolor="#e58139"] ;
712 -> 714 ;
715 [label="entropy = 0.0\nsamples = 3\nvalue = [0, 3, 0]", fillcolor="#39e581"] ;
709 -> 715 ;
716 [label="entropy = 0.0\nsamples = 1\nvalue = [1, 0, 0]", fillcolor="#e58139"] ;
708 -> 716 ;
717 [label="X[24] <= 0.5\nentropy = 1.296\nsamples = 14\nvalue = [1, 6, 7]", fillcolor="#efe6fc"] ;
703 -> 717 ;
718 [label="X[38] <= -0.5\nentropy = 0.996\nsamples = 13\nvalue = [0, 6, 7]", fillcolor="#ede3fb"] ;
717 -> 718 ;
719 [label="entropy = 0.0\nsamples = 1\nvalue = [0, 1, 0]", fillcolor="#39e581"] ;
718 -> 719 ;
720 [label="X[33] <= -0.5\nentropy = 0.98\nsamples = 12\nvalue = [0, 5, 7]", fillcolor="#dbc6f8"] ;
718 -> 720 ;
721 [label="entropy = 0.0\nsamples = 1\nvalue = [0, 1, 0]", fillcolor="#39e581"] ;
720 -> 721 ;
722 [label="X[38] <= 0.5\nentropy = 0.946\nsamples = 11\nvalue = [0, 4, 7]", fillcolor="#c9aaf4"] ;
720 -> 722 ;
723 [label="X[4] <= 0.5\nentropy = 0.881\nsamples = 10\nvalue = [0, 3, 7]", fillcolor="#b78ef0"] ;
722 -> 723 ;
724 [label="X[3] <= -0.5\nentropy = 0.764\nsamples = 9\nvalue = [0, 2, 7]", fillcolor="#a572ec"] ;
723 -> 724 ;
725 [label="entropy = 0.0\nsamples = 2\nvalue = [0, 0, 2]", fillcolor="#8139e5"] ;
724 -> 725 ;
726 [label="X[31] <= 0.5\nentropy = 0.863\nsamples = 7\nvalue = [0, 2, 5]", fillcolor="#b388ef"] ;
724 -> 726 ;
727 [label="X[2] <= 0.5\nentropy = 0.65\nsamples = 6\nvalue = [0, 1, 5]", fillcolor="#9a61ea"] ;
726 -> 727 ;
728 [label="entropy = 0.0\nsamples = 4\nvalue = [0, 0, 4]", fillcolor="#8139e5"] ;
727 -> 728 ;
729 [label="X[37] <= -0.5\nentropy = 1.0\nsamples = 2\nvalue = [0, 1, 1]", fillcolor="#ffffff"] ;
727 -> 729 ;
730 [label="entropy = 0.0\nsamples = 1\nvalue = [0, 0, 1]", fillcolor="#8139e5"] ;
729 -> 730 ;
731 [label="entropy = 0.0\nsamples = 1\nvalue = [0, 1, 0]", fillcolor="#39e581"] ;
729 -> 731 ;
732 [label="entropy = 0.0\nsamples = 1\nvalue = [0, 1, 0]", fillcolor="#39e581"] ;
726 -> 732 ;
733 [label="entropy = 0.0\nsamples = 1\nvalue = [0, 1, 0]", fillcolor="#39e581"] ;
723 -> 733 ;
734 [label="entropy = 0.0\nsamples = 1\nvalue = [0, 1, 0]", fillcolor="#39e581"] ;
722 -> 734 ;
735 [label="entropy = 0.0\nsamples = 1\nvalue = [1, 0, 0]", fillcolor="#e58139"] ;
717 -> 735 ;
736 [label="X[15] <= -0.5\nentropy = 0.811\nsamples = 8\nvalue = [2, 0, 6]", fillcolor="#ab7bee"] ;
684 -> 736 ;
737 [label="X[30] <= 0.5\nentropy = 0.918\nsamples = 3\nvalue = [2, 0, 1]", fillcolor="#f2c09c"] ;
736 -> 737 ;
738 [label="entropy = 0.0\nsamples = 2\nvalue = [2, 0, 0]", fillcolor="#e58139"] ;
737 -> 738 ;
739 [label="entropy = 0.0\nsamples = 1\nvalue = [0, 0, 1]", fillcolor="#8139e5"] ;
737 -> 739 ;
740 [label="entropy = 0.0\nsamples = 5\nvalue = [0, 0, 5]", fillcolor="#8139e5"] ;
736 -> 740 ;
741 [label="X[2] <= -0.5\nentropy = 0.362\nsamples = 29\nvalue = [0, 2, 27]", fillcolor="#8a48e7"] ;
659 -> 741 ;
742 [label="X[3] <= -0.5\nentropy = 0.684\nsamples = 11\nvalue = [0, 2, 9]", fillcolor="#9d65eb"] ;
741 -> 742 ;
743 [label="entropy = 0.0\nsamples = 1\nvalue = [0, 1, 0]", fillcolor="#39e581"] ;
742 -> 743 ;
744 [label="X[13] <= -0.5\nentropy = 0.469\nsamples = 10\nvalue = [0, 1, 9]", fillcolor="#8f4fe8"] ;
742 -> 744 ;
745 [label="X[30] <= 0.5\nentropy = 1.0\nsamples = 2\nvalue = [0, 1, 1]", fillcolor="#ffffff"] ;
744 -> 745 ;
746 [label="entropy = 0.0\nsamples = 1\nvalue = [0, 0, 1]", fillcolor="#8139e5"] ;
745 -> 746 ;
747 [label="entropy = 0.0\nsamples = 1\nvalue = [0, 1, 0]", fillcolor="#39e581"] ;
745 -> 747 ;
748 [label="entropy = 0.0\nsamples = 8\nvalue = [0, 0, 8]", fillcolor="#8139e5"] ;
744 -> 748 ;
749 [label="entropy = 0.0\nsamples = 18\nvalue = [0, 0, 18]", fillcolor="#8139e5"] ;
741 -> 749 ;
750 [label="X[25] <= -0.5\nentropy = 0.839\nsamples = 373\nvalue = [28, 37, 308]", fillcolor="#995fea"] ;
658 -> 750 ;
751 [label="X[24] <= 0.0\nentropy = 0.831\nsamples = 38\nvalue = [10, 0, 28]", fillcolor="#ae80ee"] ;
750 -> 751 ;
752 [label="X[31] <= 0.5\nentropy = 0.961\nsamples = 13\nvalue = [8, 0, 5]", fillcolor="#f5d0b5"] ;
751 -> 752 ;
753 [label="X[36] <= -0.5\nentropy = 0.845\nsamples = 11\nvalue = [8, 0, 3]", fillcolor="#efb083"] ;
752 -> 753 ;
754 [label="entropy = 0.0\nsamples = 1\nvalue = [0, 0, 1]", fillcolor="#8139e5"] ;
753 -> 754 ;
755 [label="X[30] <= -0.5\nentropy = 0.722\nsamples = 10\nvalue = [8, 0, 2]", fillcolor="#eca06a"] ;
753 -> 755 ;
756 [label="entropy = 0.0\nsamples = 1\nvalue = [0, 0, 1]", fillcolor="#8139e5"] ;
755 -> 756 ;
757 [label="X[2] <= -0.5\nentropy = 0.503\nsamples = 9\nvalue = [8, 0, 1]", fillcolor="#e89152"] ;
755 -> 757 ;
758 [label="entropy = 0.0\nsamples = 1\nvalue = [0, 0, 1]", fillcolor="#8139e5"] ;
757 -> 758 ;
759 [label="entropy = 0.0\nsamples = 8\nvalue = [8, 0, 0]", fillcolor="#e58139"] ;
757 -> 759 ;
760 [label="entropy = 0.0\nsamples = 2\nvalue = [0, 0, 2]", fillcolor="#8139e5"] ;
752 -> 760 ;
761 [label="X[2] <= 0.5\nentropy = 0.402\nsamples = 25\nvalue = [2, 0, 23]", fillcolor="#8c4ae7"] ;
751 -> 761 ;
762 [label="entropy = 0.0\nsamples = 19\nvalue = [0, 0, 19]", fillcolor="#8139e5"] ;
761 -> 762 ;
763 [label="X[26] <= -0.5\nentropy = 0.918\nsamples = 6\nvalue = [2, 0, 4]", fillcolor="#c09cf2"] ;
761 -> 763 ;
764 [label="entropy = 0.0\nsamples = 3\nvalue = [0, 0, 3]", fillcolor="#8139e5"] ;
763 -> 764 ;
765 [label="X[36] <= -0.5\nentropy = 0.918\nsamples = 3\nvalue = [2, 0, 1]", fillcolor="#f2c09c"] ;
763 -> 765 ;
766 [label="entropy = 0.0\nsamples = 1\nvalue = [0, 0, 1]", fillcolor="#8139e5"] ;
765 -> 766 ;
767 [label="entropy = 0.0\nsamples = 2\nvalue = [2, 0, 0]", fillcolor="#e58139"] ;
765 -> 767 ;
768 [label="X[24] <= -0.5\nentropy = 0.794\nsamples = 335\nvalue = [18, 37, 280]", fillcolor="#985eea"] ;
750 -> 768 ;
769 [label="X[19] <= -0.5\nentropy = 1.111\nsamples = 92\nvalue = [8, 18, 66]", fillcolor="#ad7fee"] ;
768 -> 769 ;
770 [label="X[20] <= 0.5\nentropy = 1.432\nsamples = 14\nvalue = [5, 2, 7]", fillcolor="#e3d3f9"] ;
769 -> 770 ;
771 [label="X[25] <= 0.5\nentropy = 1.0\nsamples = 10\nvalue = [5, 0, 5]", fillcolor="#ffffff"] ;
770 -> 771 ;
772 [label="X[30] <= -0.5\nentropy = 0.954\nsamples = 8\nvalue = [5, 0, 3]", fillcolor="#f5cdb0"] ;
771 -> 772 ;
773 [label="entropy = 0.0\nsamples = 1\nvalue = [0, 0, 1]", fillcolor="#8139e5"] ;
772 -> 773 ;
774 [label="X[14] <= 0.5\nentropy = 0.863\nsamples = 7\nvalue = [5, 0, 2]", fillcolor="#efb388"] ;
772 -> 774 ;
775 [label="X[30] <= 0.5\nentropy = 0.918\nsamples = 6\nvalue = [4, 0, 2]", fillcolor="#f2c09c"] ;
774 -> 775 ;
776 [label="X[4] <= -0.5\nentropy = 0.971\nsamples = 5\nvalue = [3, 0, 2]", fillcolor="#f6d5bd"] ;
775 -> 776 ;
777 [label="entropy = 0.0\nsamples = 1\nvalue = [1, 0, 0]", fillcolor="#e58139"] ;
776 -> 777 ;
778 [label="X[4] <= 0.5\nentropy = 1.0\nsamples = 4\nvalue = [2, 0, 2]", fillcolor="#ffffff"] ;
776 -> 778 ;
779 [label="X[36] <= -0.5\nentropy = 0.918\nsamples = 3\nvalue = [1, 0, 2]", fillcolor="#c09cf2"] ;
778 -> 779 ;
780 [label="X[2] <= 0.5\nentropy = 1.0\nsamples = 2\nvalue = [1, 0, 1]", fillcolor="#ffffff"] ;
779 -> 780 ;
781 [label="entropy = 0.0\nsamples = 1\nvalue = [1, 0, 0]", fillcolor="#e58139"] ;
780 -> 781 ;
782 [label="entropy = 0.0\nsamples = 1\nvalue = [0, 0, 1]", fillcolor="#8139e5"] ;
780 -> 782 ;
783 [label="entropy = 0.0\nsamples = 1\nvalue = [0, 0, 1]", fillcolor="#8139e5"] ;
779 -> 783 ;
784 [label="entropy = 0.0\nsamples = 1\nvalue = [1, 0, 0]", fillcolor="#e58139"] ;
778 -> 784 ;
785 [label="entropy = 0.0\nsamples = 1\nvalue = [1, 0, 0]", fillcolor="#e58139"] ;
775 -> 785 ;
786 [label="entropy = 0.0\nsamples = 1\nvalue = [1, 0, 0]", fillcolor="#e58139"] ;
774 -> 786 ;
787 [label="entropy = 0.0\nsamples = 2\nvalue = [0, 0, 2]", fillcolor="#8139e5"] ;
771 -> 787 ;
788 [label="X[2] <= -0.5\nentropy = 1.0\nsamples = 4\nvalue = [0, 2, 2]", fillcolor="#ffffff"] ;
770 -> 788 ;
789 [label="entropy = 0.0\nsamples = 1\nvalue = [0, 1, 0]", fillcolor="#39e581"] ;
788 -> 789 ;
790 [label="X[21] <= -0.5\nentropy = 0.918\nsamples = 3\nvalue = [0, 1, 2]", fillcolor="#c09cf2"] ;
788 -> 790 ;
791 [label="entropy = 0.0\nsamples = 1\nvalue = [0, 1, 0]", fillcolor="#39e581"] ;
790 -> 791 ;
792 [label="entropy = 0.0\nsamples = 2\nvalue = [0, 0, 2]", fillcolor="#8139e5"] ;
790 -> 792 ;
793 [label="X[30] <= -0.5\nentropy = 0.954\nsamples = 78\nvalue = [3, 16, 59]", fillcolor="#a876ed"] ;
769 -> 793 ;
794 [label="X[3] <= -0.5\nentropy = 0.391\nsamples = 13\nvalue = [1, 0, 12]", fillcolor="#8c49e7"] ;
793 -> 794 ;
795 [label="X[31] <= 0.5\nentropy = 1.0\nsamples = 2\nvalue = [1, 0, 1]", fillcolor="#ffffff"] ;
794 -> 795 ;
796 [label="entropy = 0.0\nsamples = 1\nvalue = [1, 0, 0]", fillcolor="#e58139"] ;
795 -> 796 ;
797 [label="entropy = 0.0\nsamples = 1\nvalue = [0, 0, 1]", fillcolor="#8139e5"] ;
795 -> 797 ;
798 [label="entropy = 0.0\nsamples = 11\nvalue = [0, 0, 11]", fillcolor="#8139e5"] ;
794 -> 798 ;
799 [label="X[12] <= -0.5\nentropy = 0.991\nsamples = 65\nvalue = [2, 16, 47]", fillcolor="#af82ef"] ;
793 -> 799 ;
800 [label="entropy = 0.0\nsamples = 7\nvalue = [0, 0, 7]", fillcolor="#8139e5"] ;
799 -> 800 ;
801 [label="X[25] <= 0.5\nentropy = 1.05\nsamples = 58\nvalue = [2, 16, 40]", fillcolor="#b78ef0"] ;
799 -> 801 ;
802 [label="X[13] <= -0.5\nentropy = 1.204\nsamples = 37\nvalue = [2, 13, 22]", fillcolor="#d0b5f5"] ;
801 -> 802 ;
803 [label="X[4] <= -0.5\nentropy = 1.281\nsamples = 12\nvalue = [1, 7, 4]", fillcolor="#b5f5d0"] ;
802 -> 803 ;
804 [label="entropy = 0.0\nsamples = 1\nvalue = [1, 0, 0]", fillcolor="#e58139"] ;
803 -> 804 ;
805 [label="X[2] <= 0.5\nentropy = 0.946\nsamples = 11\nvalue = [0, 7, 4]", fillcolor="#aaf4c9"] ;
803 -> 805 ;
806 [label="X[14] <= 0.5\nentropy = 1.0\nsamples = 8\nvalue = [0, 4, 4]", fillcolor="#ffffff"] ;
805 -> 806 ;
807 [label="X[36] <= -0.5\nentropy = 0.811\nsamples = 4\nvalue = [0, 3, 1]", fillcolor="#7beeab"] ;
806 -> 807 ;
808 [label="entropy = 0.0\nsamples = 1\nvalue = [0, 0, 1]", fillcolor="#8139e5"] ;
807 -> 808 ;
809 [label="entropy = 0.0\nsamples = 3\nvalue = [0, 3, 0]", fillcolor="#39e581"] ;
807 -> 809 ;
810 [label="X[16] <= 0.5\nentropy = 0.811\nsamples = 4\nvalue = [0, 1, 3]", fillcolor="#ab7bee"] ;
806 -> 810 ;
811 [label="entropy = 0.0\nsamples = 3\nvalue = [0, 0, 3]", fillcolor="#8139e5"] ;
810 -> 811 ;
812 [label="entropy = 0.0\nsamples = 1\nvalue = [0, 1, 0]", fillcolor="#39e581"] ;
810 -> 812 ;
813 [label="entropy = 0.0\nsamples = 3\nvalue = [0, 3, 0]", fillcolor="#39e581"] ;
805 -> 813 ;
814 [label="X[3] <= -0.5\nentropy = 1.021\nsamples = 25\nvalue = [1, 6, 18]", fillcolor="#af82ef"] ;
802 -> 814 ;
815 [label="X[31] <= -0.5\nentropy = 1.371\nsamples = 5\nvalue = [1, 1, 3]", fillcolor="#c09cf2"] ;
814 -> 815 ;
816 [label="entropy = 0.0\nsamples = 1\nvalue = [0, 1, 0]", fillcolor="#39e581"] ;
815 -> 816 ;
817 [label="X[30] <= 0.5\nentropy = 0.811\nsamples = 4\nvalue = [1, 0, 3]", fillcolor="#ab7bee"] ;
815 -> 817 ;
818 [label="entropy = 0.0\nsamples = 2\nvalue = [0, 0, 2]", fillcolor="#8139e5"] ;
817 -> 818 ;
819 [label="X[4] <= 0.5\nentropy = 1.0\nsamples = 2\nvalue = [1, 0, 1]", fillcolor="#ffffff"] ;
817 -> 819 ;
820 [label="entropy = 0.0\nsamples = 1\nvalue = [0, 0, 1]", fillcolor="#8139e5"] ;
819 -> 820 ;
821 [label="entropy = 0.0\nsamples = 1\nvalue = [1, 0, 0]", fillcolor="#e58139"] ;
819 -> 821 ;
822 [label="X[39] <= 0.5\nentropy = 0.811\nsamples = 20\nvalue = [0, 5, 15]", fillcolor="#ab7bee"] ;
814 -> 822 ;
823 [label="X[33] <= -0.5\nentropy = 0.742\nsamples = 19\nvalue = [0, 4, 15]", fillcolor="#a36eec"] ;
822 -> 823 ;
824 [label="entropy = 0.0\nsamples = 1\nvalue = [0, 1, 0]", fillcolor="#39e581"] ;
823 -> 824 ;
825 [label="X[3] <= 0.5\nentropy = 0.65\nsamples = 18\nvalue = [0, 3, 15]", fillcolor="#9a61ea"] ;
823 -> 825 ;
826 [label="entropy = 0.0\nsamples = 10\nvalue = [0, 0, 10]", fillcolor="#8139e5"] ;
825 -> 826 ;
827 [label="X[36] <= -0.5\nentropy = 0.954\nsamples = 8\nvalue = [0, 3, 5]", fillcolor="#cdb0f5"] ;
825 -> 827 ;
828 [label="X[30] <= 0.5\nentropy = 1.0\nsamples = 6\nvalue = [0, 3, 3]", fillcolor="#ffffff"] ;
827 -> 828 ;
829 [label="X[37] <= 0.5\nentropy = 0.971\nsamples = 5\nvalue = [0, 3, 2]", fillcolor="#bdf6d5"] ;
828 -> 829 ;
830 [label="X[2] <= 0.0\nentropy = 1.0\nsamples = 4\nvalue = [0, 2, 2]", fillcolor="#ffffff"] ;
829 -> 830 ;
831 [label="X[18] <= 0.5\nentropy = 1.0\nsamples = 2\nvalue = [0, 1, 1]", fillcolor="#ffffff"] ;
830 -> 831 ;
832 [label="entropy = 0.0\nsamples = 1\nvalue = [0, 1, 0]", fillcolor="#39e581"] ;
831 -> 832 ;
833 [label="entropy = 0.0\nsamples = 1\nvalue = [0, 0, 1]", fillcolor="#8139e5"] ;
831 -> 833 ;
834 [label="X[18] <= 0.5\nentropy = 1.0\nsamples = 2\nvalue = [0, 1, 1]", fillcolor="#ffffff"] ;
830 -> 834 ;
835 [label="entropy = 0.0\nsamples = 1\nvalue = [0, 0, 1]", fillcolor="#8139e5"] ;
834 -> 835 ;
836 [label="entropy = 0.0\nsamples = 1\nvalue = [0, 1, 0]", fillcolor="#39e581"] ;
834 -> 836 ;
837 [label="entropy = 0.0\nsamples = 1\nvalue = [0, 1, 0]", fillcolor="#39e581"] ;
829 -> 837 ;
838 [label="entropy = 0.0\nsamples = 1\nvalue = [0, 0, 1]", fillcolor="#8139e5"] ;
828 -> 838 ;
839 [label="entropy = 0.0\nsamples = 2\nvalue = [0, 0, 2]", fillcolor="#8139e5"] ;
827 -> 839 ;
840 [label="entropy = 0.0\nsamples = 1\nvalue = [0, 1, 0]", fillcolor="#39e581"] ;
822 -> 840 ;
841 [label="X[26] <= -0.5\nentropy = 0.592\nsamples = 21\nvalue = [0, 3, 18]", fillcolor="#965ae9"] ;
801 -> 841 ;
842 [label="X[30] <= 0.5\nentropy = 1.0\nsamples = 6\nvalue = [0, 3, 3]", fillcolor="#ffffff"] ;
841 -> 842 ;
843 [label="X[27] <= -0.5\nentropy = 0.971\nsamples = 5\nvalue = [0, 2, 3]", fillcolor="#d5bdf6"] ;
842 -> 843 ;
844 [label="entropy = 0.0\nsamples = 1\nvalue = [0, 1, 0]", fillcolor="#39e581"] ;
843 -> 844 ;
845 [label="X[13] <= -0.5\nentropy = 0.811\nsamples = 4\nvalue = [0, 1, 3]", fillcolor="#ab7bee"] ;
843 -> 845 ;
846 [label="X[14] <= 0.5\nentropy = 1.0\nsamples = 2\nvalue = [0, 1, 1]", fillcolor="#ffffff"] ;
845 -> 846 ;
847 [label="entropy = 0.0\nsamples = 1\nvalue = [0, 1, 0]", fillcolor="#39e581"] ;
846 -> 847 ;
848 [label="entropy = 0.0\nsamples = 1\nvalue = [0, 0, 1]", fillcolor="#8139e5"] ;
846 -> 848 ;
849 [label="entropy = 0.0\nsamples = 2\nvalue = [0, 0, 2]", fillcolor="#8139e5"] ;
845 -> 849 ;
850 [label="entropy = 0.0\nsamples = 1\nvalue = [0, 1, 0]", fillcolor="#39e581"] ;
842 -> 850 ;
851 [label="entropy = 0.0\nsamples = 15\nvalue = [0, 0, 15]", fillcolor="#8139e5"] ;
841 -> 851 ;
852 [label="X[3] <= 0.5\nentropy = 0.638\nsamples = 243\nvalue = [10, 19, 214]", fillcolor="#9153e8"] ;
768 -> 852 ;
853 [label="X[13] <= -0.5\nentropy = 0.524\nsamples = 194\nvalue = [3, 16, 175]", fillcolor="#8e4ee8"] ;
852 -> 853 ;
854 [label="X[24] <= 0.5\nentropy = 0.543\nsamples = 64\nvalue = [3, 3, 58]", fillcolor="#8d4ce8"] ;
853 -> 854 ;
855 [label="X[18] <= 0.5\nentropy = 0.46\nsamples = 51\nvalue = [1, 3, 47]", fillcolor="#8c4ae7"] ;
854 -> 855 ;
856 [label="X[37] <= 0.5\nentropy = 0.744\nsamples = 26\nvalue = [1, 3, 22]", fillcolor="#975bea"] ;
855 -> 856 ;
857 [label="X[30] <= -0.5\nentropy = 0.592\nsamples = 21\nvalue = [0, 3, 18]", fillcolor="#965ae9"] ;
856 -> 857 ;
858 [label="entropy = 0.0\nsamples = 7\nvalue = [0, 0, 7]", fillcolor="#8139e5"] ;
857 -> 858 ;
859 [label="X[36] <= -0.5\nentropy = 0.75\nsamples = 14\nvalue = [0, 3, 11]", fillcolor="#a36fec"] ;
857 -> 859 ;
860 [label="X[31] <= -0.5\nentropy = 0.469\nsamples = 10\nvalue = [0, 1, 9]", fillcolor="#8f4fe8"] ;
859 -> 860 ;
861 [label="X[2] <= 0.5\nentropy = 1.0\nsamples = 2\nvalue = [0, 1, 1]", fillcolor="#ffffff"] ;
860 -> 861 ;
862 [label="entropy = 0.0\nsamples = 1\nvalue = [0, 0, 1]", fillcolor="#8139e5"] ;
861 -> 862 ;
863 [label="entropy = 0.0\nsamples = 1\nvalue = [0, 1, 0]", fillcolor="#39e581"] ;
861 -> 863 ;
864 [label="entropy = 0.0\nsamples = 8\nvalue = [0, 0, 8]", fillcolor="#8139e5"] ;
860 -> 864 ;
865 [label="X[2] <= -0.5\nentropy = 1.0\nsamples = 4\nvalue = [0, 2, 2]", fillcolor="#ffffff"] ;
859 -> 865 ;
866 [label="entropy = 0.0\nsamples = 1\nvalue = [0, 1, 0]", fillcolor="#39e581"] ;
865 -> 866 ;
867 [label="X[15] <= -0.5\nentropy = 0.918\nsamples = 3\nvalue = [0, 1, 2]", fillcolor="#c09cf2"] ;
865 -> 867 ;
868 [label="entropy = 0.0\nsamples = 1\nvalue = [0, 1, 0]", fillcolor="#39e581"] ;
867 -> 868 ;
869 [label="entropy = 0.0\nsamples = 2\nvalue = [0, 0, 2]", fillcolor="#8139e5"] ;
867 -> 869 ;
870 [label="X[31] <= -0.5\nentropy = 0.722\nsamples = 5\nvalue = [1, 0, 4]", fillcolor="#a06aec"] ;
856 -> 870 ;
871 [label="entropy = 0.0\nsamples = 1\nvalue = [1, 0, 0]", fillcolor="#e58139"] ;
870 -> 871 ;
872 [label="entropy = 0.0\nsamples = 4\nvalue = [0, 0, 4]", fillcolor="#8139e5"] ;
870 -> 872 ;
873 [label="entropy = 0.0\nsamples = 25\nvalue = [0, 0, 25]", fillcolor="#8139e5"] ;
855 -> 873 ;
874 [label="X[30] <= -0.5\nentropy = 0.619\nsamples = 13\nvalue = [2, 0, 11]", fillcolor="#985dea"] ;
854 -> 874 ;
875 [label="entropy = 0.0\nsamples = 1\nvalue = [1, 0, 0]", fillcolor="#e58139"] ;
874 -> 875 ;
876 [label="X[19] <= -0.5\nentropy = 0.414\nsamples = 12\nvalue = [1, 0, 11]", fillcolor="#8c4be7"] ;
874 -> 876 ;
877 [label="X[20] <= 0.5\nentropy = 1.0\nsamples = 2\nvalue = [1, 0, 1]", fillcolor="#ffffff"] ;
876 -> 877 ;
878 [label="entropy = 0.0\nsamples = 1\nvalue = [1, 0, 0]", fillcolor="#e58139"] ;
877 -> 878 ;
879 [label="entropy = 0.0\nsamples = 1\nvalue = [0, 0, 1]", fillcolor="#8139e5"] ;
877 -> 879 ;
880 [label="entropy = 0.0\nsamples = 10\nvalue = [0, 0, 10]", fillcolor="#8139e5"] ;
876 -> 880 ;
881 [label="X[2] <= -0.5\nentropy = 0.469\nsamples = 130\nvalue = [0, 13, 117]", fillcolor="#8f4fe8"] ;
853 -> 881 ;
882 [label="entropy = 0.0\nsamples = 39\nvalue = [0, 0, 39]", fillcolor="#8139e5"] ;
881 -> 882 ;
883 [label="X[22] <= 0.5\nentropy = 0.592\nsamples = 91\nvalue = [0, 13, 78]", fillcolor="#965ae9"] ;
881 -> 883 ;
884 [label="X[19] <= 0.5\nentropy = 0.567\nsamples = 90\nvalue = [0, 12, 78]", fillcolor="#9457e9"] ;
883 -> 884 ;
885 [label="X[31] <= 0.5\nentropy = 0.615\nsamples = 79\nvalue = [0, 12, 67]", fillcolor="#985cea"] ;
884 -> 885 ;
886 [label="X[38] <= -0.5\nentropy = 0.661\nsamples = 70\nvalue = [0, 12, 58]", fillcolor="#9b62ea"] ;
885 -> 886 ;
887 [label="entropy = 0.0\nsamples = 7\nvalue = [0, 0, 7]", fillcolor="#8139e5"] ;
886 -> 887 ;
888 [label="X[20] <= 0.5\nentropy = 0.702\nsamples = 63\nvalue = [0, 12, 51]", fillcolor="#9f68eb"] ;
886 -> 888 ;
889 [label="X[19] <= -0.5\nentropy = 0.785\nsamples = 47\nvalue = [0, 11, 36]", fillcolor="#a876ed"] ;
888 -> 889 ;
890 [label="X[30] <= -0.5\nentropy = 0.991\nsamples = 9\nvalue = [0, 5, 4]", fillcolor="#d7fae6"] ;
889 -> 890 ;
891 [label="entropy = 0.0\nsamples = 3\nvalue = [0, 3, 0]", fillcolor="#39e581"] ;
890 -> 891 ;
892 [label="X[4] <= 0.5\nentropy = 0.918\nsamples = 6\nvalue = [0, 2, 4]", fillcolor="#c09cf2"] ;
890 -> 892 ;
893 [label="entropy = 0.0\nsamples = 4\nvalue = [0, 0, 4]", fillcolor="#8139e5"] ;
892 -> 893 ;
894 [label="entropy = 0.0\nsamples = 2\nvalue = [0, 2, 0]", fillcolor="#39e581"] ;
892 -> 894 ;
895 [label="X[31] <= -0.5\nentropy = 0.629\nsamples = 38\nvalue = [0, 6, 32]", fillcolor="#995eea"] ;
889 -> 895 ;
896 [label="X[38] <= 0.5\nentropy = 0.896\nsamples = 16\nvalue = [0, 5, 11]", fillcolor="#ba93f1"] ;
895 -> 896 ;
897 [label="X[3] <= -0.5\nentropy = 0.837\nsamples = 15\nvalue = [0, 4, 11]", fillcolor="#af81ee"] ;
896 -> 897 ;
898 [label="X[18] <= 0.5\nentropy = 0.918\nsamples = 3\nvalue = [0, 2, 1]", fillcolor="#9cf2c0"] ;
897 -> 898 ;
899 [label="entropy = 0.0\nsamples = 2\nvalue = [0, 2, 0]", fillcolor="#39e581"] ;
898 -> 899 ;
900 [label="entropy = 0.0\nsamples = 1\nvalue = [0, 0, 1]", fillcolor="#8139e5"] ;
898 -> 900 ;
901 [label="X[2] <= 0.5\nentropy = 0.65\nsamples = 12\nvalue = [0, 2, 10]", fillcolor="#9a61ea"] ;
897 -> 901 ;
902 [label="X[12] <= -0.5\nentropy = 0.971\nsamples = 5\nvalue = [0, 2, 3]", fillcolor="#d5bdf6"] ;
901 -> 902 ;
903 [label="entropy = 0.0\nsamples = 2\nvalue = [0, 2, 0]", fillcolor="#39e581"] ;
902 -> 903 ;
904 [label="entropy = 0.0\nsamples = 3\nvalue = [0, 0, 3]", fillcolor="#8139e5"] ;
902 -> 904 ;
905 [label="entropy = 0.0\nsamples = 7\nvalue = [0, 0, 7]", fillcolor="#8139e5"] ;
901 -> 905 ;
906 [label="entropy = 0.0\nsamples = 1\nvalue = [0, 1, 0]", fillcolor="#39e581"] ;
896 -> 906 ;
907 [label="X[24] <= 0.5\nentropy = 0.267\nsamples = 22\nvalue = [0, 1, 21]", fillcolor="#8742e6"] ;
895 -> 907 ;
908 [label="entropy = 0.0\nsamples = 18\nvalue = [0, 0, 18]", fillcolor="#8139e5"] ;
907 -> 908 ;
909 [label="X[30] <= 0.5\nentropy = 0.811\nsamples = 4\nvalue = [0, 1, 3]", fillcolor="#ab7bee"] ;
907 -> 909 ;
910 [label="entropy = 0.0\nsamples = 3\nvalue = [0, 0, 3]", fillcolor="#8139e5"] ;
909 -> 910 ;
911 [label="entropy = 0.0\nsamples = 1\nvalue = [0, 1, 0]", fillcolor="#39e581"] ;
909 -> 911 ;
912 [label="X[21] <= -0.5\nentropy = 0.337\nsamples = 16\nvalue = [0, 1, 15]", fillcolor="#8946e7"] ;
888 -> 912 ;
913 [label="X[22] <= -0.5\nentropy = 1.0\nsamples = 2\nvalue = [0, 1, 1]", fillcolor="#ffffff"] ;
912 -> 913 ;
914 [label="entropy = 0.0\nsamples = 1\nvalue = [0, 0, 1]", fillcolor="#8139e5"] ;
913 -> 914 ;
915 [label="entropy = 0.0\nsamples = 1\nvalue = [0, 1, 0]", fillcolor="#39e581"] ;
913 -> 915 ;
916 [label="entropy = 0.0\nsamples = 14\nvalue = [0, 0, 14]", fillcolor="#8139e5"] ;
912 -> 916 ;
917 [label="entropy = 0.0\nsamples = 9\nvalue = [0, 0, 9]", fillcolor="#8139e5"] ;
885 -> 917 ;
918 [label="entropy = 0.0\nsamples = 11\nvalue = [0, 0, 11]", fillcolor="#8139e5"] ;
884 -> 918 ;
919 [label="entropy = 0.0\nsamples = 1\nvalue = [0, 1, 0]", fillcolor="#39e581"] ;
883 -> 919 ;
920 [label="X[13] <= -0.5\nentropy = 0.91\nsamples = 49\nvalue = [7, 3, 39]", fillcolor="#9f68eb"] ;
852 -> 920 ;
921 [label="X[2] <= 0.0\nentropy = 1.432\nsamples = 14\nvalue = [5, 2, 7]", fillcolor="#e3d3f9"] ;
920 -> 921 ;
922 [label="X[4] <= 0.5\nentropy = 0.946\nsamples = 11\nvalue = [4, 0, 7]", fillcolor="#c9aaf4"] ;
921 -> 922 ;
923 [label="X[37] <= 0.5\nentropy = 0.764\nsamples = 9\nvalue = [2, 0, 7]", fillcolor="#a572ec"] ;
922 -> 923 ;
924 [label="X[12] <= 0.0\nentropy = 0.544\nsamples = 8\nvalue = [1, 0, 7]", fillcolor="#9355e9"] ;
923 -> 924 ;
925 [label="X[19] <= 0.5\nentropy = 1.0\nsamples = 2\nvalue = [1, 0, 1]", fillcolor="#ffffff"] ;
924 -> 925 ;
926 [label="entropy = 0.0\nsamples = 1\nvalue = [1, 0, 0]", fillcolor="#e58139"] ;
925 -> 926 ;
927 [label="entropy = 0.0\nsamples = 1\nvalue = [0, 0, 1]", fillcolor="#8139e5"] ;
925 -> 927 ;
928 [label="entropy = 0.0\nsamples = 6\nvalue = [0, 0, 6]", fillcolor="#8139e5"] ;
924 -> 928 ;
929 [label="entropy = 0.0\nsamples = 1\nvalue = [1, 0, 0]", fillcolor="#e58139"] ;
923 -> 929 ;
930 [label="entropy = 0.0\nsamples = 2\nvalue = [2, 0, 0]", fillcolor="#e58139"] ;
922 -> 930 ;
931 [label="X[30] <= -0.5\nentropy = 0.918\nsamples = 3\nvalue = [1, 2, 0]", fillcolor="#9cf2c0"] ;
921 -> 931 ;
932 [label="entropy = 0.0\nsamples = 1\nvalue = [1, 0, 0]", fillcolor="#e58139"] ;
931 -> 932 ;
933 [label="entropy = 0.0\nsamples = 2\nvalue = [0, 2, 0]", fillcolor="#39e581"] ;
931 -> 933 ;
934 [label="X[37] <= 0.5\nentropy = 0.501\nsamples = 35\nvalue = [2, 1, 32]", fillcolor="#8c4be7"] ;
920 -> 934 ;
935 [label="X[4] <= 0.5\nentropy = 0.33\nsamples = 33\nvalue = [2, 0, 31]", fillcolor="#8946e7"] ;
934 -> 935 ;
936 [label="entropy = 0.0\nsamples = 23\nvalue = [0, 0, 23]", fillcolor="#8139e5"] ;
935 -> 936 ;
937 [label="X[31] <= -0.5\nentropy = 0.722\nsamples = 10\nvalue = [2, 0, 8]", fillcolor="#a06aec"] ;
935 -> 937 ;
938 [label="entropy = 0.0\nsamples = 1\nvalue = [1, 0, 0]", fillcolor="#e58139"] ;
937 -> 938 ;
939 [label="X[19] <= -0.5\nentropy = 0.503\nsamples = 9\nvalue = [1, 0, 8]", fillcolor="#9152e8"] ;
937 -> 939 ;
940 [label="X[5] <= -0.5\nentropy = 1.0\nsamples = 2\nvalue = [1, 0, 1]", fillcolor="#ffffff"] ;
939 -> 940 ;
941 [label="entropy = 0.0\nsamples = 1\nvalue = [0, 0, 1]", fillcolor="#8139e5"] ;
940 -> 941 ;
942 [label="entropy = 0.0\nsamples = 1\nvalue = [1, 0, 0]", fillcolor="#e58139"] ;
940 -> 942 ;
943 [label="entropy = 0.0\nsamples = 7\nvalue = [0, 0, 7]", fillcolor="#8139e5"] ;
939 -> 943 ;
944 [label="X[18] <= 0.5\nentropy = 1.0\nsamples = 2\nvalue = [0, 1, 1]", fillcolor="#ffffff"] ;
934 -> 944 ;
945 [label="entropy = 0.0\nsamples = 1\nvalue = [0, 1, 0]", fillcolor="#39e581"] ;
944 -> 945 ;
946 [label="entropy = 0.0\nsamples = 1\nvalue = [0, 0, 1]", fillcolor="#8139e5"] ;
944 -> 946 ;
947 [label="X[32] <= -0.5\nentropy = 0.142\nsamples = 173\nvalue = [1, 2, 170]", fillcolor="#833ce5"] ;
543 -> 947 ;
948 [label="X[33] <= -0.5\nentropy = 1.149\nsamples = 7\nvalue = [1, 1, 5]", fillcolor="#ab7bee"] ;
947 -> 948 ;
949 [label="entropy = 0.0\nsamples = 1\nvalue = [0, 1, 0]", fillcolor="#39e581"] ;
948 -> 949 ;
950 [label="X[18] <= -0.5\nentropy = 0.65\nsamples = 6\nvalue = [1, 0, 5]", fillcolor="#9a61ea"] ;
948 -> 950 ;
951 [label="X[30] <= 0.0\nentropy = 1.0\nsamples = 2\nvalue = [1, 0, 1]", fillcolor="#ffffff"] ;
950 -> 951 ;
952 [label="entropy = 0.0\nsamples = 1\nvalue = [0, 0, 1]", fillcolor="#8139e5"] ;
951 -> 952 ;
953 [label="entropy = 0.0\nsamples = 1\nvalue = [1, 0, 0]", fillcolor="#e58139"] ;
951 -> 953 ;
954 [label="entropy = 0.0\nsamples = 4\nvalue = [0, 0, 4]", fillcolor="#8139e5"] ;
950 -> 954 ;
